digraph Tree {
node [shape=box, style="filled, rounded", color="black", fontname="helvetica"] ;
edge [fontname="helvetica"] ;
0 [label="RyD_Spend <= 0.092\nsquared_error = 1.031\nsamples = 800\nvalue = -0.01", fillcolor="#f9e2d2"] ;
1 [label="RyD_Spend <= -0.873\nsquared_error = 0.245\nsamples = 437\nvalue = -0.762", fillcolor="#fbebe0"] ;
0 -> 1 [labeldistance=2.5, labelangle=45, headlabel="True"] ;
2 [label="RyD_Spend <= -1.321\nsquared_error = 0.062\nsamples = 190\nvalue = -1.247", fillcolor="#fcf1e9"] ;
1 -> 2 ;
3 [label="RyD_Spend <= -1.739\nsquared_error = 0.026\nsamples = 99\nvalue = -1.441", fillcolor="#fdf3ed"] ;
2 -> 3 ;
4 [label="Administration <= -3.062\nsquared_error = 0.06\nsamples = 2\nvalue = -2.201", fillcolor="#fefcfa"] ;
3 -> 4 ;
5 [label="squared_error = 0.0\nsamples = 1\nvalue = -1.957", fillcolor="#fef9f6"] ;
4 -> 5 ;
6 [label="squared_error = -0.0\nsamples = 1\nvalue = -2.446", fillcolor="#ffffff"] ;
4 -> 6 ;
7 [label="RyD_Spend <= -1.503\nsquared_error = 0.013\nsamples = 97\nvalue = -1.426", fillcolor="#fdf3ec"] ;
3 -> 7 ;
8 [label="squared_error = 0.005\nsamples = 56\nvalue = -1.508", fillcolor="#fdf4ee"] ;
7 -> 8 ;
9 [label="squared_error = 0.003\nsamples = 41\nvalue = -1.313", fillcolor="#fcf2ea"] ;
7 -> 9 ;
10 [label="MarketingSpend <= -1.082\nsquared_error = 0.015\nsamples = 91\nvalue = -1.036", fillcolor="#fcefe5"] ;
2 -> 10 ;
11 [label="MarketingSpend <= -1.18\nsquared_error = 0.004\nsamples = 43\nvalue = -1.144", fillcolor="#fcf0e7"] ;
10 -> 11 ;
12 [label="squared_error = 0.001\nsamples = 24\nvalue = -1.19", fillcolor="#fcf0e8"] ;
11 -> 12 ;
13 [label="squared_error = 0.001\nsamples = 19\nvalue = -1.087", fillcolor="#fcefe6"] ;
11 -> 13 ;
14 [label="Administration <= -0.576\nsquared_error = 0.005\nsamples = 48\nvalue = -0.939", fillcolor="#fbede3"] ;
10 -> 14 ;
15 [label="squared_error = 0.002\nsamples = 25\nvalue = -0.989", fillcolor="#fbeee4"] ;
14 -> 15 ;
16 [label="squared_error = 0.003\nsamples = 23\nvalue = -0.885", fillcolor="#fbede2"] ;
14 -> 16 ;
17 [label="RyD_Spend <= -0.392\nsquared_error = 0.066\nsamples = 247\nvalue = -0.389", fillcolor="#fae7d9"] ;
1 -> 17 ;
18 [label="RyD_Spend <= -0.628\nsquared_error = 0.017\nsamples = 126\nvalue = -0.602", fillcolor="#fbe9dd"] ;
17 -> 18 ;
19 [label="MarketingSpend <= -0.727\nsquared_error = 0.004\nsamples = 65\nvalue = -0.713", fillcolor="#fbebdf"] ;
18 -> 19 ;
20 [label="squared_error = 0.001\nsamples = 35\nvalue = -0.764", fillcolor="#fbebe0"] ;
19 -> 20 ;
21 [label="squared_error = 0.001\nsamples = 30\nvalue = -0.653", fillcolor="#fbeade"] ;
19 -> 21 ;
22 [label="RyD_Spend <= -0.517\nsquared_error = 0.004\nsamples = 61\nvalue = -0.484", fillcolor="#fae8db"] ;
18 -> 22 ;
23 [label="squared_error = 0.001\nsamples = 23\nvalue = -0.554", fillcolor="#fae9dc"] ;
22 -> 23 ;
24 [label="squared_error = 0.001\nsamples = 38\nvalue = -0.442", fillcolor="#fae8da"] ;
22 -> 24 ;
25 [label="RyD_Spend <= -0.148\nsquared_error = 0.02\nsamples = 121\nvalue = -0.168", fillcolor="#fae4d5"] ;
17 -> 25 ;
26 [label="MarketingSpend <= -0.277\nsquared_error = 0.004\nsamples = 65\nvalue = -0.282", fillcolor="#fae6d7"] ;
25 -> 26 ;
27 [label="squared_error = 0.001\nsamples = 32\nvalue = -0.337", fillcolor="#fae6d8"] ;
26 -> 27 ;
28 [label="squared_error = 0.001\nsamples = 33\nvalue = -0.228", fillcolor="#fae5d6"] ;
26 -> 28 ;
29 [label="MarketingSpend <= -0.018\nsquared_error = 0.005\nsamples = 56\nvalue = -0.036", fillcolor="#f9e3d3"] ;
25 -> 29 ;
30 [label="squared_error = 0.001\nsamples = 28\nvalue = -0.09", fillcolor="#f9e3d4"] ;
29 -> 30 ;
31 [label="squared_error = 0.003\nsamples = 28\nvalue = 0.018", fillcolor="#f9e2d2"] ;
29 -> 31 ;
32 [label="Administration <= 5.929\nsquared_error = 0.473\nsamples = 363\nvalue = 0.897", fillcolor="#f7d8c2"] ;
0 -> 32 [labeldistance=2.5, labelangle=-45, headlabel="False"] ;
33 [label="RyD_Spend <= 0.898\nsquared_error = 0.176\nsamples = 360\nvalue = 0.848", fillcolor="#f7d8c2"] ;
32 -> 33 ;
34 [label="RyD_Spend <= 0.472\nsquared_error = 0.045\nsamples = 161\nvalue = 0.447", fillcolor="#f8ddca"] ;
33 -> 34 ;
35 [label="RyD_Spend <= 0.259\nsquared_error = 0.011\nsamples = 68\nvalue = 0.24", fillcolor="#f9e0ce"] ;
34 -> 35 ;
36 [label="squared_error = 0.002\nsamples = 34\nvalue = 0.154", fillcolor="#f9e1cf"] ;
35 -> 36 ;
37 [label="squared_error = 0.005\nsamples = 34\nvalue = 0.326", fillcolor="#f8dfcc"] ;
35 -> 37 ;
38 [label="MarketingSpend <= 0.667\nsquared_error = 0.016\nsamples = 93\nvalue = 0.599", fillcolor="#f8dbc7"] ;
34 -> 38 ;
39 [label="squared_error = 0.004\nsamples = 52\nvalue = 0.503", fillcolor="#f8ddc9"] ;
38 -> 39 ;
40 [label="squared_error = 0.004\nsamples = 41\nvalue = 0.72", fillcolor="#f7dac5"] ;
38 -> 40 ;
41 [label="RyD_Spend <= 1.317\nsquared_error = 0.046\nsamples = 199\nvalue = 1.172", fillcolor="#f6d5bc"] ;
33 -> 41 ;
42 [label="RyD_Spend <= 1.106\nsquared_error = 0.013\nsamples = 114\nvalue = 1.015", fillcolor="#f7d7bf"] ;
41 -> 42 ;
43 [label="squared_error = 0.003\nsamples = 55\nvalue = 0.911", fillcolor="#f7d8c1"] ;
42 -> 43 ;
44 [label="squared_error = 0.003\nsamples = 59\nvalue = 1.112", fillcolor="#f6d5be"] ;
42 -> 44 ;
45 [label="MarketingSpend <= 1.48\nsquared_error = 0.012\nsamples = 85\nvalue = 1.383", fillcolor="#f6d2b9"] ;
41 -> 45 ;
46 [label="squared_error = 0.002\nsamples = 42\nvalue = 1.285", fillcolor="#f6d3ba"] ;
45 -> 46 ;
47 [label="squared_error = 0.004\nsamples = 43\nvalue = 1.479", fillcolor="#f6d1b7"] ;
45 -> 47 ;
48 [label="Administration <= 13.748\nsquared_error = 1.852\nsamples = 3\nvalue = 6.732", fillcolor="#e99456"] ;
32 -> 48 ;
49 [label="RyD_Spend <= 1.055\nsquared_error = 0.532\nsamples = 2\nvalue = 7.597", fillcolor="#e78a46"] ;
48 -> 49 ;
50 [label="squared_error = 0.0\nsamples = 1\nvalue = 6.868", fillcolor="#e99254"] ;
49 -> 50 ;
51 [label="squared_error = 0.0\nsamples = 1\nvalue = 8.327", fillcolor="#e58139"] ;
49 -> 51 ;
52 [label="squared_error = 0.0\nsamples = 1\nvalue = 5.002", fillcolor="#eda876"] ;
48 -> 52 ;
}