digraph Tree {
node [shape=box, fontname="helvetica"] ;
edge [fontname="helvetica"] ;
0 [label="Sp. Atk <= 60.5\ngini = 0.93\nsamples = 1190\nvalue = [91, 56, 47, 73, 31, 49, 75, 10, 47, 104, 46, 43\n131, 46, 82, 67, 43, 149]"] ;
1 [label="Defense <= 99.5\ngini = 0.918\nsamples = 525\nvalue = [65, 27, 16, 16, 11, 31, 16, 5, 16, 39, 33, 17\n85, 22, 11, 40, 23, 52]"] ;
0 -> 1 [labeldistance=2.5, labelangle=45, headlabel="True"] ;
2 [label="HP <= 81.0\ngini = 0.909\nsamples = 430\nvalue = [55, 20, 15, 16, 10, 27, 15, 4, 10, 36, 22, 14\n82, 20, 10, 18, 9, 47]"] ;
1 -> 2 ;
3 [label="Sp. Atk <= 29.5\ngini = 0.913\nsamples = 375\nvalue = [55, 20, 13, 16, 9, 21, 14, 4, 9, 35, 19, 9, 59\n19, 7, 16, 9, 41]"] ;
2 -> 3 ;
4 [label="Attack <= 48.0\ngini = 0.765\nsamples = 41\nvalue = [18, 1, 0, 0, 0, 2, 1, 0, 0, 1, 1, 2, 4, 1\n1, 2, 1, 6]"] ;
3 -> 4 ;
5 [label="Attack <= 21.0\ngini = 0.56\nsamples = 27\nvalue = [17, 0, 0, 0, 0, 0, 0, 0, 0, 0, 0, 0, 2, 1\n1, 0, 1, 5]"] ;
4 -> 5 ;
6 [label="Sp. Atk <= 22.5\ngini = 0.625\nsamples = 8\nvalue = [2, 0, 0, 0, 0, 0, 0, 0, 0, 0, 0, 0, 2, 0\n0, 0, 0, 4]"] ;
5 -> 6 ;
7 [label="Sp. Atk <= 17.5\ngini = 0.48\nsamples = 5\nvalue = [0, 0, 0, 0, 0, 0, 0, 0, 0, 0, 0, 0, 2, 0\n0, 0, 0, 3]"] ;
6 -> 7 ;
8 [label="gini = 0.0\nsamples = 2\nvalue = [0, 0, 0, 0, 0, 0, 0, 0, 0, 0, 0, 0, 0, 0\n0, 0, 0, 2]"] ;
7 -> 8 ;
9 [label="Sp. Def <= 47.5\ngini = 0.444\nsamples = 3\nvalue = [0, 0, 0, 0, 0, 0, 0, 0, 0, 0, 0, 0, 2, 0\n0, 0, 0, 1]"] ;
7 -> 9 ;
10 [label="gini = 0.0\nsamples = 2\nvalue = [0, 0, 0, 0, 0, 0, 0, 0, 0, 0, 0, 0, 2, 0\n0, 0, 0, 0]"] ;
9 -> 10 ;
11 [label="gini = 0.0\nsamples = 1\nvalue = [0, 0, 0, 0, 0, 0, 0, 0, 0, 0, 0, 0, 0, 0\n0, 0, 0, 1]"] ;
9 -> 11 ;
12 [label="Speed <= 35.0\ngini = 0.444\nsamples = 3\nvalue = [2, 0, 0, 0, 0, 0, 0, 0, 0, 0, 0, 0, 0, 0\n0, 0, 0, 1]"] ;
6 -> 12 ;
13 [label="gini = 0.0\nsamples = 1\nvalue = [1, 0, 0, 0, 0, 0, 0, 0, 0, 0, 0, 0, 0, 0\n0, 0, 0, 0]"] ;
12 -> 13 ;
14 [label="Speed <= 42.5\ngini = 0.5\nsamples = 2\nvalue = [1, 0, 0, 0, 0, 0, 0, 0, 0, 0, 0, 0, 0, 0\n0, 0, 0, 1]"] ;
12 -> 14 ;
15 [label="gini = 0.0\nsamples = 1\nvalue = [0, 0, 0, 0, 0, 0, 0, 0, 0, 0, 0, 0, 0, 0\n0, 0, 0, 1]"] ;
14 -> 15 ;
16 [label="gini = 0.0\nsamples = 1\nvalue = [1, 0, 0, 0, 0, 0, 0, 0, 0, 0, 0, 0, 0, 0\n0, 0, 0, 0]"] ;
14 -> 16 ;
17 [label="HP <= 52.5\ngini = 0.366\nsamples = 19\nvalue = [15, 0, 0, 0, 0, 0, 0, 0, 0, 0, 0, 0, 0, 1\n1, 0, 1, 1]"] ;
5 -> 17 ;
18 [label="Defense <= 33.0\ngini = 0.117\nsamples = 16\nvalue = [15, 0, 0, 0, 0, 0, 0, 0, 0, 0, 0, 0, 0, 0\n1, 0, 0, 0]"] ;
17 -> 18 ;
19 [label="Speed <= 43.5\ngini = 0.5\nsamples = 2\nvalue = [1, 0, 0, 0, 0, 0, 0, 0, 0, 0, 0, 0, 0, 0\n1, 0, 0, 0]"] ;
18 -> 19 ;
20 [label="gini = 0.0\nsamples = 1\nvalue = [0, 0, 0, 0, 0, 0, 0, 0, 0, 0, 0, 0, 0, 0\n1, 0, 0, 0]"] ;
19 -> 20 ;
21 [label="gini = 0.0\nsamples = 1\nvalue = [1, 0, 0, 0, 0, 0, 0, 0, 0, 0, 0, 0, 0, 0\n0, 0, 0, 0]"] ;
19 -> 21 ;
22 [label="gini = 0.0\nsamples = 14\nvalue = [14, 0, 0, 0, 0, 0, 0, 0, 0, 0, 0, 0, 0, 0\n0, 0, 0, 0]"] ;
18 -> 22 ;
23 [label="Speed <= 19.0\ngini = 0.667\nsamples = 3\nvalue = [0, 0, 0, 0, 0, 0, 0, 0, 0, 0, 0, 0, 0, 1\n0, 0, 1, 1]"] ;
17 -> 23 ;
24 [label="gini = 0.5\nsamples = 2\nvalue = [0, 0, 0, 0, 0, 0, 0, 0, 0, 0, 0, 0, 0, 1\n0, 0, 0, 1]"] ;
23 -> 24 ;
25 [label="gini = 0.0\nsamples = 1\nvalue = [0, 0, 0, 0, 0, 0, 0, 0, 0, 0, 0, 0, 0, 0\n0, 0, 1, 0]"] ;
23 -> 25 ;
26 [label="HP <= 71.0\ngini = 0.888\nsamples = 14\nvalue = [1, 1, 0, 0, 0, 2, 1, 0, 0, 1, 1, 2, 2, 0\n0, 2, 0, 1]"] ;
4 -> 26 ;
27 [label="Speed <= 27.5\ngini = 0.875\nsamples = 12\nvalue = [1, 1, 0, 0, 0, 0, 1, 0, 0, 1, 1, 2, 2, 0\n0, 2, 0, 1]"] ;
26 -> 27 ;
28 [label="Attack <= 62.5\ngini = 0.444\nsamples = 3\nvalue = [0, 0, 0, 0, 0, 0, 0, 0, 0, 1, 0, 0, 0, 0\n0, 2, 0, 0]"] ;
27 -> 28 ;
29 [label="gini = 0.0\nsamples = 1\nvalue = [0, 0, 0, 0, 0, 0, 0, 0, 0, 1, 0, 0, 0, 0\n0, 0, 0, 0]"] ;
28 -> 29 ;
30 [label="gini = 0.0\nsamples = 2\nvalue = [0, 0, 0, 0, 0, 0, 0, 0, 0, 0, 0, 0, 0, 0\n0, 2, 0, 0]"] ;
28 -> 30 ;
31 [label="Attack <= 67.5\ngini = 0.84\nsamples = 9\nvalue = [1, 1, 0, 0, 0, 0, 1, 0, 0, 0, 1, 2, 2, 0\n0, 0, 0, 1]"] ;
27 -> 31 ;
32 [label="Attack <= 58.0\ngini = 0.444\nsamples = 3\nvalue = [0, 1, 0, 0, 0, 0, 0, 0, 0, 0, 0, 0, 2, 0\n0, 0, 0, 0]"] ;
31 -> 32 ;
33 [label="gini = 0.5\nsamples = 2\nvalue = [0, 1, 0, 0, 0, 0, 0, 0, 0, 0, 0, 0, 1, 0\n0, 0, 0, 0]"] ;
32 -> 33 ;
34 [label="gini = 0.0\nsamples = 1\nvalue = [0, 0, 0, 0, 0, 0, 0, 0, 0, 0, 0, 0, 1, 0\n0, 0, 0, 0]"] ;
32 -> 34 ;
35 [label="Sp. Def <= 32.5\ngini = 0.778\nsamples = 6\nvalue = [1, 0, 0, 0, 0, 0, 1, 0, 0, 0, 1, 2, 0, 0\n0, 0, 0, 1]"] ;
31 -> 35 ;
36 [label="Defense <= 87.5\ngini = 0.5\nsamples = 2\nvalue = [0, 0, 0, 0, 0, 0, 0, 0, 0, 0, 1, 0, 0, 0\n0, 0, 0, 1]"] ;
35 -> 36 ;
37 [label="gini = 0.0\nsamples = 1\nvalue = [0, 0, 0, 0, 0, 0, 0, 0, 0, 0, 1, 0, 0, 0\n0, 0, 0, 0]"] ;
36 -> 37 ;
38 [label="gini = 0.0\nsamples = 1\nvalue = [0, 0, 0, 0, 0, 0, 0, 0, 0, 0, 0, 0, 0, 0\n0, 0, 0, 1]"] ;
36 -> 38 ;
39 [label="Sp. Def <= 62.5\ngini = 0.625\nsamples = 4\nvalue = [1, 0, 0, 0, 0, 0, 1, 0, 0, 0, 0, 2, 0, 0\n0, 0, 0, 0]"] ;
35 -> 39 ;
40 [label="HP <= 60.0\ngini = 0.444\nsamples = 3\nvalue = [0, 0, 0, 0, 0, 0, 1, 0, 0, 0, 0, 2, 0, 0\n0, 0, 0, 0]"] ;
39 -> 40 ;
41 [label="gini = 0.0\nsamples = 1\nvalue = [0, 0, 0, 0, 0, 0, 0, 0, 0, 0, 0, 1, 0, 0\n0, 0, 0, 0]"] ;
40 -> 41 ;
42 [label="gini = 0.5\nsamples = 2\nvalue = [0, 0, 0, 0, 0, 0, 1, 0, 0, 0, 0, 1, 0, 0\n0, 0, 0, 0]"] ;
40 -> 42 ;
43 [label="gini = 0.0\nsamples = 1\nvalue = [1, 0, 0, 0, 0, 0, 0, 0, 0, 0, 0, 0, 0, 0\n0, 0, 0, 0]"] ;
39 -> 43 ;
44 [label="gini = 0.0\nsamples = 2\nvalue = [0, 0, 0, 0, 0, 2, 0, 0, 0, 0, 0, 0, 0, 0\n0, 0, 0, 0]"] ;
26 -> 44 ;
45 [label="Defense <= 69.5\ngini = 0.917\nsamples = 334\nvalue = [37, 19, 13, 16, 9, 19, 13, 4, 9, 34, 18, 7, 55\n18, 6, 14, 8, 35]"] ;
3 -> 45 ;
46 [label="Sp. Atk <= 37.5\ngini = 0.91\nsamples = 250\nvalue = [18, 12, 10, 15, 8, 14, 12, 3, 2, 24, 12, 6, 48\n15, 6, 10, 4, 31]"] ;
45 -> 46 ;
47 [label="HP <= 32.5\ngini = 0.839\nsamples = 58\nvalue = [4, 4, 2, 1, 1, 6, 0, 1, 1, 5, 5, 1, 20, 1\n0, 3, 1, 2]"] ;
46 -> 47 ;
48 [label="Defense <= 36.0\ngini = 0.75\nsamples = 8\nvalue = [3, 0, 0, 1, 0, 0, 0, 0, 0, 1, 2, 0, 0, 0\n0, 0, 0, 1]"] ;
47 -> 48 ;
49 [label="Sp. Def <= 40.0\ngini = 0.72\nsamples = 5\nvalue = [0, 0, 0, 1, 0, 0, 0, 0, 0, 1, 2, 0, 0, 0\n0, 0, 0, 1]"] ;
48 -> 49 ;
50 [label="Sp. Def <= 27.5\ngini = 0.667\nsamples = 3\nvalue = [0, 0, 0, 1, 0, 0, 0, 0, 0, 1, 0, 0, 0, 0\n0, 0, 0, 1]"] ;
49 -> 50 ;
51 [label="gini = 0.0\nsamples = 1\nvalue = [0, 0, 0, 0, 0, 0, 0, 0, 0, 0, 0, 0, 0, 0\n0, 0, 0, 1]"] ;
50 -> 51 ;
52 [label="Defense <= 22.5\ngini = 0.5\nsamples = 2\nvalue = [0, 0, 0, 1, 0, 0, 0, 0, 0, 1, 0, 0, 0, 0\n0, 0, 0, 0]"] ;
50 -> 52 ;
53 [label="gini = 0.0\nsamples = 1\nvalue = [0, 0, 0, 1, 0, 0, 0, 0, 0, 0, 0, 0, 0, 0\n0, 0, 0, 0]"] ;
52 -> 53 ;
54 [label="gini = 0.0\nsamples = 1\nvalue = [0, 0, 0, 0, 0, 0, 0, 0, 0, 1, 0, 0, 0, 0\n0, 0, 0, 0]"] ;
52 -> 54 ;
55 [label="gini = 0.0\nsamples = 2\nvalue = [0, 0, 0, 0, 0, 0, 0, 0, 0, 0, 2, 0, 0, 0\n0, 0, 0, 0]"] ;
49 -> 55 ;
56 [label="gini = 0.0\nsamples = 3\nvalue = [3, 0, 0, 0, 0, 0, 0, 0, 0, 0, 0, 0, 0, 0\n0, 0, 0, 0]"] ;
48 -> 56 ;
57 [label="Defense <= 34.5\ngini = 0.801\nsamples = 50\nvalue = [1, 4, 2, 0, 1, 6, 0, 1, 1, 4, 3, 1, 20, 1\n0, 3, 1, 1]"] ;
47 -> 57 ;
58 [label="gini = 0.0\nsamples = 7\nvalue = [0, 0, 0, 0, 0, 0, 0, 0, 0, 0, 0, 0, 7, 0\n0, 0, 0, 0]"] ;
57 -> 58 ;
59 [label="Attack <= 60.5\ngini = 0.856\nsamples = 43\nvalue = [1, 4, 2, 0, 1, 6, 0, 1, 1, 4, 3, 1, 13, 1\n0, 3, 1, 1]"] ;
57 -> 59 ;
60 [label="HP <= 43.5\ngini = 0.752\nsamples = 23\nvalue = [1, 3, 0, 0, 1, 1, 0, 1, 0, 4, 0, 1, 10, 1\n0, 0, 0, 0]"] ;
59 -> 60 ;
61 [label="Defense <= 36.5\ngini = 0.805\nsamples = 13\nvalue = [1, 2, 0, 0, 0, 1, 0, 1, 0, 4, 0, 0, 3, 1\n0, 0, 0, 0]"] ;
60 -> 61 ;
62 [label="Sp. Def <= 32.5\ngini = 0.75\nsamples = 4\nvalue = [0, 1, 0, 0, 0, 1, 0, 1, 0, 0, 0, 0, 0, 1\n0, 0, 0, 0]"] ;
61 -> 62 ;
63 [label="gini = 0.0\nsamples = 1\nvalue = [0, 1, 0, 0, 0, 0, 0, 0, 0, 0, 0, 0, 0, 0\n0, 0, 0, 0]"] ;
62 -> 63 ;
64 [label="Attack <= 40.0\ngini = 0.667\nsamples = 3\nvalue = [0, 0, 0, 0, 0, 1, 0, 1, 0, 0, 0, 0, 0, 1\n0, 0, 0, 0]"] ;
62 -> 64 ;
65 [label="gini = 0.0\nsamples = 1\nvalue = [0, 0, 0, 0, 0, 1, 0, 0, 0, 0, 0, 0, 0, 0\n0, 0, 0, 0]"] ;
64 -> 65 ;
66 [label="HP <= 39.0\ngini = 0.5\nsamples = 2\nvalue = [0, 0, 0, 0, 0, 0, 0, 1, 0, 0, 0, 0, 0, 1\n0, 0, 0, 0]"] ;
64 -> 66 ;
67 [label="gini = 0.0\nsamples = 1\nvalue = [0, 0, 0, 0, 0, 0, 0, 1, 0, 0, 0, 0, 0, 0\n0, 0, 0, 0]"] ;
66 -> 67 ;
68 [label="gini = 0.0\nsamples = 1\nvalue = [0, 0, 0, 0, 0, 0, 0, 0, 0, 0, 0, 0, 0, 1\n0, 0, 0, 0]"] ;
66 -> 68 ;
69 [label="Speed <= 53.0\ngini = 0.667\nsamples = 9\nvalue = [1, 1, 0, 0, 0, 0, 0, 0, 0, 4, 0, 0, 3, 0\n0, 0, 0, 0]"] ;
61 -> 69 ;
70 [label="Sp. Def <= 56.5\ngini = 0.375\nsamples = 4\nvalue = [1, 0, 0, 0, 0, 0, 0, 0, 0, 3, 0, 0, 0, 0\n0, 0, 0, 0]"] ;
69 -> 70 ;
71 [label="gini = 0.0\nsamples = 3\nvalue = [0, 0, 0, 0, 0, 0, 0, 0, 0, 3, 0, 0, 0, 0\n0, 0, 0, 0]"] ;
70 -> 71 ;
72 [label="gini = 0.0\nsamples = 1\nvalue = [1, 0, 0, 0, 0, 0, 0, 0, 0, 0, 0, 0, 0, 0\n0, 0, 0, 0]"] ;
70 -> 72 ;
73 [label="Attack <= 28.5\ngini = 0.56\nsamples = 5\nvalue = [0, 1, 0, 0, 0, 0, 0, 0, 0, 1, 0, 0, 3, 0\n0, 0, 0, 0]"] ;
69 -> 73 ;
74 [label="gini = 0.0\nsamples = 1\nvalue = [0, 0, 0, 0, 0, 0, 0, 0, 0, 1, 0, 0, 0, 0\n0, 0, 0, 0]"] ;
73 -> 74 ;
75 [label="Attack <= 33.0\ngini = 0.375\nsamples = 4\nvalue = [0, 1, 0, 0, 0, 0, 0, 0, 0, 0, 0, 0, 3, 0\n0, 0, 0, 0]"] ;
73 -> 75 ;
76 [label="gini = 0.5\nsamples = 2\nvalue = [0, 1, 0, 0, 0, 0, 0, 0, 0, 0, 0, 0, 1, 0\n0, 0, 0, 0]"] ;
75 -> 76 ;
77 [label="gini = 0.0\nsamples = 2\nvalue = [0, 0, 0, 0, 0, 0, 0, 0, 0, 0, 0, 0, 2, 0\n0, 0, 0, 0]"] ;
75 -> 77 ;
78 [label="Sp. Def <= 45.5\ngini = 0.48\nsamples = 10\nvalue = [0, 1, 0, 0, 1, 0, 0, 0, 0, 0, 0, 1, 7, 0\n0, 0, 0, 0]"] ;
60 -> 78 ;
79 [label="Sp. Atk <= 32.5\ngini = 0.219\nsamples = 8\nvalue = [0, 0, 0, 0, 0, 0, 0, 0, 0, 0, 0, 1, 7, 0\n0, 0, 0, 0]"] ;
78 -> 79 ;
80 [label="gini = 0.0\nsamples = 1\nvalue = [0, 0, 0, 0, 0, 0, 0, 0, 0, 0, 0, 1, 0, 0\n0, 0, 0, 0]"] ;
79 -> 80 ;
81 [label="gini = 0.0\nsamples = 7\nvalue = [0, 0, 0, 0, 0, 0, 0, 0, 0, 0, 0, 0, 7, 0\n0, 0, 0, 0]"] ;
79 -> 81 ;
82 [label="Sp. Def <= 55.0\ngini = 0.5\nsamples = 2\nvalue = [0, 1, 0, 0, 1, 0, 0, 0, 0, 0, 0, 0, 0, 0\n0, 0, 0, 0]"] ;
78 -> 82 ;
83 [label="gini = 0.0\nsamples = 1\nvalue = [0, 1, 0, 0, 0, 0, 0, 0, 0, 0, 0, 0, 0, 0\n0, 0, 0, 0]"] ;
82 -> 83 ;
84 [label="gini = 0.0\nsamples = 1\nvalue = [0, 0, 0, 0, 1, 0, 0, 0, 0, 0, 0, 0, 0, 0\n0, 0, 0, 0]"] ;
82 -> 84 ;
85 [label="Sp. Atk <= 32.5\ngini = 0.85\nsamples = 20\nvalue = [0, 1, 2, 0, 0, 5, 0, 0, 1, 0, 3, 0, 3, 0\n0, 3, 1, 1]"] ;
59 -> 85 ;
86 [label="Defense <= 50.0\ngini = 0.735\nsamples = 7\nvalue = [0, 0, 1, 0, 0, 0, 0, 0, 1, 0, 1, 0, 0, 0\n0, 3, 1, 0]"] ;
85 -> 86 ;
87 [label="Speed <= 64.0\ngini = 0.375\nsamples = 4\nvalue = [0, 0, 0, 0, 0, 0, 0, 0, 0, 0, 1, 0, 0, 0\n0, 3, 0, 0]"] ;
86 -> 87 ;
88 [label="gini = 0.0\nsamples = 3\nvalue = [0, 0, 0, 0, 0, 0, 0, 0, 0, 0, 0, 0, 0, 0\n0, 3, 0, 0]"] ;
87 -> 88 ;
89 [label="gini = 0.0\nsamples = 1\nvalue = [0, 0, 0, 0, 0, 0, 0, 0, 0, 0, 1, 0, 0, 0\n0, 0, 0, 0]"] ;
87 -> 89 ;
90 [label="Speed <= 40.5\ngini = 0.667\nsamples = 3\nvalue = [0, 0, 1, 0, 0, 0, 0, 0, 1, 0, 0, 0, 0, 0\n0, 0, 1, 0]"] ;
86 -> 90 ;
91 [label="gini = 0.0\nsamples = 1\nvalue = [0, 0, 0, 0, 0, 0, 0, 0, 1, 0, 0, 0, 0, 0\n0, 0, 0, 0]"] ;
90 -> 91 ;
92 [label="Defense <= 61.5\ngini = 0.5\nsamples = 2\nvalue = [0, 0, 1, 0, 0, 0, 0, 0, 0, 0, 0, 0, 0, 0\n0, 0, 1, 0]"] ;
90 -> 92 ;
93 [label="gini = 0.0\nsamples = 1\nvalue = [0, 0, 1, 0, 0, 0, 0, 0, 0, 0, 0, 0, 0, 0\n0, 0, 0, 0]"] ;
92 -> 93 ;
94 [label="gini = 0.0\nsamples = 1\nvalue = [0, 0, 0, 0, 0, 0, 0, 0, 0, 0, 0, 0, 0, 0\n0, 0, 1, 0]"] ;
92 -> 94 ;
95 [label="Attack <= 77.5\ngini = 0.757\nsamples = 13\nvalue = [0, 1, 1, 0, 0, 5, 0, 0, 0, 0, 2, 0, 3, 0\n0, 0, 0, 1]"] ;
85 -> 95 ;
96 [label="Attack <= 71.0\ngini = 0.72\nsamples = 5\nvalue = [0, 0, 1, 0, 0, 1, 0, 0, 0, 0, 2, 0, 0, 0\n0, 0, 0, 1]"] ;
95 -> 96 ;
97 [label="Defense <= 50.0\ngini = 0.5\nsamples = 2\nvalue = [0, 0, 0, 0, 0, 1, 0, 0, 0, 0, 0, 0, 0, 0\n0, 0, 0, 1]"] ;
96 -> 97 ;
98 [label="gini = 0.0\nsamples = 1\nvalue = [0, 0, 0, 0, 0, 1, 0, 0, 0, 0, 0, 0, 0, 0\n0, 0, 0, 0]"] ;
97 -> 98 ;
99 [label="gini = 0.0\nsamples = 1\nvalue = [0, 0, 0, 0, 0, 0, 0, 0, 0, 0, 0, 0, 0, 0\n0, 0, 0, 1]"] ;
97 -> 99 ;
100 [label="HP <= 62.0\ngini = 0.444\nsamples = 3\nvalue = [0, 0, 1, 0, 0, 0, 0, 0, 0, 0, 2, 0, 0, 0\n0, 0, 0, 0]"] ;
96 -> 100 ;
101 [label="gini = 0.0\nsamples = 2\nvalue = [0, 0, 0, 0, 0, 0, 0, 0, 0, 0, 2, 0, 0, 0\n0, 0, 0, 0]"] ;
100 -> 101 ;
102 [label="gini = 0.0\nsamples = 1\nvalue = [0, 0, 1, 0, 0, 0, 0, 0, 0, 0, 0, 0, 0, 0\n0, 0, 0, 0]"] ;
100 -> 102 ;
103 [label="Sp. Def <= 70.0\ngini = 0.594\nsamples = 8\nvalue = [0, 1, 0, 0, 0, 4, 0, 0, 0, 0, 0, 0, 3, 0\n0, 0, 0, 0]"] ;
95 -> 103 ;
104 [label="Attack <= 81.5\ngini = 0.48\nsamples = 5\nvalue = [0, 0, 0, 0, 0, 2, 0, 0, 0, 0, 0, 0, 3, 0\n0, 0, 0, 0]"] ;
103 -> 104 ;
105 [label="Sp. Def <= 55.0\ngini = 0.444\nsamples = 3\nvalue = [0, 0, 0, 0, 0, 2, 0, 0, 0, 0, 0, 0, 1, 0\n0, 0, 0, 0]"] ;
104 -> 105 ;
106 [label="gini = 0.0\nsamples = 2\nvalue = [0, 0, 0, 0, 0, 2, 0, 0, 0, 0, 0, 0, 0, 0\n0, 0, 0, 0]"] ;
105 -> 106 ;
107 [label="gini = 0.0\nsamples = 1\nvalue = [0, 0, 0, 0, 0, 0, 0, 0, 0, 0, 0, 0, 1, 0\n0, 0, 0, 0]"] ;
105 -> 107 ;
108 [label="gini = 0.0\nsamples = 2\nvalue = [0, 0, 0, 0, 0, 0, 0, 0, 0, 0, 0, 0, 2, 0\n0, 0, 0, 0]"] ;
104 -> 108 ;
109 [label="Defense <= 54.0\ngini = 0.444\nsamples = 3\nvalue = [0, 1, 0, 0, 0, 2, 0, 0, 0, 0, 0, 0, 0, 0\n0, 0, 0, 0]"] ;
103 -> 109 ;
110 [label="gini = 0.0\nsamples = 1\nvalue = [0, 0, 0, 0, 0, 1, 0, 0, 0, 0, 0, 0, 0, 0\n0, 0, 0, 0]"] ;
109 -> 110 ;
111 [label="gini = 0.5\nsamples = 2\nvalue = [0, 1, 0, 0, 0, 1, 0, 0, 0, 0, 0, 0, 0, 0\n0, 0, 0, 0]"] ;
109 -> 111 ;
112 [label="Attack <= 80.5\ngini = 0.915\nsamples = 192\nvalue = [14, 8, 8, 14, 7, 8, 12, 2, 1, 19, 7, 5, 28\n14, 6, 7, 3, 29]"] ;
46 -> 112 ;
113 [label="Attack <= 49.5\ngini = 0.909\nsamples = 159\nvalue = [10, 7, 7, 12, 7, 2, 11, 2, 1, 19, 3, 5, 21\n13, 6, 3, 3, 27]"] ;
112 -> 113 ;
114 [label="Speed <= 98.5\ngini = 0.889\nsamples = 62\nvalue = [5, 3, 0, 6, 5, 1, 1, 1, 0, 8, 2, 3, 4, 2\n6, 1, 0, 14]"] ;
113 -> 114 ;
115 [label="Sp. Def <= 54.0\ngini = 0.887\nsamples = 60\nvalue = [5, 3, 0, 4, 5, 1, 1, 1, 0, 8, 2, 3, 4, 2\n6, 1, 0, 14]"] ;
114 -> 115 ;
116 [label="Speed <= 25.5\ngini = 0.891\nsamples = 30\nvalue = [3, 3, 0, 4, 0, 0, 0, 1, 0, 2, 0, 2, 3, 2\n4, 1, 0, 5]"] ;
115 -> 116 ;
117 [label="gini = 0.0\nsamples = 2\nvalue = [0, 0, 0, 0, 0, 0, 0, 0, 0, 0, 0, 2, 0, 0\n0, 0, 0, 0]"] ;
116 -> 117 ;
118 [label="Defense <= 51.0\ngini = 0.88\nsamples = 28\nvalue = [3, 3, 0, 4, 0, 0, 0, 1, 0, 2, 0, 0, 3, 2\n4, 1, 0, 5]"] ;
116 -> 118 ;
119 [label="HP <= 35.0\ngini = 0.864\nsamples = 25\nvalue = [3, 3, 0, 4, 0, 0, 0, 1, 0, 2, 0, 0, 2, 0\n4, 1, 0, 5]"] ;
118 -> 119 ;
120 [label="Attack <= 37.5\ngini = 0.444\nsamples = 3\nvalue = [0, 0, 0, 0, 0, 0, 0, 0, 0, 0, 0, 0, 0, 0\n2, 1, 0, 0]"] ;
119 -> 120 ;
121 [label="gini = 0.0\nsamples = 2\nvalue = [0, 0, 0, 0, 0, 0, 0, 0, 0, 0, 0, 0, 0, 0\n2, 0, 0, 0]"] ;
120 -> 121 ;
122 [label="gini = 0.0\nsamples = 1\nvalue = [0, 0, 0, 0, 0, 0, 0, 0, 0, 0, 0, 0, 0, 0\n0, 1, 0, 0]"] ;
120 -> 122 ;
123 [label="Sp. Atk <= 46.5\ngini = 0.851\nsamples = 22\nvalue = [3, 3, 0, 4, 0, 0, 0, 1, 0, 2, 0, 0, 2, 0\n2, 0, 0, 5]"] ;
119 -> 123 ;
124 [label="Speed <= 28.0\ngini = 0.688\nsamples = 8\nvalue = [0, 0, 0, 1, 0, 0, 0, 1, 0, 1, 0, 0, 1, 0\n0, 0, 0, 4]"] ;
123 -> 124 ;
125 [label="gini = 0.0\nsamples = 1\nvalue = [0, 0, 0, 1, 0, 0, 0, 0, 0, 0, 0, 0, 0, 0\n0, 0, 0, 0]"] ;
124 -> 125 ;
126 [label="gini = 0.612\nsamples = 7\nvalue = [0, 0, 0, 0, 0, 0, 0, 1, 0, 1, 0, 0, 1, 0\n0, 0, 0, 4]"] ;
124 -> 126 ;
127 [label="Defense <= 42.0\ngini = 0.827\nsamples = 14\nvalue = [3, 3, 0, 3, 0, 0, 0, 0, 0, 1, 0, 0, 1, 0\n2, 0, 0, 1]"] ;
123 -> 127 ;
128 [label="gini = 0.716\nsamples = 9\nvalue = [2, 3, 0, 3, 0, 0, 0, 0, 0, 0, 0, 0, 0, 0\n0, 0, 0, 1]"] ;
127 -> 128 ;
129 [label="gini = 0.72\nsamples = 5\nvalue = [1, 0, 0, 0, 0, 0, 0, 0, 0, 1, 0, 0, 1, 0\n2, 0, 0, 0]"] ;
127 -> 129 ;
130 [label="Speed <= 44.5\ngini = 0.444\nsamples = 3\nvalue = [0, 0, 0, 0, 0, 0, 0, 0, 0, 0, 0, 0, 1, 2\n0, 0, 0, 0]"] ;
118 -> 130 ;
131 [label="gini = 0.0\nsamples = 2\nvalue = [0, 0, 0, 0, 0, 0, 0, 0, 0, 0, 0, 0, 0, 2\n0, 0, 0, 0]"] ;
130 -> 131 ;
132 [label="gini = 0.0\nsamples = 1\nvalue = [0, 0, 0, 0, 0, 0, 0, 0, 0, 0, 0, 0, 1, 0\n0, 0, 0, 0]"] ;
130 -> 132 ;
133 [label="Speed <= 49.5\ngini = 0.824\nsamples = 30\nvalue = [2, 0, 0, 0, 5, 1, 1, 0, 0, 6, 2, 1, 1, 0\n2, 0, 0, 9]"] ;
115 -> 133 ;
134 [label="Sp. Def <= 61.5\ngini = 0.724\nsamples = 14\nvalue = [0, 0, 0, 0, 5, 0, 0, 0, 0, 3, 0, 0, 0, 0\n2, 0, 0, 4]"] ;
133 -> 134 ;
135 [label="Sp. Atk <= 42.5\ngini = 0.48\nsamples = 5\nvalue = [0, 0, 0, 0, 3, 0, 0, 0, 0, 2, 0, 0, 0, 0\n0, 0, 0, 0]"] ;
134 -> 135 ;
136 [label="gini = 0.0\nsamples = 2\nvalue = [0, 0, 0, 0, 0, 0, 0, 0, 0, 2, 0, 0, 0, 0\n0, 0, 0, 0]"] ;
135 -> 136 ;
137 [label="gini = 0.0\nsamples = 3\nvalue = [0, 0, 0, 0, 3, 0, 0, 0, 0, 0, 0, 0, 0, 0\n0, 0, 0, 0]"] ;
135 -> 137 ;
138 [label="Attack <= 48.5\ngini = 0.691\nsamples = 9\nvalue = [0, 0, 0, 0, 2, 0, 0, 0, 0, 1, 0, 0, 0, 0\n2, 0, 0, 4]"] ;
134 -> 138 ;
139 [label="Attack <= 25.0\ngini = 0.625\nsamples = 8\nvalue = [0, 0, 0, 0, 2, 0, 0, 0, 0, 0, 0, 0, 0, 0\n2, 0, 0, 4]"] ;
138 -> 139 ;
140 [label="gini = 0.0\nsamples = 1\nvalue = [0, 0, 0, 0, 1, 0, 0, 0, 0, 0, 0, 0, 0, 0\n0, 0, 0, 0]"] ;
139 -> 140 ;
141 [label="Defense <= 51.0\ngini = 0.571\nsamples = 7\nvalue = [0, 0, 0, 0, 1, 0, 0, 0, 0, 0, 0, 0, 0, 0\n2, 0, 0, 4]"] ;
139 -> 141 ;
142 [label="gini = 0.625\nsamples = 4\nvalue = [0, 0, 0, 0, 1, 0, 0, 0, 0, 0, 0, 0, 0, 0\n2, 0, 0, 1]"] ;
141 -> 142 ;
143 [label="gini = 0.0\nsamples = 3\nvalue = [0, 0, 0, 0, 0, 0, 0, 0, 0, 0, 0, 0, 0, 0\n0, 0, 0, 3]"] ;
141 -> 143 ;
144 [label="gini = 0.0\nsamples = 1\nvalue = [0, 0, 0, 0, 0, 0, 0, 0, 0, 1, 0, 0, 0, 0\n0, 0, 0, 0]"] ;
138 -> 144 ;
145 [label="HP <= 39.0\ngini = 0.82\nsamples = 16\nvalue = [2, 0, 0, 0, 0, 1, 1, 0, 0, 3, 2, 1, 1, 0\n0, 0, 0, 5]"] ;
133 -> 145 ;
146 [label="Speed <= 62.5\ngini = 0.667\nsamples = 3\nvalue = [0, 0, 0, 0, 0, 1, 1, 0, 0, 0, 0, 1, 0, 0\n0, 0, 0, 0]"] ;
145 -> 146 ;
147 [label="gini = 0.0\nsamples = 1\nvalue = [0, 0, 0, 0, 0, 1, 0, 0, 0, 0, 0, 0, 0, 0\n0, 0, 0, 0]"] ;
146 -> 147 ;
148 [label="gini = 0.5\nsamples = 2\nvalue = [0, 0, 0, 0, 0, 0, 1, 0, 0, 0, 0, 1, 0, 0\n0, 0, 0, 0]"] ;
146 -> 148 ;
149 [label="Defense <= 58.0\ngini = 0.746\nsamples = 13\nvalue = [2, 0, 0, 0, 0, 0, 0, 0, 0, 3, 2, 0, 1, 0\n0, 0, 0, 5]"] ;
145 -> 149 ;
150 [label="Sp. Atk <= 55.5\ngini = 0.708\nsamples = 12\nvalue = [2, 0, 0, 0, 0, 0, 0, 0, 0, 3, 2, 0, 0, 0\n0, 0, 0, 5]"] ;
149 -> 150 ;
151 [label="Sp. Def <= 75.0\ngini = 0.74\nsamples = 10\nvalue = [2, 0, 0, 0, 0, 0, 0, 0, 0, 3, 2, 0, 0, 0\n0, 0, 0, 3]"] ;
150 -> 151 ;
152 [label="gini = 0.611\nsamples = 6\nvalue = [0, 0, 0, 0, 0, 0, 0, 0, 0, 3, 1, 0, 0, 0\n0, 0, 0, 2]"] ;
151 -> 152 ;
153 [label="gini = 0.625\nsamples = 4\nvalue = [2, 0, 0, 0, 0, 0, 0, 0, 0, 0, 1, 0, 0, 0\n0, 0, 0, 1]"] ;
151 -> 153 ;
154 [label="gini = 0.0\nsamples = 2\nvalue = [0, 0, 0, 0, 0, 0, 0, 0, 0, 0, 0, 0, 0, 0\n0, 0, 0, 2]"] ;
150 -> 154 ;
155 [label="gini = 0.0\nsamples = 1\nvalue = [0, 0, 0, 0, 0, 0, 0, 0, 0, 0, 0, 0, 1, 0\n0, 0, 0, 0]"] ;
149 -> 155 ;
156 [label="gini = 0.0\nsamples = 2\nvalue = [0, 0, 0, 2, 0, 0, 0, 0, 0, 0, 0, 0, 0, 0\n0, 0, 0, 0]"] ;
114 -> 156 ;
157 [label="HP <= 53.5\ngini = 0.899\nsamples = 97\nvalue = [5, 4, 7, 6, 2, 1, 10, 1, 1, 11, 1, 2, 17, 11\n0, 2, 3, 13]"] ;
113 -> 157 ;
158 [label="Sp. Atk <= 56.5\ngini = 0.902\nsamples = 55\nvalue = [4, 2, 5, 5, 0, 1, 8, 0, 1, 5, 1, 1, 3, 6\n0, 2, 2, 9]"] ;
157 -> 158 ;
159 [label="Speed <= 31.0\ngini = 0.908\nsamples = 49\nvalue = [4, 2, 5, 5, 0, 1, 4, 0, 1, 5, 1, 1, 3, 5\n0, 2, 2, 8]"] ;
158 -> 159 ;
160 [label="gini = 0.0\nsamples = 2\nvalue = [2, 0, 0, 0, 0, 0, 0, 0, 0, 0, 0, 0, 0, 0\n0, 0, 0, 0]"] ;
159 -> 160 ;
161 [label="Sp. Def <= 51.0\ngini = 0.905\nsamples = 47\nvalue = [2, 2, 5, 5, 0, 1, 4, 0, 1, 5, 1, 1, 3, 5\n0, 2, 2, 8]"] ;
159 -> 161 ;
162 [label="Defense <= 34.5\ngini = 0.896\nsamples = 41\nvalue = [2, 2, 4, 5, 0, 1, 4, 0, 0, 5, 1, 1, 3, 2\n0, 1, 2, 8]"] ;
161 -> 162 ;
163 [label="HP <= 42.5\ngini = 0.56\nsamples = 5\nvalue = [0, 0, 1, 3, 0, 0, 0, 0, 0, 1, 0, 0, 0, 0\n0, 0, 0, 0]"] ;
162 -> 163 ;
164 [label="Sp. Atk <= 42.5\ngini = 0.5\nsamples = 2\nvalue = [0, 0, 1, 0, 0, 0, 0, 0, 0, 1, 0, 0, 0, 0\n0, 0, 0, 0]"] ;
163 -> 164 ;
165 [label="gini = 0.0\nsamples = 1\nvalue = [0, 0, 1, 0, 0, 0, 0, 0, 0, 0, 0, 0, 0, 0\n0, 0, 0, 0]"] ;
164 -> 165 ;
166 [label="gini = 0.0\nsamples = 1\nvalue = [0, 0, 0, 0, 0, 0, 0, 0, 0, 1, 0, 0, 0, 0\n0, 0, 0, 0]"] ;
164 -> 166 ;
167 [label="gini = 0.0\nsamples = 3\nvalue = [0, 0, 0, 3, 0, 0, 0, 0, 0, 0, 0, 0, 0, 0\n0, 0, 0, 0]"] ;
163 -> 167 ;
168 [label="HP <= 37.5\ngini = 0.894\nsamples = 36\nvalue = [2, 2, 3, 2, 0, 1, 4, 0, 0, 4, 1, 1, 3, 2\n0, 1, 2, 8]"] ;
162 -> 168 ;
169 [label="gini = 0.0\nsamples = 2\nvalue = [0, 0, 0, 2, 0, 0, 0, 0, 0, 0, 0, 0, 0, 0\n0, 0, 0, 0]"] ;
168 -> 169 ;
170 [label="Defense <= 54.5\ngini = 0.884\nsamples = 34\nvalue = [2, 2, 3, 0, 0, 1, 4, 0, 0, 4, 1, 1, 3, 2\n0, 1, 2, 8]"] ;
168 -> 170 ;
171 [label="gini = 0.872\nsamples = 27\nvalue = [2, 2, 1, 0, 0, 0, 4, 0, 0, 4, 1, 1, 3, 2\n0, 1, 0, 6]"] ;
170 -> 171 ;
172 [label="gini = 0.735\nsamples = 7\nvalue = [0, 0, 2, 0, 0, 1, 0, 0, 0, 0, 0, 0, 0, 0\n0, 0, 2, 2]"] ;
170 -> 172 ;
173 [label="Sp. Atk <= 46.5\ngini = 0.667\nsamples = 6\nvalue = [0, 0, 1, 0, 0, 0, 0, 0, 1, 0, 0, 0, 0, 3\n0, 1, 0, 0]"] ;
161 -> 173 ;
174 [label="Sp. Atk <= 39.5\ngini = 0.375\nsamples = 4\nvalue = [0, 0, 0, 0, 0, 0, 0, 0, 0, 0, 0, 0, 0, 3\n0, 1, 0, 0]"] ;
173 -> 174 ;
175 [label="gini = 0.0\nsamples = 1\nvalue = [0, 0, 0, 0, 0, 0, 0, 0, 0, 0, 0, 0, 0, 0\n0, 1, 0, 0]"] ;
174 -> 175 ;
176 [label="gini = 0.0\nsamples = 3\nvalue = [0, 0, 0, 0, 0, 0, 0, 0, 0, 0, 0, 0, 0, 3\n0, 0, 0, 0]"] ;
174 -> 176 ;
177 [label="Sp. Def <= 67.5\ngini = 0.5\nsamples = 2\nvalue = [0, 0, 1, 0, 0, 0, 0, 0, 1, 0, 0, 0, 0, 0\n0, 0, 0, 0]"] ;
173 -> 177 ;
178 [label="gini = 0.0\nsamples = 1\nvalue = [0, 0, 0, 0, 0, 0, 0, 0, 1, 0, 0, 0, 0, 0\n0, 0, 0, 0]"] ;
177 -> 178 ;
179 [label="gini = 0.0\nsamples = 1\nvalue = [0, 0, 1, 0, 0, 0, 0, 0, 0, 0, 0, 0, 0, 0\n0, 0, 0, 0]"] ;
177 -> 179 ;
180 [label="HP <= 47.5\ngini = 0.5\nsamples = 6\nvalue = [0, 0, 0, 0, 0, 0, 4, 0, 0, 0, 0, 0, 0, 1\n0, 0, 0, 1]"] ;
158 -> 180 ;
181 [label="gini = 0.0\nsamples = 4\nvalue = [0, 0, 0, 0, 0, 0, 4, 0, 0, 0, 0, 0, 0, 0\n0, 0, 0, 0]"] ;
180 -> 181 ;
182 [label="Speed <= 37.0\ngini = 0.5\nsamples = 2\nvalue = [0, 0, 0, 0, 0, 0, 0, 0, 0, 0, 0, 0, 0, 1\n0, 0, 0, 1]"] ;
180 -> 182 ;
183 [label="gini = 0.0\nsamples = 1\nvalue = [0, 0, 0, 0, 0, 0, 0, 0, 0, 0, 0, 0, 0, 1\n0, 0, 0, 0]"] ;
182 -> 183 ;
184 [label="gini = 0.0\nsamples = 1\nvalue = [0, 0, 0, 0, 0, 0, 0, 0, 0, 0, 0, 0, 0, 0\n0, 0, 0, 1]"] ;
182 -> 184 ;
185 [label="HP <= 79.0\ngini = 0.833\nsamples = 42\nvalue = [1, 2, 2, 1, 2, 0, 2, 1, 0, 6, 0, 1, 14, 5\n0, 0, 1, 4]"] ;
157 -> 185 ;
186 [label="Speed <= 47.5\ngini = 0.826\nsamples = 40\nvalue = [1, 2, 2, 1, 2, 0, 2, 1, 0, 6, 0, 1, 14, 3\n0, 0, 1, 4]"] ;
185 -> 186 ;
187 [label="Defense <= 52.5\ngini = 0.819\nsamples = 12\nvalue = [1, 0, 1, 0, 1, 0, 1, 0, 0, 4, 0, 1, 2, 0\n0, 0, 1, 0]"] ;
186 -> 187 ;
188 [label="Sp. Atk <= 47.5\ngini = 0.864\nsamples = 9\nvalue = [1, 0, 1, 0, 1, 0, 1, 0, 0, 1, 0, 1, 2, 0\n0, 0, 1, 0]"] ;
187 -> 188 ;
189 [label="HP <= 59.0\ngini = 0.8\nsamples = 5\nvalue = [1, 0, 1, 0, 1, 0, 1, 0, 0, 0, 0, 0, 0, 0\n0, 0, 1, 0]"] ;
188 -> 189 ;
190 [label="gini = 0.0\nsamples = 1\nvalue = [0, 0, 1, 0, 0, 0, 0, 0, 0, 0, 0, 0, 0, 0\n0, 0, 0, 0]"] ;
189 -> 190 ;
191 [label="Attack <= 59.0\ngini = 0.75\nsamples = 4\nvalue = [1, 0, 0, 0, 1, 0, 1, 0, 0, 0, 0, 0, 0, 0\n0, 0, 1, 0]"] ;
189 -> 191 ;
192 [label="gini = 0.0\nsamples = 1\nvalue = [1, 0, 0, 0, 0, 0, 0, 0, 0, 0, 0, 0, 0, 0\n0, 0, 0, 0]"] ;
191 -> 192 ;
193 [label="gini = 0.667\nsamples = 3\nvalue = [0, 0, 0, 0, 1, 0, 1, 0, 0, 0, 0, 0, 0, 0\n0, 0, 1, 0]"] ;
191 -> 193 ;
194 [label="Sp. Atk <= 53.0\ngini = 0.625\nsamples = 4\nvalue = [0, 0, 0, 0, 0, 0, 0, 0, 0, 1, 0, 1, 2, 0\n0, 0, 0, 0]"] ;
188 -> 194 ;
195 [label="gini = 0.0\nsamples = 2\nvalue = [0, 0, 0, 0, 0, 0, 0, 0, 0, 0, 0, 0, 2, 0\n0, 0, 0, 0]"] ;
194 -> 195 ;
196 [label="Speed <= 27.5\ngini = 0.5\nsamples = 2\nvalue = [0, 0, 0, 0, 0, 0, 0, 0, 0, 1, 0, 1, 0, 0\n0, 0, 0, 0]"] ;
194 -> 196 ;
197 [label="gini = 0.0\nsamples = 1\nvalue = [0, 0, 0, 0, 0, 0, 0, 0, 0, 1, 0, 0, 0, 0\n0, 0, 0, 0]"] ;
196 -> 197 ;
198 [label="gini = 0.0\nsamples = 1\nvalue = [0, 0, 0, 0, 0, 0, 0, 0, 0, 0, 0, 1, 0, 0\n0, 0, 0, 0]"] ;
196 -> 198 ;
199 [label="gini = 0.0\nsamples = 3\nvalue = [0, 0, 0, 0, 0, 0, 0, 0, 0, 3, 0, 0, 0, 0\n0, 0, 0, 0]"] ;
187 -> 199 ;
200 [label="Sp. Atk <= 55.5\ngini = 0.768\nsamples = 28\nvalue = [0, 2, 1, 1, 1, 0, 1, 1, 0, 2, 0, 0, 12, 3\n0, 0, 0, 4]"] ;
186 -> 200 ;
201 [label="Sp. Def <= 73.5\ngini = 0.68\nsamples = 21\nvalue = [0, 2, 0, 1, 1, 0, 0, 1, 0, 0, 0, 0, 11, 3\n0, 0, 0, 2]"] ;
200 -> 201 ;
202 [label="Attack <= 61.0\ngini = 0.65\nsamples = 20\nvalue = [0, 2, 0, 1, 0, 0, 0, 1, 0, 0, 0, 0, 11, 3\n0, 0, 0, 2]"] ;
201 -> 202 ;
203 [label="gini = 0.0\nsamples = 4\nvalue = [0, 0, 0, 0, 0, 0, 0, 0, 0, 0, 0, 0, 4, 0\n0, 0, 0, 0]"] ;
202 -> 203 ;
204 [label="Attack <= 64.0\ngini = 0.734\nsamples = 16\nvalue = [0, 2, 0, 1, 0, 0, 0, 1, 0, 0, 0, 0, 7, 3\n0, 0, 0, 2]"] ;
202 -> 204 ;
205 [label="gini = 0.0\nsamples = 2\nvalue = [0, 0, 0, 0, 0, 0, 0, 0, 0, 0, 0, 0, 0, 2\n0, 0, 0, 0]"] ;
204 -> 205 ;
206 [label="gini = 0.694\nsamples = 14\nvalue = [0, 2, 0, 1, 0, 0, 0, 1, 0, 0, 0, 0, 7, 1\n0, 0, 0, 2]"] ;
204 -> 206 ;
207 [label="gini = 0.0\nsamples = 1\nvalue = [0, 0, 0, 0, 1, 0, 0, 0, 0, 0, 0, 0, 0, 0\n0, 0, 0, 0]"] ;
201 -> 207 ;
208 [label="Attack <= 67.5\ngini = 0.776\nsamples = 7\nvalue = [0, 0, 1, 0, 0, 0, 1, 0, 0, 2, 0, 0, 1, 0\n0, 0, 0, 2]"] ;
200 -> 208 ;
209 [label="Defense <= 55.0\ngini = 0.444\nsamples = 3\nvalue = [0, 0, 0, 0, 0, 0, 0, 0, 0, 0, 0, 0, 1, 0\n0, 0, 0, 2]"] ;
208 -> 209 ;
210 [label="gini = 0.0\nsamples = 2\nvalue = [0, 0, 0, 0, 0, 0, 0, 0, 0, 0, 0, 0, 0, 0\n0, 0, 0, 2]"] ;
209 -> 210 ;
211 [label="gini = 0.0\nsamples = 1\nvalue = [0, 0, 0, 0, 0, 0, 0, 0, 0, 0, 0, 0, 1, 0\n0, 0, 0, 0]"] ;
209 -> 211 ;
212 [label="Speed <= 83.5\ngini = 0.625\nsamples = 4\nvalue = [0, 0, 1, 0, 0, 0, 1, 0, 0, 2, 0, 0, 0, 0\n0, 0, 0, 0]"] ;
208 -> 212 ;
213 [label="gini = 0.0\nsamples = 2\nvalue = [0, 0, 0, 0, 0, 0, 0, 0, 0, 2, 0, 0, 0, 0\n0, 0, 0, 0]"] ;
212 -> 213 ;
214 [label="Speed <= 93.0\ngini = 0.5\nsamples = 2\nvalue = [0, 0, 1, 0, 0, 0, 1, 0, 0, 0, 0, 0, 0, 0\n0, 0, 0, 0]"] ;
212 -> 214 ;
215 [label="gini = 0.0\nsamples = 1\nvalue = [0, 0, 0, 0, 0, 0, 1, 0, 0, 0, 0, 0, 0, 0\n0, 0, 0, 0]"] ;
214 -> 215 ;
216 [label="gini = 0.0\nsamples = 1\nvalue = [0, 0, 1, 0, 0, 0, 0, 0, 0, 0, 0, 0, 0, 0\n0, 0, 0, 0]"] ;
214 -> 216 ;
217 [label="gini = 0.0\nsamples = 2\nvalue = [0, 0, 0, 0, 0, 0, 0, 0, 0, 0, 0, 0, 0, 2\n0, 0, 0, 0]"] ;
185 -> 217 ;
218 [label="Sp. Def <= 46.0\ngini = 0.867\nsamples = 33\nvalue = [4, 1, 1, 2, 0, 6, 1, 0, 0, 0, 4, 0, 7, 1\n0, 4, 0, 2]"] ;
112 -> 218 ;
219 [label="gini = 0.0\nsamples = 2\nvalue = [0, 0, 0, 0, 0, 0, 0, 0, 0, 0, 2, 0, 0, 0\n0, 0, 0, 0]"] ;
218 -> 219 ;
220 [label="Speed <= 103.5\ngini = 0.862\nsamples = 31\nvalue = [4, 1, 1, 2, 0, 6, 1, 0, 0, 0, 2, 0, 7, 1\n0, 4, 0, 2]"] ;
218 -> 220 ;
221 [label="Sp. Def <= 50.5\ngini = 0.78\nsamples = 20\nvalue = [3, 0, 1, 2, 0, 6, 1, 0, 0, 0, 0, 0, 6, 0\n0, 1, 0, 0]"] ;
220 -> 221 ;
222 [label="Sp. Atk <= 41.0\ngini = 0.612\nsamples = 7\nvalue = [0, 0, 0, 1, 0, 4, 0, 0, 0, 0, 0, 0, 1, 0\n0, 1, 0, 0]"] ;
221 -> 222 ;
223 [label="Attack <= 90.0\ngini = 0.5\nsamples = 2\nvalue = [0, 0, 0, 0, 0, 0, 0, 0, 0, 0, 0, 0, 1, 0\n0, 1, 0, 0]"] ;
222 -> 223 ;
224 [label="gini = 0.0\nsamples = 1\nvalue = [0, 0, 0, 0, 0, 0, 0, 0, 0, 0, 0, 0, 1, 0\n0, 0, 0, 0]"] ;
223 -> 224 ;
225 [label="gini = 0.0\nsamples = 1\nvalue = [0, 0, 0, 0, 0, 0, 0, 0, 0, 0, 0, 0, 0, 0\n0, 1, 0, 0]"] ;
223 -> 225 ;
226 [label="Sp. Atk <= 57.5\ngini = 0.32\nsamples = 5\nvalue = [0, 0, 0, 1, 0, 4, 0, 0, 0, 0, 0, 0, 0, 0\n0, 0, 0, 0]"] ;
222 -> 226 ;
227 [label="gini = 0.0\nsamples = 4\nvalue = [0, 0, 0, 0, 0, 4, 0, 0, 0, 0, 0, 0, 0, 0\n0, 0, 0, 0]"] ;
226 -> 227 ;
228 [label="gini = 0.0\nsamples = 1\nvalue = [0, 0, 0, 1, 0, 0, 0, 0, 0, 0, 0, 0, 0, 0\n0, 0, 0, 0]"] ;
226 -> 228 ;
229 [label="Defense <= 53.0\ngini = 0.757\nsamples = 13\nvalue = [3, 0, 1, 1, 0, 2, 1, 0, 0, 0, 0, 0, 5, 0\n0, 0, 0, 0]"] ;
221 -> 229 ;
230 [label="gini = 0.0\nsamples = 2\nvalue = [2, 0, 0, 0, 0, 0, 0, 0, 0, 0, 0, 0, 0, 0\n0, 0, 0, 0]"] ;
229 -> 230 ;
231 [label="Sp. Def <= 57.5\ngini = 0.727\nsamples = 11\nvalue = [1, 0, 1, 1, 0, 2, 1, 0, 0, 0, 0, 0, 5, 0\n0, 0, 0, 0]"] ;
229 -> 231 ;
232 [label="Defense <= 60.0\ngini = 0.5\nsamples = 2\nvalue = [1, 0, 1, 0, 0, 0, 0, 0, 0, 0, 0, 0, 0, 0\n0, 0, 0, 0]"] ;
231 -> 232 ;
233 [label="gini = 0.0\nsamples = 1\nvalue = [1, 0, 0, 0, 0, 0, 0, 0, 0, 0, 0, 0, 0, 0\n0, 0, 0, 0]"] ;
232 -> 233 ;
234 [label="gini = 0.0\nsamples = 1\nvalue = [0, 0, 1, 0, 0, 0, 0, 0, 0, 0, 0, 0, 0, 0\n0, 0, 0, 0]"] ;
232 -> 234 ;
235 [label="Attack <= 92.5\ngini = 0.617\nsamples = 9\nvalue = [0, 0, 0, 1, 0, 2, 1, 0, 0, 0, 0, 0, 5, 0\n0, 0, 0, 0]"] ;
231 -> 235 ;
236 [label="Sp. Def <= 61.0\ngini = 0.32\nsamples = 5\nvalue = [0, 0, 0, 0, 0, 0, 1, 0, 0, 0, 0, 0, 4, 0\n0, 0, 0, 0]"] ;
235 -> 236 ;
237 [label="HP <= 72.0\ngini = 0.5\nsamples = 2\nvalue = [0, 0, 0, 0, 0, 0, 1, 0, 0, 0, 0, 0, 1, 0\n0, 0, 0, 0]"] ;
236 -> 237 ;
238 [label="gini = 0.0\nsamples = 1\nvalue = [0, 0, 0, 0, 0, 0, 1, 0, 0, 0, 0, 0, 0, 0\n0, 0, 0, 0]"] ;
237 -> 238 ;
239 [label="gini = 0.0\nsamples = 1\nvalue = [0, 0, 0, 0, 0, 0, 0, 0, 0, 0, 0, 0, 1, 0\n0, 0, 0, 0]"] ;
237 -> 239 ;
240 [label="gini = 0.0\nsamples = 3\nvalue = [0, 0, 0, 0, 0, 0, 0, 0, 0, 0, 0, 0, 3, 0\n0, 0, 0, 0]"] ;
236 -> 240 ;
241 [label="Defense <= 61.5\ngini = 0.625\nsamples = 4\nvalue = [0, 0, 0, 1, 0, 2, 0, 0, 0, 0, 0, 0, 1, 0\n0, 0, 0, 0]"] ;
235 -> 241 ;
242 [label="Sp. Def <= 61.0\ngini = 0.444\nsamples = 3\nvalue = [0, 0, 0, 0, 0, 2, 0, 0, 0, 0, 0, 0, 1, 0\n0, 0, 0, 0]"] ;
241 -> 242 ;
243 [label="gini = 0.0\nsamples = 1\nvalue = [0, 0, 0, 0, 0, 0, 0, 0, 0, 0, 0, 0, 1, 0\n0, 0, 0, 0]"] ;
242 -> 243 ;
244 [label="gini = 0.0\nsamples = 2\nvalue = [0, 0, 0, 0, 0, 2, 0, 0, 0, 0, 0, 0, 0, 0\n0, 0, 0, 0]"] ;
242 -> 244 ;
245 [label="gini = 0.0\nsamples = 1\nvalue = [0, 0, 0, 1, 0, 0, 0, 0, 0, 0, 0, 0, 0, 0\n0, 0, 0, 0]"] ;
241 -> 245 ;
246 [label="HP <= 72.5\ngini = 0.826\nsamples = 11\nvalue = [1, 1, 0, 0, 0, 0, 0, 0, 0, 0, 2, 0, 1, 1\n0, 3, 0, 2]"] ;
220 -> 246 ;
247 [label="Sp. Atk <= 47.5\ngini = 0.722\nsamples = 6\nvalue = [1, 1, 0, 0, 0, 0, 0, 0, 0, 0, 2, 0, 0, 0\n0, 0, 0, 2]"] ;
246 -> 247 ;
248 [label="gini = 0.0\nsamples = 1\nvalue = [0, 1, 0, 0, 0, 0, 0, 0, 0, 0, 0, 0, 0, 0\n0, 0, 0, 0]"] ;
247 -> 248 ;
249 [label="Defense <= 47.5\ngini = 0.64\nsamples = 5\nvalue = [1, 0, 0, 0, 0, 0, 0, 0, 0, 0, 2, 0, 0, 0\n0, 0, 0, 2]"] ;
247 -> 249 ;
250 [label="gini = 0.0\nsamples = 1\nvalue = [1, 0, 0, 0, 0, 0, 0, 0, 0, 0, 0, 0, 0, 0\n0, 0, 0, 0]"] ;
249 -> 250 ;
251 [label="Attack <= 111.5\ngini = 0.5\nsamples = 4\nvalue = [0, 0, 0, 0, 0, 0, 0, 0, 0, 0, 2, 0, 0, 0\n0, 0, 0, 2]"] ;
249 -> 251 ;
252 [label="Speed <= 115.0\ngini = 0.444\nsamples = 3\nvalue = [0, 0, 0, 0, 0, 0, 0, 0, 0, 0, 2, 0, 0, 0\n0, 0, 0, 1]"] ;
251 -> 252 ;
253 [label="gini = 0.0\nsamples = 1\nvalue = [0, 0, 0, 0, 0, 0, 0, 0, 0, 0, 1, 0, 0, 0\n0, 0, 0, 0]"] ;
252 -> 253 ;
254 [label="gini = 0.5\nsamples = 2\nvalue = [0, 0, 0, 0, 0, 0, 0, 0, 0, 0, 1, 0, 0, 0\n0, 0, 0, 1]"] ;
252 -> 254 ;
255 [label="gini = 0.0\nsamples = 1\nvalue = [0, 0, 0, 0, 0, 0, 0, 0, 0, 0, 0, 0, 0, 0\n0, 0, 0, 1]"] ;
251 -> 255 ;
256 [label="Attack <= 102.5\ngini = 0.56\nsamples = 5\nvalue = [0, 0, 0, 0, 0, 0, 0, 0, 0, 0, 0, 0, 1, 1\n0, 3, 0, 0]"] ;
246 -> 256 ;
257 [label="gini = 0.0\nsamples = 1\nvalue = [0, 0, 0, 0, 0, 0, 0, 0, 0, 0, 0, 0, 1, 0\n0, 0, 0, 0]"] ;
256 -> 257 ;
258 [label="Defense <= 62.5\ngini = 0.375\nsamples = 4\nvalue = [0, 0, 0, 0, 0, 0, 0, 0, 0, 0, 0, 0, 0, 1\n0, 3, 0, 0]"] ;
256 -> 258 ;
259 [label="gini = 0.0\nsamples = 1\nvalue = [0, 0, 0, 0, 0, 0, 0, 0, 0, 0, 0, 0, 0, 1\n0, 0, 0, 0]"] ;
258 -> 259 ;
260 [label="gini = 0.0\nsamples = 3\nvalue = [0, 0, 0, 0, 0, 0, 0, 0, 0, 0, 0, 0, 0, 0\n0, 3, 0, 0]"] ;
258 -> 260 ;
261 [label="Speed <= 87.5\ngini = 0.895\nsamples = 84\nvalue = [19, 7, 3, 1, 1, 5, 1, 1, 7, 10, 6, 1, 7, 3\n0, 4, 4, 4]"] ;
45 -> 261 ;
262 [label="Speed <= 56.5\ngini = 0.89\nsamples = 69\nvalue = [16, 7, 2, 0, 1, 5, 1, 1, 6, 8, 6, 1, 1, 3\n0, 4, 3, 4]"] ;
261 -> 262 ;
263 [label="Sp. Def <= 67.5\ngini = 0.853\nsamples = 42\nvalue = [12, 1, 1, 0, 0, 1, 0, 0, 6, 3, 6, 1, 1, 1\n0, 4, 3, 2]"] ;
262 -> 263 ;
264 [label="Sp. Atk <= 42.0\ngini = 0.852\nsamples = 28\nvalue = [5, 0, 0, 0, 0, 1, 0, 0, 5, 3, 6, 1, 0, 1\n0, 3, 3, 0]"] ;
263 -> 264 ;
265 [label="HP <= 51.0\ngini = 0.724\nsamples = 14\nvalue = [5, 0, 0, 0, 0, 0, 0, 0, 0, 1, 5, 1, 0, 0\n0, 1, 1, 0]"] ;
264 -> 265 ;
266 [label="Speed <= 37.5\ngini = 0.617\nsamples = 9\nvalue = [5, 0, 0, 0, 0, 0, 0, 0, 0, 1, 2, 0, 0, 0\n0, 0, 1, 0]"] ;
265 -> 266 ;
267 [label="Speed <= 27.5\ngini = 0.722\nsamples = 6\nvalue = [2, 0, 0, 0, 0, 0, 0, 0, 0, 1, 2, 0, 0, 0\n0, 0, 1, 0]"] ;
266 -> 267 ;
268 [label="Defense <= 82.5\ngini = 0.444\nsamples = 3\nvalue = [2, 0, 0, 0, 0, 0, 0, 0, 0, 1, 0, 0, 0, 0\n0, 0, 0, 0]"] ;
267 -> 268 ;
269 [label="gini = 0.0\nsamples = 1\nvalue = [0, 0, 0, 0, 0, 0, 0, 0, 0, 1, 0, 0, 0, 0\n0, 0, 0, 0]"] ;
268 -> 269 ;
270 [label="gini = 0.0\nsamples = 2\nvalue = [2, 0, 0, 0, 0, 0, 0, 0, 0, 0, 0, 0, 0, 0\n0, 0, 0, 0]"] ;
268 -> 270 ;
271 [label="Defense <= 82.5\ngini = 0.444\nsamples = 3\nvalue = [0, 0, 0, 0, 0, 0, 0, 0, 0, 0, 2, 0, 0, 0\n0, 0, 1, 0]"] ;
267 -> 271 ;
272 [label="gini = 0.0\nsamples = 1\nvalue = [0, 0, 0, 0, 0, 0, 0, 0, 0, 0, 0, 0, 0, 0\n0, 0, 1, 0]"] ;
271 -> 272 ;
273 [label="gini = 0.0\nsamples = 2\nvalue = [0, 0, 0, 0, 0, 0, 0, 0, 0, 0, 2, 0, 0, 0\n0, 0, 0, 0]"] ;
271 -> 273 ;
274 [label="gini = 0.0\nsamples = 3\nvalue = [3, 0, 0, 0, 0, 0, 0, 0, 0, 0, 0, 0, 0, 0\n0, 0, 0, 0]"] ;
266 -> 274 ;
275 [label="Attack <= 56.0\ngini = 0.56\nsamples = 5\nvalue = [0, 0, 0, 0, 0, 0, 0, 0, 0, 0, 3, 1, 0, 0\n0, 1, 0, 0]"] ;
265 -> 275 ;
276 [label="gini = 0.0\nsamples = 1\nvalue = [0, 0, 0, 0, 0, 0, 0, 0, 0, 0, 0, 0, 0, 0\n0, 1, 0, 0]"] ;
275 -> 276 ;
277 [label="HP <= 61.5\ngini = 0.375\nsamples = 4\nvalue = [0, 0, 0, 0, 0, 0, 0, 0, 0, 0, 3, 1, 0, 0\n0, 0, 0, 0]"] ;
275 -> 277 ;
278 [label="Speed <= 37.0\ngini = 0.5\nsamples = 2\nvalue = [0, 0, 0, 0, 0, 0, 0, 0, 0, 0, 1, 1, 0, 0\n0, 0, 0, 0]"] ;
277 -> 278 ;
279 [label="gini = 0.0\nsamples = 1\nvalue = [0, 0, 0, 0, 0, 0, 0, 0, 0, 0, 0, 1, 0, 0\n0, 0, 0, 0]"] ;
278 -> 279 ;
280 [label="gini = 0.0\nsamples = 1\nvalue = [0, 0, 0, 0, 0, 0, 0, 0, 0, 0, 1, 0, 0, 0\n0, 0, 0, 0]"] ;
278 -> 280 ;
281 [label="gini = 0.0\nsamples = 2\nvalue = [0, 0, 0, 0, 0, 0, 0, 0, 0, 0, 2, 0, 0, 0\n0, 0, 0, 0]"] ;
277 -> 281 ;
282 [label="Sp. Atk <= 44.5\ngini = 0.796\nsamples = 14\nvalue = [0, 0, 0, 0, 0, 1, 0, 0, 5, 2, 1, 0, 0, 1\n0, 2, 2, 0]"] ;
264 -> 282 ;
283 [label="gini = 0.0\nsamples = 4\nvalue = [0, 0, 0, 0, 0, 0, 0, 0, 4, 0, 0, 0, 0, 0\n0, 0, 0, 0]"] ;
282 -> 283 ;
284 [label="HP <= 59.0\ngini = 0.84\nsamples = 10\nvalue = [0, 0, 0, 0, 0, 1, 0, 0, 1, 2, 1, 0, 0, 1\n0, 2, 2, 0]"] ;
282 -> 284 ;
285 [label="Sp. Def <= 50.0\ngini = 0.722\nsamples = 6\nvalue = [0, 0, 0, 0, 0, 0, 0, 0, 1, 0, 0, 0, 0, 1\n0, 2, 2, 0]"] ;
284 -> 285 ;
286 [label="Sp. Atk <= 57.5\ngini = 0.444\nsamples = 3\nvalue = [0, 0, 0, 0, 0, 0, 0, 0, 0, 0, 0, 0, 0, 1\n0, 2, 0, 0]"] ;
285 -> 286 ;
287 [label="gini = 0.0\nsamples = 2\nvalue = [0, 0, 0, 0, 0, 0, 0, 0, 0, 0, 0, 0, 0, 0\n0, 2, 0, 0]"] ;
286 -> 287 ;
288 [label="gini = 0.0\nsamples = 1\nvalue = [0, 0, 0, 0, 0, 0, 0, 0, 0, 0, 0, 0, 0, 1\n0, 0, 0, 0]"] ;
286 -> 288 ;
289 [label="HP <= 39.0\ngini = 0.444\nsamples = 3\nvalue = [0, 0, 0, 0, 0, 0, 0, 0, 1, 0, 0, 0, 0, 0\n0, 0, 2, 0]"] ;
285 -> 289 ;
290 [label="gini = 0.0\nsamples = 1\nvalue = [0, 0, 0, 0, 0, 0, 0, 0, 1, 0, 0, 0, 0, 0\n0, 0, 0, 0]"] ;
289 -> 290 ;
291 [label="gini = 0.0\nsamples = 2\nvalue = [0, 0, 0, 0, 0, 0, 0, 0, 0, 0, 0, 0, 0, 0\n0, 0, 2, 0]"] ;
289 -> 291 ;
292 [label="Attack <= 94.5\ngini = 0.625\nsamples = 4\nvalue = [0, 0, 0, 0, 0, 1, 0, 0, 0, 2, 1, 0, 0, 0\n0, 0, 0, 0]"] ;
284 -> 292 ;
293 [label="gini = 0.0\nsamples = 2\nvalue = [0, 0, 0, 0, 0, 0, 0, 0, 0, 2, 0, 0, 0, 0\n0, 0, 0, 0]"] ;
292 -> 293 ;
294 [label="Sp. Atk <= 47.5\ngini = 0.5\nsamples = 2\nvalue = [0, 0, 0, 0, 0, 1, 0, 0, 0, 0, 1, 0, 0, 0\n0, 0, 0, 0]"] ;
292 -> 294 ;
295 [label="gini = 0.0\nsamples = 1\nvalue = [0, 0, 0, 0, 0, 0, 0, 0, 0, 0, 1, 0, 0, 0\n0, 0, 0, 0]"] ;
294 -> 295 ;
296 [label="gini = 0.0\nsamples = 1\nvalue = [0, 0, 0, 0, 0, 1, 0, 0, 0, 0, 0, 0, 0, 0\n0, 0, 0, 0]"] ;
294 -> 296 ;
297 [label="Speed <= 47.5\ngini = 0.704\nsamples = 14\nvalue = [7, 1, 1, 0, 0, 0, 0, 0, 1, 0, 0, 0, 1, 0\n0, 1, 0, 2]"] ;
263 -> 297 ;
298 [label="Sp. Def <= 105.0\ngini = 0.48\nsamples = 10\nvalue = [7, 0, 0, 0, 0, 0, 0, 0, 1, 0, 0, 0, 1, 0\n0, 0, 0, 1]"] ;
297 -> 298 ;
299 [label="Sp. Atk <= 35.0\ngini = 0.219\nsamples = 8\nvalue = [7, 0, 0, 0, 0, 0, 0, 0, 1, 0, 0, 0, 0, 0\n0, 0, 0, 0]"] ;
298 -> 299 ;
300 [label="gini = 0.0\nsamples = 1\nvalue = [0, 0, 0, 0, 0, 0, 0, 0, 1, 0, 0, 0, 0, 0\n0, 0, 0, 0]"] ;
299 -> 300 ;
301 [label="gini = 0.0\nsamples = 7\nvalue = [7, 0, 0, 0, 0, 0, 0, 0, 0, 0, 0, 0, 0, 0\n0, 0, 0, 0]"] ;
299 -> 301 ;
302 [label="Speed <= 41.0\ngini = 0.5\nsamples = 2\nvalue = [0, 0, 0, 0, 0, 0, 0, 0, 0, 0, 0, 0, 1, 0\n0, 0, 0, 1]"] ;
298 -> 302 ;
303 [label="gini = 0.0\nsamples = 1\nvalue = [0, 0, 0, 0, 0, 0, 0, 0, 0, 0, 0, 0, 1, 0\n0, 0, 0, 0]"] ;
302 -> 303 ;
304 [label="gini = 0.0\nsamples = 1\nvalue = [0, 0, 0, 0, 0, 0, 0, 0, 0, 0, 0, 0, 0, 0\n0, 0, 0, 1]"] ;
302 -> 304 ;
305 [label="HP <= 60.0\ngini = 0.75\nsamples = 4\nvalue = [0, 1, 1, 0, 0, 0, 0, 0, 0, 0, 0, 0, 0, 0\n0, 1, 0, 1]"] ;
297 -> 305 ;
306 [label="gini = 0.0\nsamples = 1\nvalue = [0, 1, 0, 0, 0, 0, 0, 0, 0, 0, 0, 0, 0, 0\n0, 0, 0, 0]"] ;
305 -> 306 ;
307 [label="Sp. Def <= 80.0\ngini = 0.667\nsamples = 3\nvalue = [0, 0, 1, 0, 0, 0, 0, 0, 0, 0, 0, 0, 0, 0\n0, 1, 0, 1]"] ;
305 -> 307 ;
308 [label="Attack <= 72.5\ngini = 0.5\nsamples = 2\nvalue = [0, 0, 0, 0, 0, 0, 0, 0, 0, 0, 0, 0, 0, 0\n0, 1, 0, 1]"] ;
307 -> 308 ;
309 [label="gini = 0.0\nsamples = 1\nvalue = [0, 0, 0, 0, 0, 0, 0, 0, 0, 0, 0, 0, 0, 0\n0, 1, 0, 0]"] ;
308 -> 309 ;
310 [label="gini = 0.0\nsamples = 1\nvalue = [0, 0, 0, 0, 0, 0, 0, 0, 0, 0, 0, 0, 0, 0\n0, 0, 0, 1]"] ;
308 -> 310 ;
311 [label="gini = 0.0\nsamples = 1\nvalue = [0, 0, 1, 0, 0, 0, 0, 0, 0, 0, 0, 0, 0, 0\n0, 0, 0, 0]"] ;
307 -> 311 ;
312 [label="Sp. Atk <= 37.5\ngini = 0.856\nsamples = 27\nvalue = [4, 6, 1, 0, 1, 4, 1, 1, 0, 5, 0, 0, 0, 2\n0, 0, 0, 2]"] ;
262 -> 312 ;
313 [label="Attack <= 75.0\ngini = 0.56\nsamples = 5\nvalue = [0, 0, 0, 0, 1, 3, 0, 0, 0, 0, 0, 0, 0, 1\n0, 0, 0, 0]"] ;
312 -> 313 ;
314 [label="Defense <= 80.0\ngini = 0.5\nsamples = 2\nvalue = [0, 0, 0, 0, 1, 0, 0, 0, 0, 0, 0, 0, 0, 1\n0, 0, 0, 0]"] ;
313 -> 314 ;
315 [label="gini = 0.0\nsamples = 1\nvalue = [0, 0, 0, 0, 1, 0, 0, 0, 0, 0, 0, 0, 0, 0\n0, 0, 0, 0]"] ;
314 -> 315 ;
316 [label="gini = 0.0\nsamples = 1\nvalue = [0, 0, 0, 0, 0, 0, 0, 0, 0, 0, 0, 0, 0, 1\n0, 0, 0, 0]"] ;
314 -> 316 ;
317 [label="gini = 0.0\nsamples = 3\nvalue = [0, 0, 0, 0, 0, 3, 0, 0, 0, 0, 0, 0, 0, 0\n0, 0, 0, 0]"] ;
313 -> 317 ;
318 [label="Sp. Def <= 72.5\ngini = 0.822\nsamples = 22\nvalue = [4, 6, 1, 0, 0, 1, 1, 1, 0, 5, 0, 0, 0, 1\n0, 0, 0, 2]"] ;
312 -> 318 ;
319 [label="Sp. Def <= 64.0\ngini = 0.678\nsamples = 11\nvalue = [0, 5, 1, 0, 0, 0, 0, 0, 0, 3, 0, 0, 0, 0\n0, 0, 0, 2]"] ;
318 -> 319 ;
320 [label="Sp. Def <= 56.5\ngini = 0.716\nsamples = 9\nvalue = [0, 3, 1, 0, 0, 0, 0, 0, 0, 3, 0, 0, 0, 0\n0, 0, 0, 2]"] ;
319 -> 320 ;
321 [label="Attack <= 106.0\ngini = 0.625\nsamples = 4\nvalue = [0, 2, 1, 0, 0, 0, 0, 0, 0, 0, 0, 0, 0, 0\n0, 0, 0, 1]"] ;
320 -> 321 ;
322 [label="HP <= 55.0\ngini = 0.444\nsamples = 3\nvalue = [0, 2, 0, 0, 0, 0, 0, 0, 0, 0, 0, 0, 0, 0\n0, 0, 0, 1]"] ;
321 -> 322 ;
323 [label="gini = 0.0\nsamples = 1\nvalue = [0, 1, 0, 0, 0, 0, 0, 0, 0, 0, 0, 0, 0, 0\n0, 0, 0, 0]"] ;
322 -> 323 ;
324 [label="gini = 0.5\nsamples = 2\nvalue = [0, 1, 0, 0, 0, 0, 0, 0, 0, 0, 0, 0, 0, 0\n0, 0, 0, 1]"] ;
322 -> 324 ;
325 [label="gini = 0.0\nsamples = 1\nvalue = [0, 0, 1, 0, 0, 0, 0, 0, 0, 0, 0, 0, 0, 0\n0, 0, 0, 0]"] ;
321 -> 325 ;
326 [label="Sp. Def <= 61.5\ngini = 0.56\nsamples = 5\nvalue = [0, 1, 0, 0, 0, 0, 0, 0, 0, 3, 0, 0, 0, 0\n0, 0, 0, 1]"] ;
320 -> 326 ;
327 [label="Attack <= 87.5\ngini = 0.375\nsamples = 4\nvalue = [0, 1, 0, 0, 0, 0, 0, 0, 0, 3, 0, 0, 0, 0\n0, 0, 0, 0]"] ;
326 -> 327 ;
328 [label="gini = 0.0\nsamples = 2\nvalue = [0, 0, 0, 0, 0, 0, 0, 0, 0, 2, 0, 0, 0, 0\n0, 0, 0, 0]"] ;
327 -> 328 ;
329 [label="HP <= 65.0\ngini = 0.5\nsamples = 2\nvalue = [0, 1, 0, 0, 0, 0, 0, 0, 0, 1, 0, 0, 0, 0\n0, 0, 0, 0]"] ;
327 -> 329 ;
330 [label="gini = 0.0\nsamples = 1\nvalue = [0, 0, 0, 0, 0, 0, 0, 0, 0, 1, 0, 0, 0, 0\n0, 0, 0, 0]"] ;
329 -> 330 ;
331 [label="gini = 0.0\nsamples = 1\nvalue = [0, 1, 0, 0, 0, 0, 0, 0, 0, 0, 0, 0, 0, 0\n0, 0, 0, 0]"] ;
329 -> 331 ;
332 [label="gini = 0.0\nsamples = 1\nvalue = [0, 0, 0, 0, 0, 0, 0, 0, 0, 0, 0, 0, 0, 0\n0, 0, 0, 1]"] ;
326 -> 332 ;
333 [label="gini = 0.0\nsamples = 2\nvalue = [0, 2, 0, 0, 0, 0, 0, 0, 0, 0, 0, 0, 0, 0\n0, 0, 0, 0]"] ;
319 -> 333 ;
334 [label="Sp. Atk <= 55.0\ngini = 0.793\nsamples = 11\nvalue = [4, 1, 0, 0, 0, 1, 1, 1, 0, 2, 0, 0, 0, 1\n0, 0, 0, 0]"] ;
318 -> 334 ;
335 [label="Defense <= 96.5\ngini = 0.5\nsamples = 6\nvalue = [4, 1, 0, 0, 0, 0, 0, 0, 0, 1, 0, 0, 0, 0\n0, 0, 0, 0]"] ;
334 -> 335 ;
336 [label="Sp. Atk <= 42.5\ngini = 0.32\nsamples = 5\nvalue = [4, 1, 0, 0, 0, 0, 0, 0, 0, 0, 0, 0, 0, 0\n0, 0, 0, 0]"] ;
335 -> 336 ;
337 [label="Attack <= 98.0\ngini = 0.5\nsamples = 2\nvalue = [1, 1, 0, 0, 0, 0, 0, 0, 0, 0, 0, 0, 0, 0\n0, 0, 0, 0]"] ;
336 -> 337 ;
338 [label="gini = 0.0\nsamples = 1\nvalue = [0, 1, 0, 0, 0, 0, 0, 0, 0, 0, 0, 0, 0, 0\n0, 0, 0, 0]"] ;
337 -> 338 ;
339 [label="gini = 0.0\nsamples = 1\nvalue = [1, 0, 0, 0, 0, 0, 0, 0, 0, 0, 0, 0, 0, 0\n0, 0, 0, 0]"] ;
337 -> 339 ;
340 [label="gini = 0.0\nsamples = 3\nvalue = [3, 0, 0, 0, 0, 0, 0, 0, 0, 0, 0, 0, 0, 0\n0, 0, 0, 0]"] ;
336 -> 340 ;
341 [label="gini = 0.0\nsamples = 1\nvalue = [0, 0, 0, 0, 0, 0, 0, 0, 0, 1, 0, 0, 0, 0\n0, 0, 0, 0]"] ;
335 -> 341 ;
342 [label="Speed <= 77.5\ngini = 0.8\nsamples = 5\nvalue = [0, 0, 0, 0, 0, 1, 1, 1, 0, 1, 0, 0, 0, 1\n0, 0, 0, 0]"] ;
334 -> 342 ;
343 [label="gini = 0.0\nsamples = 1\nvalue = [0, 0, 0, 0, 0, 0, 0, 0, 0, 0, 0, 0, 0, 1\n0, 0, 0, 0]"] ;
342 -> 343 ;
344 [label="Speed <= 81.0\ngini = 0.75\nsamples = 4\nvalue = [0, 0, 0, 0, 0, 1, 1, 1, 0, 1, 0, 0, 0, 0\n0, 0, 0, 0]"] ;
342 -> 344 ;
345 [label="gini = 0.0\nsamples = 1\nvalue = [0, 0, 0, 0, 0, 1, 0, 0, 0, 0, 0, 0, 0, 0\n0, 0, 0, 0]"] ;
344 -> 345 ;
346 [label="Attack <= 81.5\ngini = 0.667\nsamples = 3\nvalue = [0, 0, 0, 0, 0, 0, 1, 1, 0, 1, 0, 0, 0, 0\n0, 0, 0, 0]"] ;
344 -> 346 ;
347 [label="gini = 0.0\nsamples = 1\nvalue = [0, 0, 0, 0, 0, 0, 0, 0, 0, 1, 0, 0, 0, 0\n0, 0, 0, 0]"] ;
346 -> 347 ;
348 [label="Speed <= 83.5\ngini = 0.5\nsamples = 2\nvalue = [0, 0, 0, 0, 0, 0, 1, 1, 0, 0, 0, 0, 0, 0\n0, 0, 0, 0]"] ;
346 -> 348 ;
349 [label="gini = 0.0\nsamples = 1\nvalue = [0, 0, 0, 0, 0, 0, 0, 1, 0, 0, 0, 0, 0, 0\n0, 0, 0, 0]"] ;
348 -> 349 ;
350 [label="gini = 0.0\nsamples = 1\nvalue = [0, 0, 0, 0, 0, 0, 1, 0, 0, 0, 0, 0, 0, 0\n0, 0, 0, 0]"] ;
348 -> 350 ;
351 [label="Attack <= 65.5\ngini = 0.764\nsamples = 15\nvalue = [3, 0, 1, 1, 0, 0, 0, 0, 1, 2, 0, 0, 6, 0\n0, 0, 1, 0]"] ;
261 -> 351 ;
352 [label="Attack <= 50.0\ngini = 0.5\nsamples = 2\nvalue = [0, 0, 0, 1, 0, 0, 0, 0, 0, 1, 0, 0, 0, 0\n0, 0, 0, 0]"] ;
351 -> 352 ;
353 [label="gini = 0.0\nsamples = 1\nvalue = [0, 0, 0, 1, 0, 0, 0, 0, 0, 0, 0, 0, 0, 0\n0, 0, 0, 0]"] ;
352 -> 353 ;
354 [label="gini = 0.0\nsamples = 1\nvalue = [0, 0, 0, 0, 0, 0, 0, 0, 0, 1, 0, 0, 0, 0\n0, 0, 0, 0]"] ;
352 -> 354 ;
355 [label="Sp. Def <= 100.5\ngini = 0.71\nsamples = 13\nvalue = [3, 0, 1, 0, 0, 0, 0, 0, 1, 1, 0, 0, 6, 0\n0, 0, 1, 0]"] ;
351 -> 355 ;
356 [label="Attack <= 141.5\ngini = 0.667\nsamples = 12\nvalue = [3, 0, 1, 0, 0, 0, 0, 0, 0, 1, 0, 0, 6, 0\n0, 0, 1, 0]"] ;
355 -> 356 ;
357 [label="HP <= 73.0\ngini = 0.612\nsamples = 11\nvalue = [3, 0, 0, 0, 0, 0, 0, 0, 0, 1, 0, 0, 6, 0\n0, 0, 1, 0]"] ;
356 -> 357 ;
358 [label="Sp. Def <= 88.0\ngini = 0.612\nsamples = 7\nvalue = [3, 0, 0, 0, 0, 0, 0, 0, 0, 1, 0, 0, 3, 0\n0, 0, 0, 0]"] ;
357 -> 358 ;
359 [label="Defense <= 76.5\ngini = 0.56\nsamples = 5\nvalue = [3, 0, 0, 0, 0, 0, 0, 0, 0, 1, 0, 0, 1, 0\n0, 0, 0, 0]"] ;
358 -> 359 ;
360 [label="Speed <= 107.5\ngini = 0.5\nsamples = 2\nvalue = [0, 0, 0, 0, 0, 0, 0, 0, 0, 1, 0, 0, 1, 0\n0, 0, 0, 0]"] ;
359 -> 360 ;
361 [label="gini = 0.0\nsamples = 1\nvalue = [0, 0, 0, 0, 0, 0, 0, 0, 0, 1, 0, 0, 0, 0\n0, 0, 0, 0]"] ;
360 -> 361 ;
362 [label="gini = 0.0\nsamples = 1\nvalue = [0, 0, 0, 0, 0, 0, 0, 0, 0, 0, 0, 0, 1, 0\n0, 0, 0, 0]"] ;
360 -> 362 ;
363 [label="gini = 0.0\nsamples = 3\nvalue = [3, 0, 0, 0, 0, 0, 0, 0, 0, 0, 0, 0, 0, 0\n0, 0, 0, 0]"] ;
359 -> 363 ;
364 [label="gini = 0.0\nsamples = 2\nvalue = [0, 0, 0, 0, 0, 0, 0, 0, 0, 0, 0, 0, 2, 0\n0, 0, 0, 0]"] ;
358 -> 364 ;
365 [label="Attack <= 109.5\ngini = 0.375\nsamples = 4\nvalue = [0, 0, 0, 0, 0, 0, 0, 0, 0, 0, 0, 0, 3, 0\n0, 0, 1, 0]"] ;
357 -> 365 ;
366 [label="gini = 0.0\nsamples = 3\nvalue = [0, 0, 0, 0, 0, 0, 0, 0, 0, 0, 0, 0, 3, 0\n0, 0, 0, 0]"] ;
365 -> 366 ;
367 [label="gini = 0.0\nsamples = 1\nvalue = [0, 0, 0, 0, 0, 0, 0, 0, 0, 0, 0, 0, 0, 0\n0, 0, 1, 0]"] ;
365 -> 367 ;
368 [label="gini = 0.0\nsamples = 1\nvalue = [0, 0, 1, 0, 0, 0, 0, 0, 0, 0, 0, 0, 0, 0\n0, 0, 0, 0]"] ;
356 -> 368 ;
369 [label="gini = 0.0\nsamples = 1\nvalue = [0, 0, 0, 0, 0, 0, 0, 0, 1, 0, 0, 0, 0, 0\n0, 0, 0, 0]"] ;
355 -> 369 ;
370 [label="Attack <= 111.5\ngini = 0.783\nsamples = 55\nvalue = [0, 0, 2, 0, 1, 6, 1, 0, 1, 1, 3, 5, 23, 1\n3, 2, 0, 6]"] ;
2 -> 370 ;
371 [label="Sp. Def <= 50.5\ngini = 0.662\nsamples = 36\nvalue = [0, 0, 1, 0, 0, 2, 0, 0, 1, 0, 1, 2, 20, 1\n3, 1, 0, 4]"] ;
370 -> 371 ;
372 [label="Defense <= 27.0\ngini = 0.84\nsamples = 10\nvalue = [0, 0, 0, 0, 0, 1, 0, 0, 1, 0, 1, 1, 2, 0\n2, 0, 0, 2]"] ;
371 -> 372 ;
373 [label="gini = 0.0\nsamples = 2\nvalue = [0, 0, 0, 0, 0, 0, 0, 0, 0, 0, 0, 0, 2, 0\n0, 0, 0, 0]"] ;
372 -> 373 ;
374 [label="Speed <= 31.5\ngini = 0.812\nsamples = 8\nvalue = [0, 0, 0, 0, 0, 1, 0, 0, 1, 0, 1, 1, 0, 0\n2, 0, 0, 2]"] ;
372 -> 374 ;
375 [label="HP <= 92.5\ngini = 0.444\nsamples = 3\nvalue = [0, 0, 0, 0, 0, 0, 0, 0, 0, 0, 0, 0, 0, 0\n2, 0, 0, 1]"] ;
374 -> 375 ;
376 [label="gini = 0.5\nsamples = 2\nvalue = [0, 0, 0, 0, 0, 0, 0, 0, 0, 0, 0, 0, 0, 0\n1, 0, 0, 1]"] ;
375 -> 376 ;
377 [label="gini = 0.0\nsamples = 1\nvalue = [0, 0, 0, 0, 0, 0, 0, 0, 0, 0, 0, 0, 0, 0\n1, 0, 0, 0]"] ;
375 -> 377 ;
378 [label="Defense <= 39.5\ngini = 0.8\nsamples = 5\nvalue = [0, 0, 0, 0, 0, 1, 0, 0, 1, 0, 1, 1, 0, 0\n0, 0, 0, 1]"] ;
374 -> 378 ;
379 [label="gini = 0.0\nsamples = 1\nvalue = [0, 0, 0, 0, 0, 0, 0, 0, 1, 0, 0, 0, 0, 0\n0, 0, 0, 0]"] ;
378 -> 379 ;
380 [label="Defense <= 52.5\ngini = 0.75\nsamples = 4\nvalue = [0, 0, 0, 0, 0, 1, 0, 0, 0, 0, 1, 1, 0, 0\n0, 0, 0, 1]"] ;
378 -> 380 ;
381 [label="gini = 0.0\nsamples = 1\nvalue = [0, 0, 0, 0, 0, 0, 0, 0, 0, 0, 0, 1, 0, 0\n0, 0, 0, 0]"] ;
380 -> 381 ;
382 [label="Sp. Def <= 42.5\ngini = 0.667\nsamples = 3\nvalue = [0, 0, 0, 0, 0, 1, 0, 0, 0, 0, 1, 0, 0, 0\n0, 0, 0, 1]"] ;
380 -> 382 ;
383 [label="gini = 0.0\nsamples = 1\nvalue = [0, 0, 0, 0, 0, 0, 0, 0, 0, 0, 1, 0, 0, 0\n0, 0, 0, 0]"] ;
382 -> 383 ;
384 [label="Speed <= 52.5\ngini = 0.5\nsamples = 2\nvalue = [0, 0, 0, 0, 0, 1, 0, 0, 0, 0, 0, 0, 0, 0\n0, 0, 0, 1]"] ;
382 -> 384 ;
385 [label="gini = 0.0\nsamples = 1\nvalue = [0, 0, 0, 0, 0, 1, 0, 0, 0, 0, 0, 0, 0, 0\n0, 0, 0, 0]"] ;
384 -> 385 ;
386 [label="gini = 0.0\nsamples = 1\nvalue = [0, 0, 0, 0, 0, 0, 0, 0, 0, 0, 0, 0, 0, 0\n0, 0, 0, 1]"] ;
384 -> 386 ;
387 [label="Speed <= 96.0\ngini = 0.506\nsamples = 26\nvalue = [0, 0, 1, 0, 0, 1, 0, 0, 0, 0, 0, 1, 18, 1\n1, 1, 0, 2]"] ;
371 -> 387 ;
388 [label="Sp. Atk <= 34.0\ngini = 0.47\nsamples = 25\nvalue = [0, 0, 1, 0, 0, 1, 0, 0, 0, 0, 0, 1, 18, 1\n1, 1, 0, 1]"] ;
387 -> 388 ;
389 [label="Sp. Def <= 61.5\ngini = 0.667\nsamples = 3\nvalue = [0, 0, 0, 0, 0, 1, 0, 0, 0, 0, 0, 0, 1, 0\n1, 0, 0, 0]"] ;
388 -> 389 ;
390 [label="gini = 0.0\nsamples = 1\nvalue = [0, 0, 0, 0, 0, 0, 0, 0, 0, 0, 0, 0, 0, 0\n1, 0, 0, 0]"] ;
389 -> 390 ;
391 [label="HP <= 110.0\ngini = 0.5\nsamples = 2\nvalue = [0, 0, 0, 0, 0, 1, 0, 0, 0, 0, 0, 0, 1, 0\n0, 0, 0, 0]"] ;
389 -> 391 ;
392 [label="gini = 0.0\nsamples = 1\nvalue = [0, 0, 0, 0, 0, 0, 0, 0, 0, 0, 0, 0, 1, 0\n0, 0, 0, 0]"] ;
391 -> 392 ;
393 [label="gini = 0.0\nsamples = 1\nvalue = [0, 0, 0, 0, 0, 1, 0, 0, 0, 0, 0, 0, 0, 0\n0, 0, 0, 0]"] ;
391 -> 393 ;
394 [label="Sp. Atk <= 59.5\ngini = 0.393\nsamples = 22\nvalue = [0, 0, 1, 0, 0, 0, 0, 0, 0, 0, 0, 1, 17, 1\n0, 1, 0, 1]"] ;
388 -> 394 ;
395 [label="Sp. Def <= 97.5\ngini = 0.296\nsamples = 18\nvalue = [0, 0, 1, 0, 0, 0, 0, 0, 0, 0, 0, 0, 15, 1\n0, 1, 0, 0]"] ;
394 -> 395 ;
396 [label="Sp. Def <= 70.0\ngini = 0.227\nsamples = 16\nvalue = [0, 0, 1, 0, 0, 0, 0, 0, 0, 0, 0, 0, 14, 0\n0, 1, 0, 0]"] ;
395 -> 396 ;
397 [label="Sp. Def <= 62.5\ngini = 0.406\nsamples = 8\nvalue = [0, 0, 1, 0, 0, 0, 0, 0, 0, 0, 0, 0, 6, 0\n0, 1, 0, 0]"] ;
396 -> 397 ;
398 [label="gini = 0.0\nsamples = 6\nvalue = [0, 0, 0, 0, 0, 0, 0, 0, 0, 0, 0, 0, 6, 0\n0, 0, 0, 0]"] ;
397 -> 398 ;
399 [label="Defense <= 75.5\ngini = 0.5\nsamples = 2\nvalue = [0, 0, 1, 0, 0, 0, 0, 0, 0, 0, 0, 0, 0, 0\n0, 1, 0, 0]"] ;
397 -> 399 ;
400 [label="gini = 0.0\nsamples = 1\nvalue = [0, 0, 1, 0, 0, 0, 0, 0, 0, 0, 0, 0, 0, 0\n0, 0, 0, 0]"] ;
399 -> 400 ;
401 [label="gini = 0.0\nsamples = 1\nvalue = [0, 0, 0, 0, 0, 0, 0, 0, 0, 0, 0, 0, 0, 0\n0, 1, 0, 0]"] ;
399 -> 401 ;
402 [label="gini = 0.0\nsamples = 8\nvalue = [0, 0, 0, 0, 0, 0, 0, 0, 0, 0, 0, 0, 8, 0\n0, 0, 0, 0]"] ;
396 -> 402 ;
403 [label="HP <= 190.0\ngini = 0.5\nsamples = 2\nvalue = [0, 0, 0, 0, 0, 0, 0, 0, 0, 0, 0, 0, 1, 1\n0, 0, 0, 0]"] ;
395 -> 403 ;
404 [label="gini = 0.0\nsamples = 1\nvalue = [0, 0, 0, 0, 0, 0, 0, 0, 0, 0, 0, 0, 0, 1\n0, 0, 0, 0]"] ;
403 -> 404 ;
405 [label="gini = 0.0\nsamples = 1\nvalue = [0, 0, 0, 0, 0, 0, 0, 0, 0, 0, 0, 0, 1, 0\n0, 0, 0, 0]"] ;
403 -> 405 ;
406 [label="Attack <= 52.5\ngini = 0.625\nsamples = 4\nvalue = [0, 0, 0, 0, 0, 0, 0, 0, 0, 0, 0, 1, 2, 0\n0, 0, 0, 1]"] ;
394 -> 406 ;
407 [label="gini = 0.0\nsamples = 1\nvalue = [0, 0, 0, 0, 0, 0, 0, 0, 0, 0, 0, 0, 0, 0\n0, 0, 0, 1]"] ;
406 -> 407 ;
408 [label="Attack <= 80.0\ngini = 0.444\nsamples = 3\nvalue = [0, 0, 0, 0, 0, 0, 0, 0, 0, 0, 0, 1, 2, 0\n0, 0, 0, 0]"] ;
406 -> 408 ;
409 [label="gini = 0.0\nsamples = 2\nvalue = [0, 0, 0, 0, 0, 0, 0, 0, 0, 0, 0, 0, 2, 0\n0, 0, 0, 0]"] ;
408 -> 409 ;
410 [label="gini = 0.0\nsamples = 1\nvalue = [0, 0, 0, 0, 0, 0, 0, 0, 0, 0, 0, 1, 0, 0\n0, 0, 0, 0]"] ;
408 -> 410 ;
411 [label="gini = 0.0\nsamples = 1\nvalue = [0, 0, 0, 0, 0, 0, 0, 0, 0, 0, 0, 0, 0, 0\n0, 0, 0, 1]"] ;
387 -> 411 ;
412 [label="Sp. Def <= 57.5\ngini = 0.87\nsamples = 19\nvalue = [0, 0, 1, 0, 1, 4, 1, 0, 0, 1, 2, 3, 3, 0\n0, 1, 0, 2]"] ;
370 -> 412 ;
413 [label="Defense <= 60.0\ngini = 0.375\nsamples = 4\nvalue = [0, 0, 0, 0, 0, 0, 1, 0, 0, 0, 0, 3, 0, 0\n0, 0, 0, 0]"] ;
412 -> 413 ;
414 [label="Speed <= 115.0\ngini = 0.444\nsamples = 3\nvalue = [0, 0, 0, 0, 0, 0, 1, 0, 0, 0, 0, 2, 0, 0\n0, 0, 0, 0]"] ;
413 -> 414 ;
415 [label="gini = 0.5\nsamples = 2\nvalue = [0, 0, 0, 0, 0, 0, 1, 0, 0, 0, 0, 1, 0, 0\n0, 0, 0, 0]"] ;
414 -> 415 ;
416 [label="gini = 0.0\nsamples = 1\nvalue = [0, 0, 0, 0, 0, 0, 0, 0, 0, 0, 0, 1, 0, 0\n0, 0, 0, 0]"] ;
414 -> 416 ;
417 [label="gini = 0.0\nsamples = 1\nvalue = [0, 0, 0, 0, 0, 0, 0, 0, 0, 0, 0, 1, 0, 0\n0, 0, 0, 0]"] ;
413 -> 417 ;
418 [label="Sp. Atk <= 44.0\ngini = 0.836\nsamples = 15\nvalue = [0, 0, 1, 0, 1, 4, 0, 0, 0, 1, 2, 0, 3, 0\n0, 1, 0, 2]"] ;
412 -> 418 ;
419 [label="gini = 0.0\nsamples = 2\nvalue = [0, 0, 0, 0, 0, 2, 0, 0, 0, 0, 0, 0, 0, 0\n0, 0, 0, 0]"] ;
418 -> 419 ;
420 [label="Sp. Def <= 62.5\ngini = 0.852\nsamples = 13\nvalue = [0, 0, 1, 0, 1, 2, 0, 0, 0, 1, 2, 0, 3, 0\n0, 1, 0, 2]"] ;
418 -> 420 ;
421 [label="Sp. Atk <= 57.5\ngini = 0.444\nsamples = 3\nvalue = [0, 0, 0, 0, 1, 0, 0, 0, 0, 0, 0, 0, 2, 0\n0, 0, 0, 0]"] ;
420 -> 421 ;
422 [label="gini = 0.0\nsamples = 2\nvalue = [0, 0, 0, 0, 0, 0, 0, 0, 0, 0, 0, 0, 2, 0\n0, 0, 0, 0]"] ;
421 -> 422 ;
423 [label="gini = 0.0\nsamples = 1\nvalue = [0, 0, 0, 0, 1, 0, 0, 0, 0, 0, 0, 0, 0, 0\n0, 0, 0, 0]"] ;
421 -> 423 ;
424 [label="HP <= 97.5\ngini = 0.84\nsamples = 10\nvalue = [0, 0, 1, 0, 0, 2, 0, 0, 0, 1, 2, 0, 1, 0\n0, 1, 0, 2]"] ;
420 -> 424 ;
425 [label="HP <= 89.5\ngini = 0.625\nsamples = 4\nvalue = [0, 0, 0, 0, 0, 0, 0, 0, 0, 0, 1, 0, 0, 0\n0, 1, 0, 2]"] ;
424 -> 425 ;
426 [label="Speed <= 68.5\ngini = 0.5\nsamples = 2\nvalue = [0, 0, 0, 0, 0, 0, 0, 0, 0, 0, 1, 0, 0, 0\n0, 1, 0, 0]"] ;
425 -> 426 ;
427 [label="gini = 0.0\nsamples = 1\nvalue = [0, 0, 0, 0, 0, 0, 0, 0, 0, 0, 1, 0, 0, 0\n0, 0, 0, 0]"] ;
426 -> 427 ;
428 [label="gini = 0.0\nsamples = 1\nvalue = [0, 0, 0, 0, 0, 0, 0, 0, 0, 0, 0, 0, 0, 0\n0, 1, 0, 0]"] ;
426 -> 428 ;
429 [label="gini = 0.0\nsamples = 2\nvalue = [0, 0, 0, 0, 0, 0, 0, 0, 0, 0, 0, 0, 0, 0\n0, 0, 0, 2]"] ;
425 -> 429 ;
430 [label="Defense <= 77.5\ngini = 0.778\nsamples = 6\nvalue = [0, 0, 1, 0, 0, 2, 0, 0, 0, 1, 1, 0, 1, 0\n0, 0, 0, 0]"] ;
424 -> 430 ;
431 [label="HP <= 102.5\ngini = 0.667\nsamples = 3\nvalue = [0, 0, 1, 0, 0, 0, 0, 0, 0, 0, 1, 0, 1, 0\n0, 0, 0, 0]"] ;
430 -> 431 ;
432 [label="gini = 0.0\nsamples = 1\nvalue = [0, 0, 0, 0, 0, 0, 0, 0, 0, 0, 0, 0, 1, 0\n0, 0, 0, 0]"] ;
431 -> 432 ;
433 [label="Attack <= 137.0\ngini = 0.5\nsamples = 2\nvalue = [0, 0, 1, 0, 0, 0, 0, 0, 0, 0, 1, 0, 0, 0\n0, 0, 0, 0]"] ;
431 -> 433 ;
434 [label="gini = 0.0\nsamples = 1\nvalue = [0, 0, 0, 0, 0, 0, 0, 0, 0, 0, 1, 0, 0, 0\n0, 0, 0, 0]"] ;
433 -> 434 ;
435 [label="gini = 0.0\nsamples = 1\nvalue = [0, 0, 1, 0, 0, 0, 0, 0, 0, 0, 0, 0, 0, 0\n0, 0, 0, 0]"] ;
433 -> 435 ;
436 [label="Sp. Atk <= 57.5\ngini = 0.444\nsamples = 3\nvalue = [0, 0, 0, 0, 0, 2, 0, 0, 0, 1, 0, 0, 0, 0\n0, 0, 0, 0]"] ;
430 -> 436 ;
437 [label="gini = 0.0\nsamples = 2\nvalue = [0, 0, 0, 0, 0, 2, 0, 0, 0, 0, 0, 0, 0, 0\n0, 0, 0, 0]"] ;
436 -> 437 ;
438 [label="gini = 0.0\nsamples = 1\nvalue = [0, 0, 0, 0, 0, 0, 0, 0, 0, 1, 0, 0, 0, 0\n0, 0, 0, 0]"] ;
436 -> 438 ;
439 [label="HP <= 87.5\ngini = 0.882\nsamples = 95\nvalue = [10, 7, 1, 0, 1, 4, 1, 1, 6, 3, 11, 3, 3, 2\n1, 22, 14, 5]"] ;
1 -> 439 ;
440 [label="Speed <= 79.5\ngini = 0.856\nsamples = 74\nvalue = [9, 2, 1, 0, 1, 3, 1, 0, 6, 3, 5, 1, 1, 2\n1, 20, 14, 4]"] ;
439 -> 440 ;
441 [label="Defense <= 137.5\ngini = 0.807\nsamples = 60\nvalue = [7, 2, 1, 0, 0, 0, 1, 0, 4, 1, 3, 1, 0, 1\n1, 20, 14, 4]"] ;
440 -> 441 ;
442 [label="Sp. Def <= 67.5\ngini = 0.815\nsamples = 41\nvalue = [4, 2, 1, 0, 0, 0, 1, 0, 4, 1, 2, 1, 0, 0\n1, 15, 5, 4]"] ;
441 -> 442 ;
443 [label="Speed <= 47.5\ngini = 0.665\nsamples = 19\nvalue = [0, 0, 1, 0, 0, 0, 0, 0, 0, 0, 1, 1, 0, 0\n0, 10, 3, 3]"] ;
442 -> 443 ;
444 [label="HP <= 54.5\ngini = 0.473\nsamples = 13\nvalue = [0, 0, 0, 0, 0, 0, 0, 0, 0, 0, 0, 0, 0, 0\n0, 9, 2, 2]"] ;
443 -> 444 ;
445 [label="Sp. Atk <= 32.5\ngini = 0.667\nsamples = 6\nvalue = [0, 0, 0, 0, 0, 0, 0, 0, 0, 0, 0, 0, 0, 0\n0, 2, 2, 2]"] ;
444 -> 445 ;
446 [label="gini = 0.0\nsamples = 2\nvalue = [0, 0, 0, 0, 0, 0, 0, 0, 0, 0, 0, 0, 0, 0\n0, 2, 0, 0]"] ;
445 -> 446 ;
447 [label="Sp. Atk <= 42.5\ngini = 0.5\nsamples = 4\nvalue = [0, 0, 0, 0, 0, 0, 0, 0, 0, 0, 0, 0, 0, 0\n0, 0, 2, 2]"] ;
445 -> 447 ;
448 [label="gini = 0.0\nsamples = 2\nvalue = [0, 0, 0, 0, 0, 0, 0, 0, 0, 0, 0, 0, 0, 0\n0, 0, 2, 0]"] ;
447 -> 448 ;
449 [label="gini = 0.0\nsamples = 2\nvalue = [0, 0, 0, 0, 0, 0, 0, 0, 0, 0, 0, 0, 0, 0\n0, 0, 0, 2]"] ;
447 -> 449 ;
450 [label="gini = 0.0\nsamples = 7\nvalue = [0, 0, 0, 0, 0, 0, 0, 0, 0, 0, 0, 0, 0, 0\n0, 7, 0, 0]"] ;
444 -> 450 ;
451 [label="Attack <= 97.5\ngini = 0.833\nsamples = 6\nvalue = [0, 0, 1, 0, 0, 0, 0, 0, 0, 0, 1, 1, 0, 0\n0, 1, 1, 1]"] ;
443 -> 451 ;
452 [label="gini = 0.0\nsamples = 1\nvalue = [0, 0, 1, 0, 0, 0, 0, 0, 0, 0, 0, 0, 0, 0\n0, 0, 0, 0]"] ;
451 -> 452 ;
453 [label="Defense <= 105.0\ngini = 0.8\nsamples = 5\nvalue = [0, 0, 0, 0, 0, 0, 0, 0, 0, 0, 1, 1, 0, 0\n0, 1, 1, 1]"] ;
451 -> 453 ;
454 [label="gini = 0.0\nsamples = 1\nvalue = [0, 0, 0, 0, 0, 0, 0, 0, 0, 0, 0, 0, 0, 0\n0, 0, 1, 0]"] ;
453 -> 454 ;
455 [label="HP <= 62.5\ngini = 0.75\nsamples = 4\nvalue = [0, 0, 0, 0, 0, 0, 0, 0, 0, 0, 1, 1, 0, 0\n0, 1, 0, 1]"] ;
453 -> 455 ;
456 [label="gini = 0.0\nsamples = 1\nvalue = [0, 0, 0, 0, 0, 0, 0, 0, 0, 0, 0, 0, 0, 0\n0, 0, 0, 1]"] ;
455 -> 456 ;
457 [label="Speed <= 70.0\ngini = 0.667\nsamples = 3\nvalue = [0, 0, 0, 0, 0, 0, 0, 0, 0, 0, 1, 1, 0, 0\n0, 1, 0, 0]"] ;
455 -> 457 ;
458 [label="Defense <= 115.0\ngini = 0.5\nsamples = 2\nvalue = [0, 0, 0, 0, 0, 0, 0, 0, 0, 0, 1, 1, 0, 0\n0, 0, 0, 0]"] ;
457 -> 458 ;
459 [label="gini = 0.0\nsamples = 1\nvalue = [0, 0, 0, 0, 0, 0, 0, 0, 0, 0, 1, 0, 0, 0\n0, 0, 0, 0]"] ;
458 -> 459 ;
460 [label="gini = 0.0\nsamples = 1\nvalue = [0, 0, 0, 0, 0, 0, 0, 0, 0, 0, 0, 1, 0, 0\n0, 0, 0, 0]"] ;
458 -> 460 ;
461 [label="gini = 0.0\nsamples = 1\nvalue = [0, 0, 0, 0, 0, 0, 0, 0, 0, 0, 0, 0, 0, 0\n0, 1, 0, 0]"] ;
457 -> 461 ;
462 [label="Attack <= 127.5\ngini = 0.855\nsamples = 22\nvalue = [4, 2, 0, 0, 0, 0, 1, 0, 4, 1, 1, 0, 0, 0\n1, 5, 2, 1]"] ;
442 -> 462 ;
463 [label="Attack <= 65.0\ngini = 0.858\nsamples = 18\nvalue = [1, 2, 0, 0, 0, 0, 1, 0, 4, 1, 1, 0, 0, 0\n1, 4, 2, 1]"] ;
462 -> 463 ;
464 [label="Sp. Atk <= 36.0\ngini = 0.56\nsamples = 5\nvalue = [0, 0, 0, 0, 0, 0, 0, 0, 0, 0, 0, 0, 0, 0\n1, 3, 0, 1]"] ;
463 -> 464 ;
465 [label="Defense <= 130.5\ngini = 0.5\nsamples = 2\nvalue = [0, 0, 0, 0, 0, 0, 0, 0, 0, 0, 0, 0, 0, 0\n1, 0, 0, 1]"] ;
464 -> 465 ;
466 [label="gini = 0.0\nsamples = 1\nvalue = [0, 0, 0, 0, 0, 0, 0, 0, 0, 0, 0, 0, 0, 0\n0, 0, 0, 1]"] ;
465 -> 466 ;
467 [label="gini = 0.0\nsamples = 1\nvalue = [0, 0, 0, 0, 0, 0, 0, 0, 0, 0, 0, 0, 0, 0\n1, 0, 0, 0]"] ;
465 -> 467 ;
468 [label="gini = 0.0\nsamples = 3\nvalue = [0, 0, 0, 0, 0, 0, 0, 0, 0, 0, 0, 0, 0, 0\n0, 3, 0, 0]"] ;
464 -> 468 ;
469 [label="HP <= 68.5\ngini = 0.828\nsamples = 13\nvalue = [1, 2, 0, 0, 0, 0, 1, 0, 4, 1, 1, 0, 0, 0\n0, 1, 2, 0]"] ;
463 -> 469 ;
470 [label="Speed <= 54.0\ngini = 0.812\nsamples = 8\nvalue = [1, 2, 0, 0, 0, 0, 1, 0, 1, 0, 1, 0, 0, 0\n0, 0, 2, 0]"] ;
469 -> 470 ;
471 [label="Speed <= 47.5\ngini = 0.778\nsamples = 6\nvalue = [1, 0, 0, 0, 0, 0, 1, 0, 1, 0, 1, 0, 0, 0\n0, 0, 2, 0]"] ;
470 -> 471 ;
472 [label="HP <= 50.0\ngini = 0.75\nsamples = 4\nvalue = [1, 0, 0, 0, 0, 0, 1, 0, 1, 0, 1, 0, 0, 0\n0, 0, 0, 0]"] ;
471 -> 472 ;
473 [label="gini = 0.0\nsamples = 1\nvalue = [0, 0, 0, 0, 0, 0, 0, 0, 1, 0, 0, 0, 0, 0\n0, 0, 0, 0]"] ;
472 -> 473 ;
474 [label="Defense <= 107.5\ngini = 0.667\nsamples = 3\nvalue = [1, 0, 0, 0, 0, 0, 1, 0, 0, 0, 1, 0, 0, 0\n0, 0, 0, 0]"] ;
472 -> 474 ;
475 [label="gini = 0.0\nsamples = 1\nvalue = [1, 0, 0, 0, 0, 0, 0, 0, 0, 0, 0, 0, 0, 0\n0, 0, 0, 0]"] ;
474 -> 475 ;
476 [label="gini = 0.5\nsamples = 2\nvalue = [0, 0, 0, 0, 0, 0, 1, 0, 0, 0, 1, 0, 0, 0\n0, 0, 0, 0]"] ;
474 -> 476 ;
477 [label="gini = 0.0\nsamples = 2\nvalue = [0, 0, 0, 0, 0, 0, 0, 0, 0, 0, 0, 0, 0, 0\n0, 0, 2, 0]"] ;
471 -> 477 ;
478 [label="gini = 0.0\nsamples = 2\nvalue = [0, 2, 0, 0, 0, 0, 0, 0, 0, 0, 0, 0, 0, 0\n0, 0, 0, 0]"] ;
470 -> 478 ;
479 [label="Sp. Def <= 106.5\ngini = 0.56\nsamples = 5\nvalue = [0, 0, 0, 0, 0, 0, 0, 0, 3, 1, 0, 0, 0, 0\n0, 1, 0, 0]"] ;
469 -> 479 ;
480 [label="Attack <= 103.0\ngini = 0.375\nsamples = 4\nvalue = [0, 0, 0, 0, 0, 0, 0, 0, 3, 0, 0, 0, 0, 0\n0, 1, 0, 0]"] ;
479 -> 480 ;
481 [label="gini = 0.0\nsamples = 3\nvalue = [0, 0, 0, 0, 0, 0, 0, 0, 3, 0, 0, 0, 0, 0\n0, 0, 0, 0]"] ;
480 -> 481 ;
482 [label="gini = 0.0\nsamples = 1\nvalue = [0, 0, 0, 0, 0, 0, 0, 0, 0, 0, 0, 0, 0, 0\n0, 1, 0, 0]"] ;
480 -> 482 ;
483 [label="gini = 0.0\nsamples = 1\nvalue = [0, 0, 0, 0, 0, 0, 0, 0, 0, 1, 0, 0, 0, 0\n0, 0, 0, 0]"] ;
479 -> 483 ;
484 [label="HP <= 82.5\ngini = 0.375\nsamples = 4\nvalue = [3, 0, 0, 0, 0, 0, 0, 0, 0, 0, 0, 0, 0, 0\n0, 1, 0, 0]"] ;
462 -> 484 ;
485 [label="gini = 0.0\nsamples = 3\nvalue = [3, 0, 0, 0, 0, 0, 0, 0, 0, 0, 0, 0, 0, 0\n0, 0, 0, 0]"] ;
484 -> 485 ;
486 [label="gini = 0.0\nsamples = 1\nvalue = [0, 0, 0, 0, 0, 0, 0, 0, 0, 0, 0, 0, 0, 0\n0, 1, 0, 0]"] ;
484 -> 486 ;
487 [label="Sp. Def <= 97.5\ngini = 0.676\nsamples = 19\nvalue = [3, 0, 0, 0, 0, 0, 0, 0, 0, 0, 1, 0, 0, 1\n0, 5, 9, 0]"] ;
441 -> 487 ;
488 [label="Sp. Def <= 47.0\ngini = 0.43\nsamples = 11\nvalue = [2, 0, 0, 0, 0, 0, 0, 0, 0, 0, 0, 0, 0, 0\n0, 1, 8, 0]"] ;
487 -> 488 ;
489 [label="gini = 0.0\nsamples = 1\nvalue = [0, 0, 0, 0, 0, 0, 0, 0, 0, 0, 0, 0, 0, 0\n0, 1, 0, 0]"] ;
488 -> 489 ;
490 [label="HP <= 72.5\ngini = 0.32\nsamples = 10\nvalue = [2, 0, 0, 0, 0, 0, 0, 0, 0, 0, 0, 0, 0, 0\n0, 0, 8, 0]"] ;
488 -> 490 ;
491 [label="gini = 0.0\nsamples = 6\nvalue = [0, 0, 0, 0, 0, 0, 0, 0, 0, 0, 0, 0, 0, 0\n0, 0, 6, 0]"] ;
490 -> 491 ;
492 [label="Speed <= 35.0\ngini = 0.5\nsamples = 4\nvalue = [2, 0, 0, 0, 0, 0, 0, 0, 0, 0, 0, 0, 0, 0\n0, 0, 2, 0]"] ;
490 -> 492 ;
493 [label="gini = 0.0\nsamples = 2\nvalue = [0, 0, 0, 0, 0, 0, 0, 0, 0, 0, 0, 0, 0, 0\n0, 0, 2, 0]"] ;
492 -> 493 ;
494 [label="gini = 0.0\nsamples = 2\nvalue = [2, 0, 0, 0, 0, 0, 0, 0, 0, 0, 0, 0, 0, 0\n0, 0, 0, 0]"] ;
492 -> 494 ;
495 [label="Defense <= 147.5\ngini = 0.688\nsamples = 8\nvalue = [1, 0, 0, 0, 0, 0, 0, 0, 0, 0, 1, 0, 0, 1\n0, 4, 1, 0]"] ;
487 -> 495 ;
496 [label="Speed <= 45.0\ngini = 0.5\nsamples = 2\nvalue = [0, 0, 0, 0, 0, 0, 0, 0, 0, 0, 1, 0, 0, 0\n0, 0, 1, 0]"] ;
495 -> 496 ;
497 [label="gini = 0.0\nsamples = 1\nvalue = [0, 0, 0, 0, 0, 0, 0, 0, 0, 0, 1, 0, 0, 0\n0, 0, 0, 0]"] ;
496 -> 497 ;
498 [label="gini = 0.0\nsamples = 1\nvalue = [0, 0, 0, 0, 0, 0, 0, 0, 0, 0, 0, 0, 0, 0\n0, 0, 1, 0]"] ;
496 -> 498 ;
499 [label="Sp. Def <= 190.0\ngini = 0.5\nsamples = 6\nvalue = [1, 0, 0, 0, 0, 0, 0, 0, 0, 0, 0, 0, 0, 1\n0, 4, 0, 0]"] ;
495 -> 499 ;
500 [label="Defense <= 160.0\ngini = 0.32\nsamples = 5\nvalue = [0, 0, 0, 0, 0, 0, 0, 0, 0, 0, 0, 0, 0, 1\n0, 4, 0, 0]"] ;
499 -> 500 ;
501 [label="Attack <= 56.5\ngini = 0.5\nsamples = 2\nvalue = [0, 0, 0, 0, 0, 0, 0, 0, 0, 0, 0, 0, 0, 1\n0, 1, 0, 0]"] ;
500 -> 501 ;
502 [label="gini = 0.0\nsamples = 1\nvalue = [0, 0, 0, 0, 0, 0, 0, 0, 0, 0, 0, 0, 0, 0\n0, 1, 0, 0]"] ;
501 -> 502 ;
503 [label="gini = 0.0\nsamples = 1\nvalue = [0, 0, 0, 0, 0, 0, 0, 0, 0, 0, 0, 0, 0, 1\n0, 0, 0, 0]"] ;
501 -> 503 ;
504 [label="gini = 0.0\nsamples = 3\nvalue = [0, 0, 0, 0, 0, 0, 0, 0, 0, 0, 0, 0, 0, 0\n0, 3, 0, 0]"] ;
500 -> 504 ;
505 [label="gini = 0.0\nsamples = 1\nvalue = [1, 0, 0, 0, 0, 0, 0, 0, 0, 0, 0, 0, 0, 0\n0, 0, 0, 0]"] ;
499 -> 505 ;
506 [label="Sp. Atk <= 32.5\ngini = 0.857\nsamples = 14\nvalue = [2, 0, 0, 0, 1, 3, 0, 0, 2, 2, 2, 0, 1, 1\n0, 0, 0, 0]"] ;
440 -> 506 ;
507 [label="gini = 0.0\nsamples = 3\nvalue = [0, 0, 0, 0, 0, 3, 0, 0, 0, 0, 0, 0, 0, 0\n0, 0, 0, 0]"] ;
506 -> 507 ;
508 [label="Sp. Atk <= 46.5\ngini = 0.843\nsamples = 11\nvalue = [2, 0, 0, 0, 1, 0, 0, 0, 2, 2, 2, 0, 1, 1\n0, 0, 0, 0]"] ;
506 -> 508 ;
509 [label="gini = 0.0\nsamples = 2\nvalue = [0, 0, 0, 0, 0, 0, 0, 0, 0, 0, 2, 0, 0, 0\n0, 0, 0, 0]"] ;
508 -> 509 ;
510 [label="Defense <= 126.0\ngini = 0.815\nsamples = 9\nvalue = [2, 0, 0, 0, 1, 0, 0, 0, 2, 2, 0, 0, 1, 1\n0, 0, 0, 0]"] ;
508 -> 510 ;
511 [label="Sp. Def <= 72.5\ngini = 0.776\nsamples = 7\nvalue = [2, 0, 0, 0, 1, 0, 0, 0, 2, 0, 0, 0, 1, 1\n0, 0, 0, 0]"] ;
510 -> 511 ;
512 [label="gini = 0.0\nsamples = 2\nvalue = [2, 0, 0, 0, 0, 0, 0, 0, 0, 0, 0, 0, 0, 0\n0, 0, 0, 0]"] ;
511 -> 512 ;
513 [label="Defense <= 118.5\ngini = 0.72\nsamples = 5\nvalue = [0, 0, 0, 0, 1, 0, 0, 0, 2, 0, 0, 0, 1, 1\n0, 0, 0, 0]"] ;
511 -> 513 ;
514 [label="Sp. Def <= 77.5\ngini = 0.667\nsamples = 3\nvalue = [0, 0, 0, 0, 1, 0, 0, 0, 0, 0, 0, 0, 1, 1\n0, 0, 0, 0]"] ;
513 -> 514 ;
515 [label="gini = 0.0\nsamples = 1\nvalue = [0, 0, 0, 0, 0, 0, 0, 0, 0, 0, 0, 0, 0, 1\n0, 0, 0, 0]"] ;
514 -> 515 ;
516 [label="Speed <= 91.5\ngini = 0.5\nsamples = 2\nvalue = [0, 0, 0, 0, 1, 0, 0, 0, 0, 0, 0, 0, 1, 0\n0, 0, 0, 0]"] ;
514 -> 516 ;
517 [label="gini = 0.0\nsamples = 1\nvalue = [0, 0, 0, 0, 0, 0, 0, 0, 0, 0, 0, 0, 1, 0\n0, 0, 0, 0]"] ;
516 -> 517 ;
518 [label="gini = 0.0\nsamples = 1\nvalue = [0, 0, 0, 0, 1, 0, 0, 0, 0, 0, 0, 0, 0, 0\n0, 0, 0, 0]"] ;
516 -> 518 ;
519 [label="gini = 0.0\nsamples = 2\nvalue = [0, 0, 0, 0, 0, 0, 0, 0, 2, 0, 0, 0, 0, 0\n0, 0, 0, 0]"] ;
513 -> 519 ;
520 [label="gini = 0.0\nsamples = 2\nvalue = [0, 0, 0, 0, 0, 0, 0, 0, 0, 2, 0, 0, 0, 0\n0, 0, 0, 0]"] ;
510 -> 520 ;
521 [label="Attack <= 113.5\ngini = 0.825\nsamples = 21\nvalue = [1, 5, 0, 0, 0, 1, 0, 1, 0, 0, 6, 2, 2, 0\n0, 2, 0, 1]"] ;
439 -> 521 ;
522 [label="Sp. Atk <= 54.0\ngini = 0.688\nsamples = 8\nvalue = [0, 4, 0, 0, 0, 0, 0, 1, 0, 0, 0, 0, 1, 0\n0, 1, 0, 1]"] ;
521 -> 522 ;
523 [label="Speed <= 45.0\ngini = 0.75\nsamples = 4\nvalue = [0, 0, 0, 0, 0, 0, 0, 1, 0, 0, 0, 0, 1, 0\n0, 1, 0, 1]"] ;
522 -> 523 ;
524 [label="gini = 0.0\nsamples = 1\nvalue = [0, 0, 0, 0, 0, 0, 0, 0, 0, 0, 0, 0, 0, 0\n0, 1, 0, 0]"] ;
523 -> 524 ;
525 [label="Sp. Atk <= 42.5\ngini = 0.667\nsamples = 3\nvalue = [0, 0, 0, 0, 0, 0, 0, 1, 0, 0, 0, 0, 1, 0\n0, 0, 0, 1]"] ;
523 -> 525 ;
526 [label="gini = 0.0\nsamples = 1\nvalue = [0, 0, 0, 0, 0, 0, 0, 0, 0, 0, 0, 0, 1, 0\n0, 0, 0, 0]"] ;
525 -> 526 ;
527 [label="Sp. Atk <= 49.0\ngini = 0.5\nsamples = 2\nvalue = [0, 0, 0, 0, 0, 0, 0, 1, 0, 0, 0, 0, 0, 0\n0, 0, 0, 1]"] ;
525 -> 527 ;
528 [label="gini = 0.0\nsamples = 1\nvalue = [0, 0, 0, 0, 0, 0, 0, 0, 0, 0, 0, 0, 0, 0\n0, 0, 0, 1]"] ;
527 -> 528 ;
529 [label="gini = 0.0\nsamples = 1\nvalue = [0, 0, 0, 0, 0, 0, 0, 1, 0, 0, 0, 0, 0, 0\n0, 0, 0, 0]"] ;
527 -> 529 ;
530 [label="gini = 0.0\nsamples = 4\nvalue = [0, 4, 0, 0, 0, 0, 0, 0, 0, 0, 0, 0, 0, 0\n0, 0, 0, 0]"] ;
522 -> 530 ;
531 [label="Defense <= 133.0\ngini = 0.734\nsamples = 13\nvalue = [1, 1, 0, 0, 0, 1, 0, 0, 0, 0, 6, 2, 1, 0\n0, 1, 0, 0]"] ;
521 -> 531 ;
532 [label="Speed <= 93.5\ngini = 0.519\nsamples = 9\nvalue = [0, 1, 0, 0, 0, 1, 0, 0, 0, 0, 6, 0, 1, 0\n0, 0, 0, 0]"] ;
531 -> 532 ;
533 [label="HP <= 142.0\ngini = 0.406\nsamples = 8\nvalue = [0, 1, 0, 0, 0, 1, 0, 0, 0, 0, 6, 0, 0, 0\n0, 0, 0, 0]"] ;
532 -> 533 ;
534 [label="Sp. Atk <= 57.5\ngini = 0.245\nsamples = 7\nvalue = [0, 1, 0, 0, 0, 0, 0, 0, 0, 0, 6, 0, 0, 0\n0, 0, 0, 0]"] ;
533 -> 534 ;
535 [label="gini = 0.0\nsamples = 5\nvalue = [0, 0, 0, 0, 0, 0, 0, 0, 0, 0, 5, 0, 0, 0\n0, 0, 0, 0]"] ;
534 -> 535 ;
536 [label="Sp. Def <= 72.5\ngini = 0.5\nsamples = 2\nvalue = [0, 1, 0, 0, 0, 0, 0, 0, 0, 0, 1, 0, 0, 0\n0, 0, 0, 0]"] ;
534 -> 536 ;
537 [label="gini = 0.0\nsamples = 1\nvalue = [0, 0, 0, 0, 0, 0, 0, 0, 0, 0, 1, 0, 0, 0\n0, 0, 0, 0]"] ;
536 -> 537 ;
538 [label="gini = 0.0\nsamples = 1\nvalue = [0, 1, 0, 0, 0, 0, 0, 0, 0, 0, 0, 0, 0, 0\n0, 0, 0, 0]"] ;
536 -> 538 ;
539 [label="gini = 0.0\nsamples = 1\nvalue = [0, 0, 0, 0, 0, 1, 0, 0, 0, 0, 0, 0, 0, 0\n0, 0, 0, 0]"] ;
533 -> 539 ;
540 [label="gini = 0.0\nsamples = 1\nvalue = [0, 0, 0, 0, 0, 0, 0, 0, 0, 0, 0, 0, 1, 0\n0, 0, 0, 0]"] ;
532 -> 540 ;
541 [label="Speed <= 54.0\ngini = 0.625\nsamples = 4\nvalue = [1, 0, 0, 0, 0, 0, 0, 0, 0, 0, 0, 2, 0, 0\n0, 1, 0, 0]"] ;
531 -> 541 ;
542 [label="gini = 0.0\nsamples = 2\nvalue = [0, 0, 0, 0, 0, 0, 0, 0, 0, 0, 0, 2, 0, 0\n0, 0, 0, 0]"] ;
541 -> 542 ;
543 [label="Speed <= 74.5\ngini = 0.5\nsamples = 2\nvalue = [1, 0, 0, 0, 0, 0, 0, 0, 0, 0, 0, 0, 0, 0\n0, 1, 0, 0]"] ;
541 -> 543 ;
544 [label="gini = 0.0\nsamples = 1\nvalue = [0, 0, 0, 0, 0, 0, 0, 0, 0, 0, 0, 0, 0, 0\n0, 1, 0, 0]"] ;
543 -> 544 ;
545 [label="gini = 0.0\nsamples = 1\nvalue = [1, 0, 0, 0, 0, 0, 0, 0, 0, 0, 0, 0, 0, 0\n0, 0, 0, 0]"] ;
543 -> 545 ;
546 [label="Speed <= 85.5\ngini = 0.923\nsamples = 665\nvalue = [26, 29, 31, 57, 20, 18, 59, 5, 31, 65, 13, 26\n46, 24, 71, 27, 20, 97]"] ;
0 -> 546 [labeldistance=2.5, labelangle=-45, headlabel="False"] ;
547 [label="Attack <= 55.5\ngini = 0.91\nsamples = 389\nvalue = [13, 13, 11, 19, 12, 6, 34, 1, 22, 52, 5, 18\n26, 17, 34, 20, 14, 72]"] ;
546 -> 547 ;
548 [label="HP <= 61.0\ngini = 0.883\nsamples = 81\nvalue = [3, 0, 1, 5, 5, 0, 7, 0, 10, 10, 0, 4, 2, 1\n17, 5, 0, 11]"] ;
547 -> 548 ;
549 [label="Speed <= 34.0\ngini = 0.869\nsamples = 55\nvalue = [1, 0, 0, 4, 3, 0, 3, 0, 10, 9, 0, 3, 0, 1\n9, 3, 0, 9]"] ;
548 -> 549 ;
550 [label="Defense <= 65.0\ngini = 0.704\nsamples = 14\nvalue = [0, 0, 0, 0, 0, 0, 2, 0, 5, 5, 0, 0, 0, 0\n2, 0, 0, 0]"] ;
549 -> 550 ;
551 [label="Sp. Atk <= 81.5\ngini = 0.656\nsamples = 8\nvalue = [0, 0, 0, 0, 0, 0, 1, 0, 1, 4, 0, 0, 0, 0\n2, 0, 0, 0]"] ;
550 -> 551 ;
552 [label="Defense <= 45.0\ngini = 0.5\nsamples = 6\nvalue = [0, 0, 0, 0, 0, 0, 1, 0, 1, 4, 0, 0, 0, 0\n0, 0, 0, 0]"] ;
551 -> 552 ;
553 [label="gini = 0.0\nsamples = 1\nvalue = [0, 0, 0, 0, 0, 0, 1, 0, 0, 0, 0, 0, 0, 0\n0, 0, 0, 0]"] ;
552 -> 553 ;
554 [label="Attack <= 32.5\ngini = 0.32\nsamples = 5\nvalue = [0, 0, 0, 0, 0, 0, 0, 0, 1, 4, 0, 0, 0, 0\n0, 0, 0, 0]"] ;
552 -> 554 ;
555 [label="gini = 0.0\nsamples = 1\nvalue = [0, 0, 0, 0, 0, 0, 0, 0, 1, 0, 0, 0, 0, 0\n0, 0, 0, 0]"] ;
554 -> 555 ;
556 [label="gini = 0.0\nsamples = 4\nvalue = [0, 0, 0, 0, 0, 0, 0, 0, 0, 4, 0, 0, 0, 0\n0, 0, 0, 0]"] ;
554 -> 556 ;
557 [label="gini = 0.0\nsamples = 2\nvalue = [0, 0, 0, 0, 0, 0, 0, 0, 0, 0, 0, 0, 0, 0\n2, 0, 0, 0]"] ;
551 -> 557 ;
558 [label="HP <= 59.0\ngini = 0.5\nsamples = 6\nvalue = [0, 0, 0, 0, 0, 0, 1, 0, 4, 1, 0, 0, 0, 0\n0, 0, 0, 0]"] ;
550 -> 558 ;
559 [label="gini = 0.0\nsamples = 3\nvalue = [0, 0, 0, 0, 0, 0, 0, 0, 3, 0, 0, 0, 0, 0\n0, 0, 0, 0]"] ;
558 -> 559 ;
560 [label="Defense <= 90.0\ngini = 0.667\nsamples = 3\nvalue = [0, 0, 0, 0, 0, 0, 1, 0, 1, 1, 0, 0, 0, 0\n0, 0, 0, 0]"] ;
558 -> 560 ;
561 [label="gini = 0.0\nsamples = 1\nvalue = [0, 0, 0, 0, 0, 0, 0, 0, 0, 1, 0, 0, 0, 0\n0, 0, 0, 0]"] ;
560 -> 561 ;
562 [label="Sp. Def <= 90.0\ngini = 0.5\nsamples = 2\nvalue = [0, 0, 0, 0, 0, 0, 1, 0, 1, 0, 0, 0, 0, 0\n0, 0, 0, 0]"] ;
560 -> 562 ;
563 [label="gini = 0.0\nsamples = 1\nvalue = [0, 0, 0, 0, 0, 0, 1, 0, 0, 0, 0, 0, 0, 0\n0, 0, 0, 0]"] ;
562 -> 563 ;
564 [label="gini = 0.0\nsamples = 1\nvalue = [0, 0, 0, 0, 0, 0, 0, 0, 1, 0, 0, 0, 0, 0\n0, 0, 0, 0]"] ;
562 -> 564 ;
565 [label="Sp. Atk <= 70.5\ngini = 0.871\nsamples = 41\nvalue = [1, 0, 0, 4, 3, 0, 1, 0, 5, 4, 0, 3, 0, 1\n7, 3, 0, 9]"] ;
549 -> 565 ;
566 [label="Attack <= 36.5\ngini = 0.786\nsamples = 23\nvalue = [0, 0, 0, 3, 1, 0, 1, 0, 0, 3, 0, 2, 0, 0\n5, 0, 0, 8]"] ;
565 -> 566 ;
567 [label="Speed <= 40.0\ngini = 0.32\nsamples = 5\nvalue = [0, 0, 0, 0, 0, 0, 0, 0, 0, 1, 0, 0, 0, 0\n4, 0, 0, 0]"] ;
566 -> 567 ;
568 [label="gini = 0.0\nsamples = 1\nvalue = [0, 0, 0, 0, 0, 0, 0, 0, 0, 1, 0, 0, 0, 0\n0, 0, 0, 0]"] ;
567 -> 568 ;
569 [label="gini = 0.0\nsamples = 4\nvalue = [0, 0, 0, 0, 0, 0, 0, 0, 0, 0, 0, 0, 0, 0\n4, 0, 0, 0]"] ;
567 -> 569 ;
570 [label="HP <= 47.5\ngini = 0.741\nsamples = 18\nvalue = [0, 0, 0, 3, 1, 0, 1, 0, 0, 2, 0, 2, 0, 0\n1, 0, 0, 8]"] ;
566 -> 570 ;
571 [label="Defense <= 52.5\ngini = 0.843\nsamples = 11\nvalue = [0, 0, 0, 2, 1, 0, 1, 0, 0, 2, 0, 2, 0, 0\n1, 0, 0, 2]"] ;
570 -> 571 ;
572 [label="Sp. Def <= 44.0\ngini = 0.815\nsamples = 9\nvalue = [0, 0, 0, 2, 1, 0, 1, 0, 0, 2, 0, 2, 0, 0\n1, 0, 0, 0]"] ;
571 -> 572 ;
573 [label="gini = 0.0\nsamples = 2\nvalue = [0, 0, 0, 2, 0, 0, 0, 0, 0, 0, 0, 0, 0, 0\n0, 0, 0, 0]"] ;
572 -> 573 ;
574 [label="Attack <= 49.5\ngini = 0.776\nsamples = 7\nvalue = [0, 0, 0, 0, 1, 0, 1, 0, 0, 2, 0, 2, 0, 0\n1, 0, 0, 0]"] ;
572 -> 574 ;
575 [label="Sp. Atk <= 63.5\ngini = 0.625\nsamples = 4\nvalue = [0, 0, 0, 0, 1, 0, 1, 0, 0, 2, 0, 0, 0, 0\n0, 0, 0, 0]"] ;
574 -> 575 ;
576 [label="Sp. Atk <= 61.5\ngini = 0.5\nsamples = 2\nvalue = [0, 0, 0, 0, 1, 0, 1, 0, 0, 0, 0, 0, 0, 0\n0, 0, 0, 0]"] ;
575 -> 576 ;
577 [label="gini = 0.0\nsamples = 1\nvalue = [0, 0, 0, 0, 1, 0, 0, 0, 0, 0, 0, 0, 0, 0\n0, 0, 0, 0]"] ;
576 -> 577 ;
578 [label="gini = 0.0\nsamples = 1\nvalue = [0, 0, 0, 0, 0, 0, 1, 0, 0, 0, 0, 0, 0, 0\n0, 0, 0, 0]"] ;
576 -> 578 ;
579 [label="gini = 0.0\nsamples = 2\nvalue = [0, 0, 0, 0, 0, 0, 0, 0, 0, 2, 0, 0, 0, 0\n0, 0, 0, 0]"] ;
575 -> 579 ;
580 [label="Sp. Atk <= 67.5\ngini = 0.444\nsamples = 3\nvalue = [0, 0, 0, 0, 0, 0, 0, 0, 0, 0, 0, 2, 0, 0\n1, 0, 0, 0]"] ;
574 -> 580 ;
581 [label="gini = 0.0\nsamples = 2\nvalue = [0, 0, 0, 0, 0, 0, 0, 0, 0, 0, 0, 2, 0, 0\n0, 0, 0, 0]"] ;
580 -> 581 ;
582 [label="gini = 0.0\nsamples = 1\nvalue = [0, 0, 0, 0, 0, 0, 0, 0, 0, 0, 0, 0, 0, 0\n1, 0, 0, 0]"] ;
580 -> 582 ;
583 [label="gini = 0.0\nsamples = 2\nvalue = [0, 0, 0, 0, 0, 0, 0, 0, 0, 0, 0, 0, 0, 0\n0, 0, 0, 2]"] ;
571 -> 583 ;
584 [label="Speed <= 37.5\ngini = 0.245\nsamples = 7\nvalue = [0, 0, 0, 1, 0, 0, 0, 0, 0, 0, 0, 0, 0, 0\n0, 0, 0, 6]"] ;
570 -> 584 ;
585 [label="gini = 0.0\nsamples = 1\nvalue = [0, 0, 0, 1, 0, 0, 0, 0, 0, 0, 0, 0, 0, 0\n0, 0, 0, 0]"] ;
584 -> 585 ;
586 [label="gini = 0.0\nsamples = 6\nvalue = [0, 0, 0, 0, 0, 0, 0, 0, 0, 0, 0, 0, 0, 0\n0, 0, 0, 6]"] ;
584 -> 586 ;
587 [label="Speed <= 78.5\ngini = 0.852\nsamples = 18\nvalue = [1, 0, 0, 1, 2, 0, 0, 0, 5, 1, 0, 1, 0, 1\n2, 3, 0, 1]"] ;
565 -> 587 ;
588 [label="Defense <= 95.0\ngini = 0.88\nsamples = 15\nvalue = [1, 0, 0, 1, 2, 0, 0, 0, 2, 1, 0, 1, 0, 1\n2, 3, 0, 1]"] ;
587 -> 588 ;
589 [label="Sp. Def <= 91.5\ngini = 0.875\nsamples = 12\nvalue = [1, 0, 0, 1, 2, 0, 0, 0, 2, 1, 0, 1, 0, 1\n2, 1, 0, 0]"] ;
588 -> 589 ;
590 [label="Sp. Def <= 69.0\ngini = 0.84\nsamples = 9\nvalue = [1, 0, 0, 1, 0, 0, 0, 0, 2, 0, 0, 1, 0, 1\n2, 1, 0, 0]"] ;
589 -> 590 ;
591 [label="Attack <= 37.5\ngini = 0.778\nsamples = 6\nvalue = [0, 0, 0, 1, 0, 0, 0, 0, 2, 0, 0, 1, 0, 1\n0, 1, 0, 0]"] ;
590 -> 591 ;
592 [label="Speed <= 52.5\ngini = 0.667\nsamples = 3\nvalue = [0, 0, 0, 1, 0, 0, 0, 0, 0, 0, 0, 1, 0, 0\n0, 1, 0, 0]"] ;
591 -> 592 ;
593 [label="gini = 0.0\nsamples = 1\nvalue = [0, 0, 0, 1, 0, 0, 0, 0, 0, 0, 0, 0, 0, 0\n0, 0, 0, 0]"] ;
592 -> 593 ;
594 [label="Sp. Atk <= 95.0\ngini = 0.5\nsamples = 2\nvalue = [0, 0, 0, 0, 0, 0, 0, 0, 0, 0, 0, 1, 0, 0\n0, 1, 0, 0]"] ;
592 -> 594 ;
595 [label="gini = 0.0\nsamples = 1\nvalue = [0, 0, 0, 0, 0, 0, 0, 0, 0, 0, 0, 1, 0, 0\n0, 0, 0, 0]"] ;
594 -> 595 ;
596 [label="gini = 0.0\nsamples = 1\nvalue = [0, 0, 0, 0, 0, 0, 0, 0, 0, 0, 0, 0, 0, 0\n0, 1, 0, 0]"] ;
594 -> 596 ;
597 [label="Sp. Def <= 47.0\ngini = 0.444\nsamples = 3\nvalue = [0, 0, 0, 0, 0, 0, 0, 0, 2, 0, 0, 0, 0, 1\n0, 0, 0, 0]"] ;
591 -> 597 ;
598 [label="gini = 0.0\nsamples = 1\nvalue = [0, 0, 0, 0, 0, 0, 0, 0, 0, 0, 0, 0, 0, 1\n0, 0, 0, 0]"] ;
597 -> 598 ;
599 [label="gini = 0.0\nsamples = 2\nvalue = [0, 0, 0, 0, 0, 0, 0, 0, 2, 0, 0, 0, 0, 0\n0, 0, 0, 0]"] ;
597 -> 599 ;
600 [label="Speed <= 62.5\ngini = 0.444\nsamples = 3\nvalue = [1, 0, 0, 0, 0, 0, 0, 0, 0, 0, 0, 0, 0, 0\n2, 0, 0, 0]"] ;
590 -> 600 ;
601 [label="gini = 0.0\nsamples = 2\nvalue = [0, 0, 0, 0, 0, 0, 0, 0, 0, 0, 0, 0, 0, 0\n2, 0, 0, 0]"] ;
600 -> 601 ;
602 [label="gini = 0.0\nsamples = 1\nvalue = [1, 0, 0, 0, 0, 0, 0, 0, 0, 0, 0, 0, 0, 0\n0, 0, 0, 0]"] ;
600 -> 602 ;
603 [label="Sp. Def <= 112.5\ngini = 0.444\nsamples = 3\nvalue = [0, 0, 0, 0, 2, 0, 0, 0, 0, 1, 0, 0, 0, 0\n0, 0, 0, 0]"] ;
589 -> 603 ;
604 [label="gini = 0.0\nsamples = 2\nvalue = [0, 0, 0, 0, 2, 0, 0, 0, 0, 0, 0, 0, 0, 0\n0, 0, 0, 0]"] ;
603 -> 604 ;
605 [label="gini = 0.0\nsamples = 1\nvalue = [0, 0, 0, 0, 0, 0, 0, 0, 0, 1, 0, 0, 0, 0\n0, 0, 0, 0]"] ;
603 -> 605 ;
606 [label="Speed <= 52.5\ngini = 0.444\nsamples = 3\nvalue = [0, 0, 0, 0, 0, 0, 0, 0, 0, 0, 0, 0, 0, 0\n0, 2, 0, 1]"] ;
588 -> 606 ;
607 [label="gini = 0.0\nsamples = 2\nvalue = [0, 0, 0, 0, 0, 0, 0, 0, 0, 0, 0, 0, 0, 0\n0, 2, 0, 0]"] ;
606 -> 607 ;
608 [label="gini = 0.0\nsamples = 1\nvalue = [0, 0, 0, 0, 0, 0, 0, 0, 0, 0, 0, 0, 0, 0\n0, 0, 0, 1]"] ;
606 -> 608 ;
609 [label="gini = 0.0\nsamples = 3\nvalue = [0, 0, 0, 0, 0, 0, 0, 0, 3, 0, 0, 0, 0, 0\n0, 0, 0, 0]"] ;
587 -> 609 ;
610 [label="Sp. Def <= 59.0\ngini = 0.846\nsamples = 26\nvalue = [2, 0, 1, 1, 2, 0, 4, 0, 0, 1, 0, 1, 2, 0\n8, 2, 0, 2]"] ;
548 -> 610 ;
611 [label="Defense <= 51.5\ngini = 0.56\nsamples = 5\nvalue = [0, 0, 0, 0, 0, 0, 3, 0, 0, 1, 0, 0, 0, 0\n1, 0, 0, 0]"] ;
610 -> 611 ;
612 [label="gini = 0.0\nsamples = 1\nvalue = [0, 0, 0, 0, 0, 0, 0, 0, 0, 0, 0, 0, 0, 0\n1, 0, 0, 0]"] ;
611 -> 612 ;
613 [label="Defense <= 96.5\ngini = 0.375\nsamples = 4\nvalue = [0, 0, 0, 0, 0, 0, 3, 0, 0, 1, 0, 0, 0, 0\n0, 0, 0, 0]"] ;
611 -> 613 ;
614 [label="gini = 0.0\nsamples = 3\nvalue = [0, 0, 0, 0, 0, 0, 3, 0, 0, 0, 0, 0, 0, 0\n0, 0, 0, 0]"] ;
613 -> 614 ;
615 [label="gini = 0.0\nsamples = 1\nvalue = [0, 0, 0, 0, 0, 0, 0, 0, 0, 1, 0, 0, 0, 0\n0, 0, 0, 0]"] ;
613 -> 615 ;
616 [label="Sp. Atk <= 88.0\ngini = 0.834\nsamples = 21\nvalue = [2, 0, 1, 1, 2, 0, 1, 0, 0, 0, 0, 1, 2, 0\n7, 2, 0, 2]"] ;
610 -> 616 ;
617 [label="Defense <= 52.0\ngini = 0.84\nsamples = 9\nvalue = [1, 0, 0, 1, 1, 0, 0, 0, 0, 0, 0, 0, 2, 0\n1, 1, 0, 2]"] ;
616 -> 617 ;
618 [label="gini = 0.0\nsamples = 2\nvalue = [0, 0, 0, 0, 0, 0, 0, 0, 0, 0, 0, 0, 2, 0\n0, 0, 0, 0]"] ;
617 -> 618 ;
619 [label="Sp. Def <= 91.0\ngini = 0.816\nsamples = 7\nvalue = [1, 0, 0, 1, 1, 0, 0, 0, 0, 0, 0, 0, 0, 0\n1, 1, 0, 2]"] ;
617 -> 619 ;
620 [label="Speed <= 34.0\ngini = 0.8\nsamples = 5\nvalue = [1, 0, 0, 1, 1, 0, 0, 0, 0, 0, 0, 0, 0, 0\n1, 1, 0, 0]"] ;
619 -> 620 ;
621 [label="Attack <= 46.5\ngini = 0.5\nsamples = 2\nvalue = [0, 0, 0, 0, 1, 0, 0, 0, 0, 0, 0, 0, 0, 0\n0, 1, 0, 0]"] ;
620 -> 621 ;
622 [label="gini = 0.0\nsamples = 1\nvalue = [0, 0, 0, 0, 0, 0, 0, 0, 0, 0, 0, 0, 0, 0\n0, 1, 0, 0]"] ;
621 -> 622 ;
623 [label="gini = 0.0\nsamples = 1\nvalue = [0, 0, 0, 0, 1, 0, 0, 0, 0, 0, 0, 0, 0, 0\n0, 0, 0, 0]"] ;
621 -> 623 ;
624 [label="Speed <= 56.5\ngini = 0.667\nsamples = 3\nvalue = [1, 0, 0, 1, 0, 0, 0, 0, 0, 0, 0, 0, 0, 0\n1, 0, 0, 0]"] ;
620 -> 624 ;
625 [label="gini = 0.0\nsamples = 1\nvalue = [0, 0, 0, 1, 0, 0, 0, 0, 0, 0, 0, 0, 0, 0\n0, 0, 0, 0]"] ;
624 -> 625 ;
626 [label="HP <= 63.5\ngini = 0.5\nsamples = 2\nvalue = [1, 0, 0, 0, 0, 0, 0, 0, 0, 0, 0, 0, 0, 0\n1, 0, 0, 0]"] ;
624 -> 626 ;
627 [label="gini = 0.0\nsamples = 1\nvalue = [0, 0, 0, 0, 0, 0, 0, 0, 0, 0, 0, 0, 0, 0\n1, 0, 0, 0]"] ;
626 -> 627 ;
628 [label="gini = 0.0\nsamples = 1\nvalue = [1, 0, 0, 0, 0, 0, 0, 0, 0, 0, 0, 0, 0, 0\n0, 0, 0, 0]"] ;
626 -> 628 ;
629 [label="gini = 0.0\nsamples = 2\nvalue = [0, 0, 0, 0, 0, 0, 0, 0, 0, 0, 0, 0, 0, 0\n0, 0, 0, 2]"] ;
619 -> 629 ;
630 [label="Defense <= 97.5\ngini = 0.708\nsamples = 12\nvalue = [1, 0, 1, 0, 1, 0, 1, 0, 0, 0, 0, 1, 0, 0\n6, 1, 0, 0]"] ;
616 -> 630 ;
631 [label="Sp. Atk <= 111.0\ngini = 0.6\nsamples = 10\nvalue = [1, 0, 1, 0, 1, 0, 0, 0, 0, 0, 0, 0, 0, 0\n6, 1, 0, 0]"] ;
630 -> 631 ;
632 [label="Sp. Def <= 87.5\ngini = 0.278\nsamples = 6\nvalue = [0, 0, 0, 0, 0, 0, 0, 0, 0, 0, 0, 0, 0, 0\n5, 1, 0, 0]"] ;
631 -> 632 ;
633 [label="gini = 0.0\nsamples = 1\nvalue = [0, 0, 0, 0, 0, 0, 0, 0, 0, 0, 0, 0, 0, 0\n0, 1, 0, 0]"] ;
632 -> 633 ;
634 [label="gini = 0.0\nsamples = 5\nvalue = [0, 0, 0, 0, 0, 0, 0, 0, 0, 0, 0, 0, 0, 0\n5, 0, 0, 0]"] ;
632 -> 634 ;
635 [label="HP <= 66.5\ngini = 0.75\nsamples = 4\nvalue = [1, 0, 1, 0, 1, 0, 0, 0, 0, 0, 0, 0, 0, 0\n1, 0, 0, 0]"] ;
631 -> 635 ;
636 [label="gini = 0.0\nsamples = 1\nvalue = [0, 0, 0, 0, 0, 0, 0, 0, 0, 0, 0, 0, 0, 0\n1, 0, 0, 0]"] ;
635 -> 636 ;
637 [label="Speed <= 62.5\ngini = 0.667\nsamples = 3\nvalue = [1, 0, 1, 0, 1, 0, 0, 0, 0, 0, 0, 0, 0, 0\n0, 0, 0, 0]"] ;
635 -> 637 ;
638 [label="gini = 0.0\nsamples = 1\nvalue = [1, 0, 0, 0, 0, 0, 0, 0, 0, 0, 0, 0, 0, 0\n0, 0, 0, 0]"] ;
637 -> 638 ;
639 [label="Defense <= 77.5\ngini = 0.5\nsamples = 2\nvalue = [0, 0, 1, 0, 1, 0, 0, 0, 0, 0, 0, 0, 0, 0\n0, 0, 0, 0]"] ;
637 -> 639 ;
640 [label="gini = 0.0\nsamples = 1\nvalue = [0, 0, 1, 0, 0, 0, 0, 0, 0, 0, 0, 0, 0, 0\n0, 0, 0, 0]"] ;
639 -> 640 ;
641 [label="gini = 0.0\nsamples = 1\nvalue = [0, 0, 0, 0, 1, 0, 0, 0, 0, 0, 0, 0, 0, 0\n0, 0, 0, 0]"] ;
639 -> 641 ;
642 [label="Defense <= 102.5\ngini = 0.5\nsamples = 2\nvalue = [0, 0, 0, 0, 0, 0, 1, 0, 0, 0, 0, 1, 0, 0\n0, 0, 0, 0]"] ;
630 -> 642 ;
643 [label="gini = 0.0\nsamples = 1\nvalue = [0, 0, 0, 0, 0, 0, 0, 0, 0, 0, 0, 1, 0, 0\n0, 0, 0, 0]"] ;
642 -> 643 ;
644 [label="gini = 0.0\nsamples = 1\nvalue = [0, 0, 0, 0, 0, 0, 1, 0, 0, 0, 0, 0, 0, 0\n0, 0, 0, 0]"] ;
642 -> 644 ;
645 [label="Sp. Atk <= 111.5\ngini = 0.908\nsamples = 308\nvalue = [10, 13, 10, 14, 7, 6, 27, 1, 12, 42, 5, 14, 24\n16, 17, 15, 14, 61]"] ;
547 -> 645 ;
646 [label="Attack <= 113.5\ngini = 0.902\nsamples = 261\nvalue = [9, 13, 10, 7, 5, 6, 22, 1, 10, 36, 5, 12, 23\n16, 7, 14, 10, 55]"] ;
645 -> 646 ;
647 [label="HP <= 72.5\ngini = 0.887\nsamples = 215\nvalue = [7, 9, 9, 5, 5, 1, 17, 1, 7, 34, 5, 9, 20, 16\n5, 7, 7, 51]"] ;
646 -> 647 ;
648 [label="Sp. Def <= 81.5\ngini = 0.904\nsamples = 90\nvalue = [7, 6, 3, 2, 1, 1, 14, 1, 4, 14, 2, 3, 5, 6\n1, 3, 4, 13]"] ;
647 -> 648 ;
649 [label="Defense <= 64.0\ngini = 0.868\nsamples = 66\nvalue = [3, 5, 2, 1, 0, 1, 13, 0, 1, 13, 1, 2, 4, 5\n1, 2, 0, 12]"] ;
648 -> 649 ;
650 [label="Speed <= 72.0\ngini = 0.801\nsamples = 31\nvalue = [2, 3, 0, 0, 0, 0, 10, 0, 1, 8, 0, 0, 1, 1\n1, 1, 0, 3]"] ;
649 -> 650 ;
651 [label="Speed <= 62.5\ngini = 0.828\nsamples = 26\nvalue = [2, 3, 0, 0, 0, 0, 5, 0, 1, 8, 0, 0, 1, 1\n1, 1, 0, 3]"] ;
650 -> 651 ;
652 [label="HP <= 49.0\ngini = 0.658\nsamples = 15\nvalue = [0, 0, 0, 0, 0, 0, 5, 0, 1, 7, 0, 0, 0, 1\n1, 0, 0, 0]"] ;
651 -> 652 ;
653 [label="Sp. Def <= 36.5\ngini = 0.75\nsamples = 4\nvalue = [0, 0, 0, 0, 0, 0, 1, 0, 1, 0, 0, 0, 0, 1\n1, 0, 0, 0]"] ;
652 -> 653 ;
654 [label="gini = 0.0\nsamples = 1\nvalue = [0, 0, 0, 0, 0, 0, 0, 0, 1, 0, 0, 0, 0, 0\n0, 0, 0, 0]"] ;
653 -> 654 ;
655 [label="Sp. Atk <= 65.5\ngini = 0.667\nsamples = 3\nvalue = [0, 0, 0, 0, 0, 0, 1, 0, 0, 0, 0, 0, 0, 1\n1, 0, 0, 0]"] ;
653 -> 655 ;
656 [label="gini = 0.0\nsamples = 1\nvalue = [0, 0, 0, 0, 0, 0, 0, 0, 0, 0, 0, 0, 0, 1\n0, 0, 0, 0]"] ;
655 -> 656 ;
657 [label="HP <= 46.5\ngini = 0.5\nsamples = 2\nvalue = [0, 0, 0, 0, 0, 0, 1, 0, 0, 0, 0, 0, 0, 0\n1, 0, 0, 0]"] ;
655 -> 657 ;
658 [label="gini = 0.0\nsamples = 1\nvalue = [0, 0, 0, 0, 0, 0, 1, 0, 0, 0, 0, 0, 0, 0\n0, 0, 0, 0]"] ;
657 -> 658 ;
659 [label="gini = 0.0\nsamples = 1\nvalue = [0, 0, 0, 0, 0, 0, 0, 0, 0, 0, 0, 0, 0, 0\n1, 0, 0, 0]"] ;
657 -> 659 ;
660 [label="HP <= 52.5\ngini = 0.463\nsamples = 11\nvalue = [0, 0, 0, 0, 0, 0, 4, 0, 0, 7, 0, 0, 0, 0\n0, 0, 0, 0]"] ;
652 -> 660 ;
661 [label="gini = 0.0\nsamples = 3\nvalue = [0, 0, 0, 0, 0, 0, 0, 0, 0, 3, 0, 0, 0, 0\n0, 0, 0, 0]"] ;
660 -> 661 ;
662 [label="Defense <= 46.5\ngini = 0.5\nsamples = 8\nvalue = [0, 0, 0, 0, 0, 0, 4, 0, 0, 4, 0, 0, 0, 0\n0, 0, 0, 0]"] ;
660 -> 662 ;
663 [label="gini = 0.0\nsamples = 3\nvalue = [0, 0, 0, 0, 0, 0, 3, 0, 0, 0, 0, 0, 0, 0\n0, 0, 0, 0]"] ;
662 -> 663 ;
664 [label="Sp. Atk <= 82.5\ngini = 0.32\nsamples = 5\nvalue = [0, 0, 0, 0, 0, 0, 1, 0, 0, 4, 0, 0, 0, 0\n0, 0, 0, 0]"] ;
662 -> 664 ;
665 [label="gini = 0.0\nsamples = 3\nvalue = [0, 0, 0, 0, 0, 0, 0, 0, 0, 3, 0, 0, 0, 0\n0, 0, 0, 0]"] ;
664 -> 665 ;
666 [label="HP <= 62.5\ngini = 0.5\nsamples = 2\nvalue = [0, 0, 0, 0, 0, 0, 1, 0, 0, 1, 0, 0, 0, 0\n0, 0, 0, 0]"] ;
664 -> 666 ;
667 [label="gini = 0.0\nsamples = 1\nvalue = [0, 0, 0, 0, 0, 0, 1, 0, 0, 0, 0, 0, 0, 0\n0, 0, 0, 0]"] ;
666 -> 667 ;
668 [label="gini = 0.0\nsamples = 1\nvalue = [0, 0, 0, 0, 0, 0, 0, 0, 0, 1, 0, 0, 0, 0\n0, 0, 0, 0]"] ;
666 -> 668 ;
669 [label="Sp. Atk <= 69.5\ngini = 0.793\nsamples = 11\nvalue = [2, 3, 0, 0, 0, 0, 0, 0, 0, 1, 0, 0, 1, 0\n0, 1, 0, 3]"] ;
651 -> 669 ;
670 [label="gini = 0.0\nsamples = 3\nvalue = [0, 0, 0, 0, 0, 0, 0, 0, 0, 0, 0, 0, 0, 0\n0, 0, 0, 3]"] ;
669 -> 670 ;
671 [label="Defense <= 47.5\ngini = 0.75\nsamples = 8\nvalue = [2, 3, 0, 0, 0, 0, 0, 0, 0, 1, 0, 0, 1, 0\n0, 1, 0, 0]"] ;
669 -> 671 ;
672 [label="Sp. Atk <= 82.5\ngini = 0.667\nsamples = 6\nvalue = [0, 3, 0, 0, 0, 0, 0, 0, 0, 1, 0, 0, 1, 0\n0, 1, 0, 0]"] ;
671 -> 672 ;
673 [label="Sp. Atk <= 74.5\ngini = 0.375\nsamples = 4\nvalue = [0, 3, 0, 0, 0, 0, 0, 0, 0, 0, 0, 0, 0, 0\n0, 1, 0, 0]"] ;
672 -> 673 ;
674 [label="gini = 0.0\nsamples = 1\nvalue = [0, 0, 0, 0, 0, 0, 0, 0, 0, 0, 0, 0, 0, 0\n0, 1, 0, 0]"] ;
673 -> 674 ;
675 [label="gini = 0.0\nsamples = 3\nvalue = [0, 3, 0, 0, 0, 0, 0, 0, 0, 0, 0, 0, 0, 0\n0, 0, 0, 0]"] ;
673 -> 675 ;
676 [label="Defense <= 42.5\ngini = 0.5\nsamples = 2\nvalue = [0, 0, 0, 0, 0, 0, 0, 0, 0, 1, 0, 0, 1, 0\n0, 0, 0, 0]"] ;
672 -> 676 ;
677 [label="gini = 0.0\nsamples = 1\nvalue = [0, 0, 0, 0, 0, 0, 0, 0, 0, 0, 0, 0, 1, 0\n0, 0, 0, 0]"] ;
676 -> 677 ;
678 [label="gini = 0.0\nsamples = 1\nvalue = [0, 0, 0, 0, 0, 0, 0, 0, 0, 1, 0, 0, 0, 0\n0, 0, 0, 0]"] ;
676 -> 678 ;
679 [label="gini = 0.0\nsamples = 2\nvalue = [2, 0, 0, 0, 0, 0, 0, 0, 0, 0, 0, 0, 0, 0\n0, 0, 0, 0]"] ;
671 -> 679 ;
680 [label="gini = 0.0\nsamples = 5\nvalue = [0, 0, 0, 0, 0, 0, 5, 0, 0, 0, 0, 0, 0, 0\n0, 0, 0, 0]"] ;
650 -> 680 ;
681 [label="HP <= 59.5\ngini = 0.872\nsamples = 35\nvalue = [1, 2, 2, 1, 0, 1, 3, 0, 0, 5, 1, 2, 3, 4\n0, 1, 0, 9]"] ;
649 -> 681 ;
682 [label="Defense <= 77.5\ngini = 0.562\nsamples = 8\nvalue = [0, 1, 1, 0, 0, 0, 0, 0, 0, 0, 0, 1, 0, 0\n0, 0, 0, 5]"] ;
681 -> 682 ;
683 [label="Speed <= 54.5\ngini = 0.5\nsamples = 2\nvalue = [0, 1, 0, 0, 0, 0, 0, 0, 0, 0, 0, 1, 0, 0\n0, 0, 0, 0]"] ;
682 -> 683 ;
684 [label="gini = 0.0\nsamples = 1\nvalue = [0, 1, 0, 0, 0, 0, 0, 0, 0, 0, 0, 0, 0, 0\n0, 0, 0, 0]"] ;
683 -> 684 ;
685 [label="gini = 0.0\nsamples = 1\nvalue = [0, 0, 0, 0, 0, 0, 0, 0, 0, 0, 0, 1, 0, 0\n0, 0, 0, 0]"] ;
683 -> 685 ;
686 [label="Sp. Atk <= 69.5\ngini = 0.278\nsamples = 6\nvalue = [0, 0, 1, 0, 0, 0, 0, 0, 0, 0, 0, 0, 0, 0\n0, 0, 0, 5]"] ;
682 -> 686 ;
687 [label="Attack <= 69.0\ngini = 0.5\nsamples = 2\nvalue = [0, 0, 1, 0, 0, 0, 0, 0, 0, 0, 0, 0, 0, 0\n0, 0, 0, 1]"] ;
686 -> 687 ;
688 [label="gini = 0.0\nsamples = 1\nvalue = [0, 0, 0, 0, 0, 0, 0, 0, 0, 0, 0, 0, 0, 0\n0, 0, 0, 1]"] ;
687 -> 688 ;
689 [label="gini = 0.0\nsamples = 1\nvalue = [0, 0, 1, 0, 0, 0, 0, 0, 0, 0, 0, 0, 0, 0\n0, 0, 0, 0]"] ;
687 -> 689 ;
690 [label="gini = 0.0\nsamples = 4\nvalue = [0, 0, 0, 0, 0, 0, 0, 0, 0, 0, 0, 0, 0, 0\n0, 0, 0, 4]"] ;
686 -> 690 ;
691 [label="Attack <= 65.5\ngini = 0.886\nsamples = 27\nvalue = [1, 1, 1, 1, 0, 1, 3, 0, 0, 5, 1, 1, 3, 4\n0, 1, 0, 4]"] ;
681 -> 691 ;
692 [label="Attack <= 61.0\ngini = 0.375\nsamples = 4\nvalue = [0, 0, 0, 0, 0, 0, 0, 0, 0, 3, 0, 0, 1, 0\n0, 0, 0, 0]"] ;
691 -> 692 ;
693 [label="Sp. Atk <= 86.0\ngini = 0.5\nsamples = 2\nvalue = [0, 0, 0, 0, 0, 0, 0, 0, 0, 1, 0, 0, 1, 0\n0, 0, 0, 0]"] ;
692 -> 693 ;
694 [label="gini = 0.0\nsamples = 1\nvalue = [0, 0, 0, 0, 0, 0, 0, 0, 0, 0, 0, 0, 1, 0\n0, 0, 0, 0]"] ;
693 -> 694 ;
695 [label="gini = 0.0\nsamples = 1\nvalue = [0, 0, 0, 0, 0, 0, 0, 0, 0, 1, 0, 0, 0, 0\n0, 0, 0, 0]"] ;
693 -> 695 ;
696 [label="gini = 0.0\nsamples = 2\nvalue = [0, 0, 0, 0, 0, 0, 0, 0, 0, 2, 0, 0, 0, 0\n0, 0, 0, 0]"] ;
692 -> 696 ;
697 [label="Attack <= 107.5\ngini = 0.892\nsamples = 23\nvalue = [1, 1, 1, 1, 0, 1, 3, 0, 0, 2, 1, 1, 2, 4\n0, 1, 0, 4]"] ;
691 -> 697 ;
698 [label="HP <= 68.5\ngini = 0.88\nsamples = 21\nvalue = [1, 1, 1, 1, 0, 1, 3, 0, 0, 0, 1, 1, 2, 4\n0, 1, 0, 4]"] ;
697 -> 698 ;
699 [label="Attack <= 71.0\ngini = 0.716\nsamples = 9\nvalue = [0, 0, 1, 1, 0, 1, 0, 0, 0, 0, 0, 0, 0, 4\n0, 0, 0, 2]"] ;
698 -> 699 ;
700 [label="gini = 0.0\nsamples = 2\nvalue = [0, 0, 0, 0, 0, 0, 0, 0, 0, 0, 0, 0, 0, 0\n0, 0, 0, 2]"] ;
699 -> 700 ;
701 [label="Speed <= 50.0\ngini = 0.612\nsamples = 7\nvalue = [0, 0, 1, 1, 0, 1, 0, 0, 0, 0, 0, 0, 0, 4\n0, 0, 0, 0]"] ;
699 -> 701 ;
702 [label="gini = 0.0\nsamples = 1\nvalue = [0, 0, 0, 1, 0, 0, 0, 0, 0, 0, 0, 0, 0, 0\n0, 0, 0, 0]"] ;
701 -> 702 ;
703 [label="Sp. Def <= 63.5\ngini = 0.5\nsamples = 6\nvalue = [0, 0, 1, 0, 0, 1, 0, 0, 0, 0, 0, 0, 0, 4\n0, 0, 0, 0]"] ;
701 -> 703 ;
704 [label="gini = 0.0\nsamples = 1\nvalue = [0, 0, 0, 0, 0, 1, 0, 0, 0, 0, 0, 0, 0, 0\n0, 0, 0, 0]"] ;
703 -> 704 ;
705 [label="gini = 0.32\nsamples = 5\nvalue = [0, 0, 1, 0, 0, 0, 0, 0, 0, 0, 0, 0, 0, 4\n0, 0, 0, 0]"] ;
703 -> 705 ;
706 [label="Speed <= 42.5\ngini = 0.847\nsamples = 12\nvalue = [1, 1, 0, 0, 0, 0, 3, 0, 0, 0, 1, 1, 2, 0\n0, 1, 0, 2]"] ;
698 -> 706 ;
707 [label="gini = 0.0\nsamples = 2\nvalue = [0, 0, 0, 0, 0, 0, 2, 0, 0, 0, 0, 0, 0, 0\n0, 0, 0, 0]"] ;
706 -> 707 ;
708 [label="Speed <= 61.5\ngini = 0.86\nsamples = 10\nvalue = [1, 1, 0, 0, 0, 0, 1, 0, 0, 0, 1, 1, 2, 0\n0, 1, 0, 2]"] ;
706 -> 708 ;
709 [label="Defense <= 97.5\ngini = 0.667\nsamples = 3\nvalue = [1, 1, 0, 0, 0, 0, 0, 0, 0, 0, 0, 0, 0, 0\n0, 1, 0, 0]"] ;
708 -> 709 ;
710 [label="gini = 0.5\nsamples = 2\nvalue = [0, 1, 0, 0, 0, 0, 0, 0, 0, 0, 0, 0, 0, 0\n0, 1, 0, 0]"] ;
709 -> 710 ;
711 [label="gini = 0.0\nsamples = 1\nvalue = [1, 0, 0, 0, 0, 0, 0, 0, 0, 0, 0, 0, 0, 0\n0, 0, 0, 0]"] ;
709 -> 711 ;
712 [label="Attack <= 96.0\ngini = 0.776\nsamples = 7\nvalue = [0, 0, 0, 0, 0, 0, 1, 0, 0, 0, 1, 1, 2, 0\n0, 0, 0, 2]"] ;
708 -> 712 ;
713 [label="gini = 0.722\nsamples = 6\nvalue = [0, 0, 0, 0, 0, 0, 1, 0, 0, 0, 0, 1, 2, 0\n0, 0, 0, 2]"] ;
712 -> 713 ;
714 [label="gini = 0.0\nsamples = 1\nvalue = [0, 0, 0, 0, 0, 0, 0, 0, 0, 0, 1, 0, 0, 0\n0, 0, 0, 0]"] ;
712 -> 714 ;
715 [label="gini = 0.0\nsamples = 2\nvalue = [0, 0, 0, 0, 0, 0, 0, 0, 0, 2, 0, 0, 0, 0\n0, 0, 0, 0]"] ;
697 -> 715 ;
716 [label="Attack <= 69.5\ngini = 0.906\nsamples = 24\nvalue = [4, 1, 1, 1, 1, 0, 1, 1, 3, 1, 1, 1, 1, 1\n0, 1, 4, 1]"] ;
648 -> 716 ;
717 [label="Sp. Atk <= 105.0\ngini = 0.56\nsamples = 5\nvalue = [3, 0, 0, 0, 1, 0, 0, 0, 1, 0, 0, 0, 0, 0\n0, 0, 0, 0]"] ;
716 -> 717 ;
718 [label="Defense <= 61.0\ngini = 0.375\nsamples = 4\nvalue = [3, 0, 0, 0, 0, 0, 0, 0, 1, 0, 0, 0, 0, 0\n0, 0, 0, 0]"] ;
717 -> 718 ;
719 [label="gini = 0.0\nsamples = 1\nvalue = [0, 0, 0, 0, 0, 0, 0, 0, 1, 0, 0, 0, 0, 0\n0, 0, 0, 0]"] ;
718 -> 719 ;
720 [label="gini = 0.0\nsamples = 3\nvalue = [3, 0, 0, 0, 0, 0, 0, 0, 0, 0, 0, 0, 0, 0\n0, 0, 0, 0]"] ;
718 -> 720 ;
721 [label="gini = 0.0\nsamples = 1\nvalue = [0, 0, 0, 0, 1, 0, 0, 0, 0, 0, 0, 0, 0, 0\n0, 0, 0, 0]"] ;
717 -> 721 ;
722 [label="HP <= 53.5\ngini = 0.909\nsamples = 19\nvalue = [1, 1, 1, 1, 0, 0, 1, 1, 2, 1, 1, 1, 1, 1\n0, 1, 4, 1]"] ;
716 -> 722 ;
723 [label="Speed <= 27.5\ngini = 0.72\nsamples = 5\nvalue = [0, 1, 0, 1, 0, 0, 0, 0, 2, 0, 0, 0, 0, 0\n0, 1, 0, 0]"] ;
722 -> 723 ;
724 [label="Sp. Def <= 100.0\ngini = 0.5\nsamples = 2\nvalue = [0, 1, 0, 1, 0, 0, 0, 0, 0, 0, 0, 0, 0, 0\n0, 0, 0, 0]"] ;
723 -> 724 ;
725 [label="gini = 0.0\nsamples = 1\nvalue = [0, 0, 0, 1, 0, 0, 0, 0, 0, 0, 0, 0, 0, 0\n0, 0, 0, 0]"] ;
724 -> 725 ;
726 [label="gini = 0.0\nsamples = 1\nvalue = [0, 1, 0, 0, 0, 0, 0, 0, 0, 0, 0, 0, 0, 0\n0, 0, 0, 0]"] ;
724 -> 726 ;
727 [label="Speed <= 47.5\ngini = 0.444\nsamples = 3\nvalue = [0, 0, 0, 0, 0, 0, 0, 0, 2, 0, 0, 0, 0, 0\n0, 1, 0, 0]"] ;
723 -> 727 ;
728 [label="gini = 0.0\nsamples = 2\nvalue = [0, 0, 0, 0, 0, 0, 0, 0, 2, 0, 0, 0, 0, 0\n0, 0, 0, 0]"] ;
727 -> 728 ;
729 [label="gini = 0.0\nsamples = 1\nvalue = [0, 0, 0, 0, 0, 0, 0, 0, 0, 0, 0, 0, 0, 0\n0, 1, 0, 0]"] ;
727 -> 729 ;
730 [label="HP <= 67.5\ngini = 0.867\nsamples = 14\nvalue = [1, 0, 1, 0, 0, 0, 1, 1, 0, 1, 1, 1, 1, 1\n0, 0, 4, 1]"] ;
722 -> 730 ;
731 [label="Sp. Def <= 118.0\ngini = 0.688\nsamples = 8\nvalue = [0, 0, 0, 0, 0, 0, 1, 0, 0, 0, 1, 0, 1, 1\n0, 0, 4, 0]"] ;
730 -> 731 ;
732 [label="Sp. Atk <= 67.5\ngini = 0.5\nsamples = 6\nvalue = [0, 0, 0, 0, 0, 0, 1, 0, 0, 0, 0, 0, 1, 0\n0, 0, 4, 0]"] ;
731 -> 732 ;
733 [label="gini = 0.0\nsamples = 1\nvalue = [0, 0, 0, 0, 0, 0, 0, 0, 0, 0, 0, 0, 1, 0\n0, 0, 0, 0]"] ;
732 -> 733 ;
734 [label="Defense <= 125.5\ngini = 0.32\nsamples = 5\nvalue = [0, 0, 0, 0, 0, 0, 1, 0, 0, 0, 0, 0, 0, 0\n0, 0, 4, 0]"] ;
732 -> 734 ;
735 [label="gini = 0.0\nsamples = 4\nvalue = [0, 0, 0, 0, 0, 0, 0, 0, 0, 0, 0, 0, 0, 0\n0, 0, 4, 0]"] ;
734 -> 735 ;
736 [label="gini = 0.0\nsamples = 1\nvalue = [0, 0, 0, 0, 0, 0, 1, 0, 0, 0, 0, 0, 0, 0\n0, 0, 0, 0]"] ;
734 -> 736 ;
737 [label="HP <= 62.5\ngini = 0.5\nsamples = 2\nvalue = [0, 0, 0, 0, 0, 0, 0, 0, 0, 0, 1, 0, 0, 1\n0, 0, 0, 0]"] ;
731 -> 737 ;
738 [label="gini = 0.0\nsamples = 1\nvalue = [0, 0, 0, 0, 0, 0, 0, 0, 0, 0, 1, 0, 0, 0\n0, 0, 0, 0]"] ;
737 -> 738 ;
739 [label="gini = 0.0\nsamples = 1\nvalue = [0, 0, 0, 0, 0, 0, 0, 0, 0, 0, 0, 0, 0, 1\n0, 0, 0, 0]"] ;
737 -> 739 ;
740 [label="Speed <= 42.5\ngini = 0.833\nsamples = 6\nvalue = [1, 0, 1, 0, 0, 0, 0, 1, 0, 1, 0, 1, 0, 0\n0, 0, 0, 1]"] ;
730 -> 740 ;
741 [label="gini = 0.0\nsamples = 1\nvalue = [1, 0, 0, 0, 0, 0, 0, 0, 0, 0, 0, 0, 0, 0\n0, 0, 0, 0]"] ;
740 -> 741 ;
742 [label="Sp. Def <= 92.5\ngini = 0.8\nsamples = 5\nvalue = [0, 0, 1, 0, 0, 0, 0, 1, 0, 1, 0, 1, 0, 0\n0, 0, 0, 1]"] ;
740 -> 742 ;
743 [label="gini = 0.0\nsamples = 1\nvalue = [0, 0, 0, 0, 0, 0, 0, 0, 0, 1, 0, 0, 0, 0\n0, 0, 0, 0]"] ;
742 -> 743 ;
744 [label="HP <= 69.0\ngini = 0.75\nsamples = 4\nvalue = [0, 0, 1, 0, 0, 0, 0, 1, 0, 0, 0, 1, 0, 0\n0, 0, 0, 1]"] ;
742 -> 744 ;
745 [label="gini = 0.0\nsamples = 1\nvalue = [0, 0, 1, 0, 0, 0, 0, 0, 0, 0, 0, 0, 0, 0\n0, 0, 0, 0]"] ;
744 -> 745 ;
746 [label="HP <= 70.5\ngini = 0.667\nsamples = 3\nvalue = [0, 0, 0, 0, 0, 0, 0, 1, 0, 0, 0, 1, 0, 0\n0, 0, 0, 1]"] ;
744 -> 746 ;
747 [label="Sp. Atk <= 90.0\ngini = 0.5\nsamples = 2\nvalue = [0, 0, 0, 0, 0, 0, 0, 1, 0, 0, 0, 0, 0, 0\n0, 0, 0, 1]"] ;
746 -> 747 ;
748 [label="gini = 0.0\nsamples = 1\nvalue = [0, 0, 0, 0, 0, 0, 0, 1, 0, 0, 0, 0, 0, 0\n0, 0, 0, 0]"] ;
747 -> 748 ;
749 [label="gini = 0.0\nsamples = 1\nvalue = [0, 0, 0, 0, 0, 0, 0, 0, 0, 0, 0, 0, 0, 0\n0, 0, 0, 1]"] ;
747 -> 749 ;
750 [label="gini = 0.0\nsamples = 1\nvalue = [0, 0, 0, 0, 0, 0, 0, 0, 0, 0, 0, 1, 0, 0\n0, 0, 0, 0]"] ;
746 -> 750 ;
751 [label="Speed <= 59.5\ngini = 0.85\nsamples = 125\nvalue = [0, 3, 6, 3, 4, 0, 3, 0, 3, 20, 3, 6, 15, 10\n4, 4, 3, 38]"] ;
647 -> 751 ;
752 [label="HP <= 124.0\ngini = 0.87\nsamples = 49\nvalue = [0, 1, 0, 2, 1, 0, 1, 0, 2, 10, 3, 2, 9, 5\n0, 4, 1, 8]"] ;
751 -> 752 ;
753 [label="HP <= 79.0\ngini = 0.871\nsamples = 43\nvalue = [0, 0, 0, 2, 1, 0, 1, 0, 2, 10, 3, 2, 5, 5\n0, 4, 1, 7]"] ;
752 -> 753 ;
754 [label="Attack <= 102.5\ngini = 0.617\nsamples = 9\nvalue = [0, 0, 0, 0, 0, 0, 0, 0, 0, 5, 0, 1, 0, 0\n0, 1, 0, 2]"] ;
753 -> 754 ;
755 [label="Sp. Atk <= 68.5\ngini = 0.449\nsamples = 7\nvalue = [0, 0, 0, 0, 0, 0, 0, 0, 0, 5, 0, 1, 0, 0\n0, 1, 0, 0]"] ;
754 -> 755 ;
756 [label="HP <= 76.0\ngini = 0.5\nsamples = 2\nvalue = [0, 0, 0, 0, 0, 0, 0, 0, 0, 0, 0, 1, 0, 0\n0, 1, 0, 0]"] ;
755 -> 756 ;
757 [label="gini = 0.0\nsamples = 1\nvalue = [0, 0, 0, 0, 0, 0, 0, 0, 0, 0, 0, 1, 0, 0\n0, 0, 0, 0]"] ;
756 -> 757 ;
758 [label="gini = 0.0\nsamples = 1\nvalue = [0, 0, 0, 0, 0, 0, 0, 0, 0, 0, 0, 0, 0, 0\n0, 1, 0, 0]"] ;
756 -> 758 ;
759 [label="gini = 0.0\nsamples = 5\nvalue = [0, 0, 0, 0, 0, 0, 0, 0, 0, 5, 0, 0, 0, 0\n0, 0, 0, 0]"] ;
755 -> 759 ;
760 [label="gini = 0.0\nsamples = 2\nvalue = [0, 0, 0, 0, 0, 0, 0, 0, 0, 0, 0, 0, 0, 0\n0, 0, 0, 2]"] ;
754 -> 760 ;
761 [label="HP <= 85.5\ngini = 0.888\nsamples = 34\nvalue = [0, 0, 0, 2, 1, 0, 1, 0, 2, 5, 3, 1, 5, 5\n0, 3, 1, 5]"] ;
753 -> 761 ;
762 [label="HP <= 84.5\ngini = 0.625\nsamples = 4\nvalue = [0, 0, 0, 0, 0, 0, 0, 0, 2, 0, 0, 0, 1, 0\n0, 0, 1, 0]"] ;
761 -> 762 ;
763 [label="Sp. Def <= 96.5\ngini = 0.5\nsamples = 2\nvalue = [0, 0, 0, 0, 0, 0, 0, 0, 0, 0, 0, 0, 1, 0\n0, 0, 1, 0]"] ;
762 -> 763 ;
764 [label="gini = 0.0\nsamples = 1\nvalue = [0, 0, 0, 0, 0, 0, 0, 0, 0, 0, 0, 0, 1, 0\n0, 0, 0, 0]"] ;
763 -> 764 ;
765 [label="gini = 0.0\nsamples = 1\nvalue = [0, 0, 0, 0, 0, 0, 0, 0, 0, 0, 0, 0, 0, 0\n0, 0, 1, 0]"] ;
763 -> 765 ;
766 [label="gini = 0.0\nsamples = 2\nvalue = [0, 0, 0, 0, 0, 0, 0, 0, 2, 0, 0, 0, 0, 0\n0, 0, 0, 0]"] ;
762 -> 766 ;
767 [label="Sp. Def <= 89.5\ngini = 0.871\nsamples = 30\nvalue = [0, 0, 0, 2, 1, 0, 1, 0, 0, 5, 3, 1, 4, 5\n0, 3, 0, 5]"] ;
761 -> 767 ;
768 [label="Sp. Atk <= 71.0\ngini = 0.846\nsamples = 18\nvalue = [0, 0, 0, 2, 1, 0, 1, 0, 0, 5, 2, 1, 1, 2\n0, 0, 0, 3]"] ;
767 -> 768 ;
769 [label="Sp. Def <= 68.5\ngini = 0.72\nsamples = 5\nvalue = [0, 0, 0, 0, 0, 0, 1, 0, 0, 0, 2, 0, 1, 0\n0, 0, 0, 1]"] ;
768 -> 769 ;
770 [label="HP <= 92.5\ngini = 0.667\nsamples = 3\nvalue = [0, 0, 0, 0, 0, 0, 1, 0, 0, 0, 0, 0, 1, 0\n0, 0, 0, 1]"] ;
769 -> 770 ;
771 [label="gini = 0.0\nsamples = 1\nvalue = [0, 0, 0, 0, 0, 0, 1, 0, 0, 0, 0, 0, 0, 0\n0, 0, 0, 0]"] ;
770 -> 771 ;
772 [label="HP <= 97.5\ngini = 0.5\nsamples = 2\nvalue = [0, 0, 0, 0, 0, 0, 0, 0, 0, 0, 0, 0, 1, 0\n0, 0, 0, 1]"] ;
770 -> 772 ;
773 [label="gini = 0.0\nsamples = 1\nvalue = [0, 0, 0, 0, 0, 0, 0, 0, 0, 0, 0, 0, 0, 0\n0, 0, 0, 1]"] ;
772 -> 773 ;
774 [label="gini = 0.0\nsamples = 1\nvalue = [0, 0, 0, 0, 0, 0, 0, 0, 0, 0, 0, 0, 1, 0\n0, 0, 0, 0]"] ;
772 -> 774 ;
775 [label="gini = 0.0\nsamples = 2\nvalue = [0, 0, 0, 0, 0, 0, 0, 0, 0, 0, 2, 0, 0, 0\n0, 0, 0, 0]"] ;
769 -> 775 ;
776 [label="Attack <= 84.0\ngini = 0.769\nsamples = 13\nvalue = [0, 0, 0, 2, 1, 0, 0, 0, 0, 5, 0, 1, 0, 2\n0, 0, 0, 2]"] ;
768 -> 776 ;
777 [label="Attack <= 74.0\ngini = 0.816\nsamples = 7\nvalue = [0, 0, 0, 1, 1, 0, 0, 0, 0, 1, 0, 1, 0, 1\n0, 0, 0, 2]"] ;
776 -> 777 ;
778 [label="Speed <= 37.0\ngini = 0.8\nsamples = 5\nvalue = [0, 0, 0, 1, 1, 0, 0, 0, 0, 1, 0, 1, 0, 1\n0, 0, 0, 0]"] ;
777 -> 778 ;
779 [label="gini = 0.0\nsamples = 1\nvalue = [0, 0, 0, 0, 1, 0, 0, 0, 0, 0, 0, 0, 0, 0\n0, 0, 0, 0]"] ;
778 -> 779 ;
780 [label="gini = 0.75\nsamples = 4\nvalue = [0, 0, 0, 1, 0, 0, 0, 0, 0, 1, 0, 1, 0, 1\n0, 0, 0, 0]"] ;
778 -> 780 ;
781 [label="gini = 0.0\nsamples = 2\nvalue = [0, 0, 0, 0, 0, 0, 0, 0, 0, 0, 0, 0, 0, 0\n0, 0, 0, 2]"] ;
777 -> 781 ;
782 [label="HP <= 92.5\ngini = 0.5\nsamples = 6\nvalue = [0, 0, 0, 1, 0, 0, 0, 0, 0, 4, 0, 0, 0, 1\n0, 0, 0, 0]"] ;
776 -> 782 ;
783 [label="gini = 0.0\nsamples = 1\nvalue = [0, 0, 0, 1, 0, 0, 0, 0, 0, 0, 0, 0, 0, 0\n0, 0, 0, 0]"] ;
782 -> 783 ;
784 [label="HP <= 97.5\ngini = 0.32\nsamples = 5\nvalue = [0, 0, 0, 0, 0, 0, 0, 0, 0, 4, 0, 0, 0, 1\n0, 0, 0, 0]"] ;
782 -> 784 ;
785 [label="gini = 0.5\nsamples = 2\nvalue = [0, 0, 0, 0, 0, 0, 0, 0, 0, 1, 0, 0, 0, 1\n0, 0, 0, 0]"] ;
784 -> 785 ;
786 [label="gini = 0.0\nsamples = 3\nvalue = [0, 0, 0, 0, 0, 0, 0, 0, 0, 3, 0, 0, 0, 0\n0, 0, 0, 0]"] ;
784 -> 786 ;
787 [label="Attack <= 100.0\ngini = 0.778\nsamples = 12\nvalue = [0, 0, 0, 0, 0, 0, 0, 0, 0, 0, 1, 0, 3, 3\n0, 3, 0, 2]"] ;
767 -> 787 ;
788 [label="Speed <= 46.5\ngini = 0.76\nsamples = 10\nvalue = [0, 0, 0, 0, 0, 0, 0, 0, 0, 0, 1, 0, 3, 1\n0, 3, 0, 2]"] ;
787 -> 788 ;
789 [label="Defense <= 90.5\ngini = 0.72\nsamples = 5\nvalue = [0, 0, 0, 0, 0, 0, 0, 0, 0, 0, 1, 0, 0, 1\n0, 2, 0, 1]"] ;
788 -> 789 ;
790 [label="Sp. Def <= 104.5\ngini = 0.667\nsamples = 3\nvalue = [0, 0, 0, 0, 0, 0, 0, 0, 0, 0, 1, 0, 0, 1\n0, 0, 0, 1]"] ;
789 -> 790 ;
791 [label="gini = 0.0\nsamples = 1\nvalue = [0, 0, 0, 0, 0, 0, 0, 0, 0, 0, 1, 0, 0, 0\n0, 0, 0, 0]"] ;
790 -> 791 ;
792 [label="gini = 0.5\nsamples = 2\nvalue = [0, 0, 0, 0, 0, 0, 0, 0, 0, 0, 0, 0, 0, 1\n0, 0, 0, 1]"] ;
790 -> 792 ;
