digraph Tree {
node [shape=box, style="filled, rounded", color="black", fontname="helvetica"] ;
edge [fontname="helvetica"] ;
0 [label="Sp. Atk <= 60.5\ngini = 0.93\nsamples = 1190\nvalue = [91, 56, 47, 73, 31, 49, 75, 10, 47, 104, 46, 43\n131, 46, 82, 67, 43, 149]\nclass = Bug", fillcolor="#fffcfc"] ;
1 [label="Defense <= 99.5\ngini = 0.918\nsamples = 525\nvalue = [65, 27, 16, 16, 11, 31, 16, 5, 16, 39, 33, 17\n85, 22, 11, 40, 23, 52]\nclass = Water", fillcolor="#faf6fe"] ;
0 -> 1 [labeldistance=2.5, labelangle=45, headlabel="True"] ;
2 [label="HP <= 81.0\ngini = 0.909\nsamples = 430\nvalue = [55, 20, 15, 16, 10, 27, 15, 4, 10, 36, 22, 14\n82, 20, 10, 18, 9, 47]\nclass = Water", fillcolor="#f6f1fd"] ;
1 -> 2 ;
3 [label="Sp. Atk <= 29.5\ngini = 0.913\nsamples = 375\nvalue = [55, 20, 13, 16, 9, 21, 14, 4, 9, 35, 19, 9, 59\n19, 7, 16, 9, 41]\nclass = Water", fillcolor="#fdfdff"] ;
2 -> 3 ;
4 [label="Attack <= 48.0\ngini = 0.765\nsamples = 41\nvalue = [18, 1, 0, 0, 0, 2, 1, 0, 0, 1, 1, 2, 4, 1\n1, 2, 1, 6]\nclass = Grass", fillcolor="#f6d4bb"] ;
3 -> 4 ;
5 [label="Attack <= 21.0\ngini = 0.56\nsamples = 27\nvalue = [17, 0, 0, 0, 0, 0, 0, 0, 0, 0, 0, 0, 2, 1\n1, 0, 1, 5]\nclass = Grass", fillcolor="#f1ba93"] ;
4 -> 5 ;
6 [label="gini = 0.625\nsamples = 8\nvalue = [2, 0, 0, 0, 0, 0, 0, 0, 0, 0, 0, 0, 2, 0\n0, 0, 0, 4]\nclass = Bug", fillcolor="#f6c2bd"] ;
5 -> 6 ;
7 [label="gini = 0.366\nsamples = 19\nvalue = [15, 0, 0, 0, 0, 0, 0, 0, 0, 0, 0, 0, 0, 1\n1, 0, 1, 1]\nclass = Grass", fillcolor="#eb9d65"] ;
5 -> 7 ;
8 [label="Speed <= 37.5\ngini = 0.888\nsamples = 14\nvalue = [1, 1, 0, 0, 0, 2, 1, 0, 0, 1, 1, 2, 2, 0\n0, 2, 0, 1]\nclass = Fire", fillcolor="#ffffff"] ;
4 -> 8 ;
9 [label="gini = 0.64\nsamples = 5\nvalue = [0, 0, 0, 0, 0, 2, 0, 0, 0, 1, 0, 0, 0, 0\n0, 2, 0, 0]\nclass = Fire", fillcolor="#ffffff"] ;
8 -> 9 ;
10 [label="gini = 0.84\nsamples = 9\nvalue = [1, 1, 0, 0, 0, 0, 1, 0, 0, 0, 1, 2, 2, 0\n0, 0, 0, 1]\nclass = Water", fillcolor="#ffffff"] ;
8 -> 10 ;
11 [label="Defense <= 69.5\ngini = 0.917\nsamples = 334\nvalue = [37, 19, 13, 16, 9, 19, 13, 4, 9, 34, 18, 7, 55\n18, 6, 14, 8, 35]\nclass = Water", fillcolor="#f7f3fd"] ;
3 -> 11 ;
12 [label="Sp. Atk <= 37.5\ngini = 0.91\nsamples = 250\nvalue = [18, 12, 10, 15, 8, 14, 12, 3, 2, 24, 12, 6, 48\n15, 6, 10, 4, 31]\nclass = Water", fillcolor="#f5f0fd"] ;
11 -> 12 ;
13 [label="gini = 0.839\nsamples = 58\nvalue = [4, 4, 2, 1, 1, 6, 0, 1, 1, 5, 5, 1, 20, 1\n0, 3, 1, 2]\nclass = Water", fillcolor="#ddcaf8"] ;
12 -> 13 ;
14 [label="gini = 0.915\nsamples = 192\nvalue = [14, 8, 8, 14, 7, 8, 12, 2, 1, 19, 7, 5, 28\n14, 6, 7, 3, 29]\nclass = Bug", fillcolor="#fffefe"] ;
12 -> 14 ;
15 [label="Speed <= 87.5\ngini = 0.895\nsamples = 84\nvalue = [19, 7, 3, 1, 1, 5, 1, 1, 7, 10, 6, 1, 7, 3\n0, 4, 4, 4]\nclass = Grass", fillcolor="#fcf0e7"] ;
11 -> 15 ;
16 [label="gini = 0.89\nsamples = 69\nvalue = [16, 7, 2, 0, 1, 5, 1, 1, 6, 8, 6, 1, 1, 3\n0, 4, 3, 4]\nclass = Grass", fillcolor="#fceee5"] ;
15 -> 16 ;
17 [label="gini = 0.764\nsamples = 15\nvalue = [3, 0, 1, 1, 0, 0, 0, 0, 1, 2, 0, 0, 6, 0\n0, 0, 1, 0]\nclass = Water", fillcolor="#e0cef8"] ;
15 -> 17 ;
18 [label="Attack <= 111.5\ngini = 0.783\nsamples = 55\nvalue = [0, 0, 2, 0, 1, 6, 1, 0, 1, 1, 3, 5, 23, 1\n3, 2, 0, 6]\nclass = Water", fillcolor="#d3baf6"] ;
2 -> 18 ;
19 [label="Sp. Def <= 50.5\ngini = 0.662\nsamples = 36\nvalue = [0, 0, 1, 0, 0, 2, 0, 0, 1, 0, 1, 2, 20, 1\n3, 1, 0, 4]\nclass = Water", fillcolor="#c09cf2"] ;
18 -> 19 ;
20 [label="Attack <= 62.5\ngini = 0.84\nsamples = 10\nvalue = [0, 0, 0, 0, 0, 1, 0, 0, 1, 0, 1, 1, 2, 0\n2, 0, 0, 2]\nclass = Water", fillcolor="#ffffff"] ;
19 -> 20 ;
21 [label="gini = 0.72\nsamples = 5\nvalue = [0, 0, 0, 0, 0, 0, 0, 0, 1, 0, 1, 0, 2, 0\n1, 0, 0, 0]\nclass = Water", fillcolor="#e0cef8"] ;
20 -> 21 ;
22 [label="gini = 0.72\nsamples = 5\nvalue = [0, 0, 0, 0, 0, 1, 0, 0, 0, 0, 0, 1, 0, 0\n1, 0, 0, 2]\nclass = Bug", fillcolor="#f8d1ce"] ;
20 -> 22 ;
23 [label="HP <= 89.0\ngini = 0.506\nsamples = 26\nvalue = [0, 0, 1, 0, 0, 1, 0, 0, 0, 0, 0, 1, 18, 1\n1, 1, 0, 2]\nclass = Water", fillcolor="#ab7bee"] ;
19 -> 23 ;
24 [label="gini = 0.0\nsamples = 8\nvalue = [0, 0, 0, 0, 0, 0, 0, 0, 0, 0, 0, 0, 8, 0\n0, 0, 0, 0]\nclass = Water", fillcolor="#8139e5"] ;
23 -> 24 ;
25 [label="gini = 0.66\nsamples = 18\nvalue = [0, 0, 1, 0, 0, 1, 0, 0, 0, 0, 0, 1, 10, 1\n1, 1, 0, 2]\nclass = Water", fillcolor="#c09cf2"] ;
23 -> 25 ;
26 [label="Sp. Atk <= 46.5\ngini = 0.87\nsamples = 19\nvalue = [0, 0, 1, 0, 1, 4, 1, 0, 0, 1, 2, 3, 3, 0\n0, 1, 0, 2]\nclass = Fire", fillcolor="#f3fdf4"] ;
18 -> 26 ;
27 [label="gini = 0.611\nsamples = 6\nvalue = [0, 0, 0, 0, 0, 2, 1, 0, 0, 0, 0, 3, 0, 0\n0, 0, 0, 0]\nclass = Water", fillcolor="#d1cef8"] ;
26 -> 27 ;
28 [label="HP <= 97.5\ngini = 0.852\nsamples = 13\nvalue = [0, 0, 1, 0, 1, 2, 0, 0, 0, 1, 2, 0, 3, 0\n0, 1, 0, 2]\nclass = Water", fillcolor="#f4edfd"] ;
26 -> 28 ;
29 [label="gini = 0.778\nsamples = 6\nvalue = [0, 0, 0, 0, 1, 0, 0, 0, 0, 0, 1, 0, 1, 0\n0, 1, 0, 2]\nclass = Bug", fillcolor="#fadad7"] ;
28 -> 29 ;
30 [label="gini = 0.776\nsamples = 7\nvalue = [0, 0, 1, 0, 0, 2, 0, 0, 0, 1, 1, 0, 2, 0\n0, 0, 0, 0]\nclass = Fire", fillcolor="#ffffff"] ;
28 -> 30 ;
31 [label="HP <= 87.5\ngini = 0.882\nsamples = 95\nvalue = [10, 7, 1, 0, 1, 4, 1, 1, 6, 3, 11, 3, 3, 2\n1, 22, 14, 5]\nclass = Bug", fillcolor="#fcebf5"] ;
1 -> 31 ;
32 [label="Speed <= 79.5\ngini = 0.856\nsamples = 74\nvalue = [9, 2, 1, 0, 1, 3, 1, 0, 6, 3, 5, 1, 1, 2\n1, 20, 14, 4]\nclass = Bug", fillcolor="#fcebf5"] ;
31 -> 32 ;
33 [label="Defense <= 137.5\ngini = 0.807\nsamples = 60\nvalue = [7, 2, 1, 0, 0, 0, 1, 0, 4, 1, 3, 1, 0, 1\n1, 20, 14, 4]\nclass = Bug", fillcolor="#fce5f2"] ;
32 -> 33 ;
34 [label="Sp. Def <= 67.5\ngini = 0.815\nsamples = 41\nvalue = [4, 2, 1, 0, 0, 0, 1, 0, 4, 1, 2, 1, 0, 0\n1, 15, 5, 4]\nclass = Bug", fillcolor="#f8c8e4"] ;
33 -> 34 ;
35 [label="gini = 0.665\nsamples = 19\nvalue = [0, 0, 1, 0, 0, 0, 0, 0, 0, 0, 1, 1, 0, 0\n0, 10, 3, 3]\nclass = Bug", fillcolor="#f4a8d4"] ;
34 -> 35 ;
36 [label="gini = 0.855\nsamples = 22\nvalue = [4, 2, 0, 0, 0, 0, 1, 0, 4, 1, 1, 0, 0, 0\n1, 5, 2, 1]\nclass = Bug", fillcolor="#fef4fa"] ;
34 -> 36 ;
37 [label="Sp. Def <= 97.5\ngini = 0.676\nsamples = 19\nvalue = [3, 0, 0, 0, 0, 0, 0, 0, 0, 0, 1, 0, 0, 1\n0, 5, 9, 0]\nclass = Bug", fillcolor="#f8c6d3"] ;
33 -> 37 ;
38 [label="gini = 0.43\nsamples = 11\nvalue = [2, 0, 0, 0, 0, 0, 0, 0, 0, 0, 0, 0, 0, 0\n0, 1, 8, 0]\nclass = Bug", fillcolor="#ee7b98"] ;
37 -> 38 ;
39 [label="gini = 0.688\nsamples = 8\nvalue = [1, 0, 0, 0, 0, 0, 0, 0, 0, 0, 1, 0, 0, 1\n0, 4, 1, 0]\nclass = Bug", fillcolor="#f4aad5"] ;
37 -> 39 ;
40 [label="Sp. Atk <= 46.5\ngini = 0.857\nsamples = 14\nvalue = [2, 0, 0, 0, 1, 3, 0, 0, 2, 2, 2, 0, 1, 1\n0, 0, 0, 0]\nclass = Fire", fillcolor="#eefdf0"] ;
32 -> 40 ;
41 [label="gini = 0.48\nsamples = 5\nvalue = [0, 0, 0, 0, 0, 3, 0, 0, 0, 0, 2, 0, 0, 0\n0, 0, 0, 0]\nclass = Fire", fillcolor="#bdf6c2"] ;
40 -> 41 ;
42 [label="gini = 0.815\nsamples = 9\nvalue = [2, 0, 0, 0, 1, 0, 0, 0, 2, 2, 0, 0, 1, 1\n0, 0, 0, 0]\nclass = Grass", fillcolor="#ffffff"] ;
40 -> 42 ;
43 [label="Attack <= 113.5\ngini = 0.825\nsamples = 21\nvalue = [1, 5, 0, 0, 0, 1, 0, 1, 0, 0, 6, 2, 2, 0\n0, 2, 0, 1]\nclass = Water", fillcolor="#f3f5fd"] ;
31 -> 43 ;
44 [label="gini = 0.688\nsamples = 8\nvalue = [0, 4, 0, 0, 0, 0, 0, 1, 0, 0, 0, 0, 1, 0\n0, 1, 0, 1]\nclass = Grass", fillcolor="#f4e1aa"] ;
43 -> 44 ;
45 [label="Defense <= 130.5\ngini = 0.734\nsamples = 13\nvalue = [1, 1, 0, 0, 0, 1, 0, 0, 0, 0, 6, 2, 1, 0\n0, 1, 0, 0]\nclass = Water", fillcolor="#b7c7f6"] ;
43 -> 45 ;
46 [label="gini = 0.562\nsamples = 8\nvalue = [0, 1, 0, 0, 0, 1, 0, 0, 0, 0, 5, 0, 1, 0\n0, 0, 0, 0]\nclass = Water", fillcolor="#8ea6f0"] ;
45 -> 46 ;
47 [label="gini = 0.72\nsamples = 5\nvalue = [1, 0, 0, 0, 0, 0, 0, 0, 0, 0, 1, 2, 0, 0\n0, 1, 0, 0]\nclass = Water", fillcolor="#d1cef8"] ;
45 -> 47 ;
48 [label="Speed <= 85.5\ngini = 0.923\nsamples = 665\nvalue = [26, 29, 31, 57, 20, 18, 59, 5, 31, 65, 13, 26\n46, 24, 71, 27, 20, 97]\nclass = Bug", fillcolor="#fef7f6"] ;
0 -> 48 [labeldistance=2.5, labelangle=-45, headlabel="False"] ;
49 [label="Attack <= 55.5\ngini = 0.91\nsamples = 389\nvalue = [13, 13, 11, 19, 12, 6, 34, 1, 22, 52, 5, 18\n26, 17, 34, 20, 14, 72]\nclass = Bug", fillcolor="#fdf4f3"] ;
48 -> 49 ;
50 [label="HP <= 61.0\ngini = 0.883\nsamples = 81\nvalue = [3, 0, 1, 5, 5, 0, 7, 0, 10, 10, 0, 4, 2, 1\n17, 5, 0, 11]\nclass = Bug", fillcolor="#fdeefc"] ;
49 -> 50 ;
51 [label="Speed <= 34.0\ngini = 0.869\nsamples = 55\nvalue = [1, 0, 0, 4, 3, 0, 3, 0, 10, 9, 0, 3, 0, 1\n9, 3, 0, 9]\nclass = Fire", fillcolor="#fbfefe"] ;
50 -> 51 ;
52 [label="Defense <= 65.0\ngini = 0.704\nsamples = 14\nvalue = [0, 0, 0, 0, 0, 0, 2, 0, 5, 5, 0, 0, 0, 0\n2, 0, 0, 0]\nclass = Fire", fillcolor="#ffffff"] ;
51 -> 52 ;
53 [label="gini = 0.656\nsamples = 8\nvalue = [0, 0, 0, 0, 0, 0, 1, 0, 1, 4, 0, 0, 0, 0\n2, 0, 0, 0]\nclass = Water", fillcolor="#bddef6"] ;
52 -> 53 ;
54 [label="gini = 0.5\nsamples = 6\nvalue = [0, 0, 0, 0, 0, 0, 1, 0, 4, 1, 0, 0, 0, 0\n0, 0, 0, 0]\nclass = Fire", fillcolor="#88e7ef"] ;
52 -> 54 ;
55 [label="Sp. Atk <= 70.5\ngini = 0.871\nsamples = 41\nvalue = [1, 0, 0, 4, 3, 0, 1, 0, 5, 4, 0, 3, 0, 1\n7, 3, 0, 9]\nclass = Bug", fillcolor="#fdf4f3"] ;
51 -> 55 ;
56 [label="gini = 0.786\nsamples = 23\nvalue = [0, 0, 0, 3, 1, 0, 1, 0, 0, 3, 0, 2, 0, 0\n5, 0, 0, 8]\nclass = Bug", fillcolor="#fbe0de"] ;
55 -> 56 ;
57 [label="gini = 0.852\nsamples = 18\nvalue = [1, 0, 0, 1, 2, 0, 0, 0, 5, 1, 0, 1, 0, 1\n2, 3, 0, 1]\nclass = Fire", fillcolor="#e5fafc"] ;
55 -> 57 ;
58 [label="Sp. Def <= 59.0\ngini = 0.846\nsamples = 26\nvalue = [2, 0, 1, 1, 2, 0, 4, 0, 0, 1, 0, 1, 2, 0\n8, 2, 0, 2]\nclass = Bug", fillcolor="#fadbf8"] ;
50 -> 58 ;
59 [label="gini = 0.56\nsamples = 5\nvalue = [0, 0, 0, 0, 0, 0, 3, 0, 0, 1, 0, 0, 0, 0\n1, 0, 0, 0]\nclass = Fire", fillcolor="#9cf2c0"] ;
58 -> 59 ;
60 [label="Sp. Atk <= 88.0\ngini = 0.834\nsamples = 21\nvalue = [2, 0, 1, 1, 2, 0, 1, 0, 0, 0, 0, 1, 2, 0\n7, 2, 0, 2]\nclass = Bug", fillcolor="#f8cbf4"] ;
58 -> 60 ;
61 [label="gini = 0.84\nsamples = 9\nvalue = [1, 0, 0, 1, 1, 0, 0, 0, 0, 0, 0, 0, 2, 0\n1, 1, 0, 2]\nclass = Water", fillcolor="#ffffff"] ;
60 -> 61 ;
62 [label="gini = 0.708\nsamples = 12\nvalue = [1, 0, 1, 0, 1, 0, 1, 0, 0, 0, 0, 1, 0, 0\n6, 1, 0, 0]\nclass = Bug", fillcolor="#f3a5ed"] ;
60 -> 62 ;
63 [label="Sp. Atk <= 111.5\ngini = 0.908\nsamples = 308\nvalue = [10, 13, 10, 14, 7, 6, 27, 1, 12, 42, 5, 14, 24\n16, 17, 15, 14, 61]\nclass = Bug", fillcolor="#fdf2f1"] ;
49 -> 63 ;
64 [label="Attack <= 113.5\ngini = 0.902\nsamples = 261\nvalue = [9, 13, 10, 7, 5, 6, 22, 1, 10, 36, 5, 12, 23\n16, 7, 14, 10, 55]\nclass = Bug", fillcolor="#fdefee"] ;
63 -> 64 ;
65 [label="HP <= 72.5\ngini = 0.887\nsamples = 215\nvalue = [7, 9, 9, 5, 5, 1, 17, 1, 7, 34, 5, 9, 20, 16\n5, 7, 7, 51]\nclass = Bug", fillcolor="#fdeeec"] ;
64 -> 65 ;
66 [label="gini = 0.904\nsamples = 90\nvalue = [7, 6, 3, 2, 1, 1, 14, 1, 4, 14, 2, 3, 5, 6\n1, 3, 4, 13]\nclass = Fire", fillcolor="#ffffff"] ;
65 -> 66 ;
67 [label="gini = 0.85\nsamples = 125\nvalue = [0, 3, 6, 3, 4, 0, 3, 0, 3, 20, 3, 6, 15, 10\n4, 4, 3, 38]\nclass = Bug", fillcolor="#fbdfdd"] ;
65 -> 67 ;
68 [label="Sp. Atk <= 72.5\ngini = 0.913\nsamples = 46\nvalue = [2, 4, 1, 2, 0, 5, 5, 0, 3, 2, 0, 3, 3, 0\n2, 7, 3, 4]\nclass = Bug", fillcolor="#fef5fa"] ;
64 -> 68 ;
69 [label="gini = 0.782\nsamples = 17\nvalue = [1, 1, 0, 0, 0, 5, 0, 0, 0, 0, 0, 3, 0, 0\n1, 5, 0, 1]\nclass = Fire", fillcolor="#ffffff"] ;
68 -> 69 ;
70 [label="gini = 0.899\nsamples = 29\nvalue = [1, 3, 1, 2, 0, 0, 5, 0, 3, 2, 0, 0, 3, 0\n1, 2, 3, 3]\nclass = Fire", fillcolor="#f0fdf5"] ;
68 -> 70 ;
71 [label="HP <= 96.0\ngini = 0.875\nsamples = 47\nvalue = [1, 0, 0, 7, 2, 0, 5, 0, 2, 6, 0, 2, 1, 0\n10, 1, 4, 6]\nclass = Bug", fillcolor="#fdf0fc"] ;
63 -> 71 ;
72 [label="Sp. Def <= 73.0\ngini = 0.885\nsamples = 42\nvalue = [1, 0, 0, 7, 2, 0, 5, 0, 2, 6, 0, 2, 1, 0\n5, 1, 4, 6]\nclass = Grass", fillcolor="#fcfefa"] ;
71 -> 72 ;
73 [label="gini = 0.656\nsamples = 8\nvalue = [0, 0, 0, 4, 0, 0, 0, 0, 0, 1, 0, 0, 0, 0\n0, 1, 2, 0]\nclass = Grass", fillcolor="#def6bd"] ;
72 -> 73 ;
74 [label="gini = 0.881\nsamples = 34\nvalue = [1, 0, 0, 3, 2, 0, 5, 0, 2, 5, 0, 2, 1, 0\n5, 0, 2, 6]\nclass = Bug", fillcolor="#fef9f8"] ;
72 -> 74 ;
75 [label="gini = 0.0\nsamples = 5\nvalue = [0, 0, 0, 0, 0, 0, 0, 0, 0, 0, 0, 0, 0, 0\n5, 0, 0, 0]\nclass = Bug", fillcolor="#e539d7"] ;
71 -> 75 ;
76 [label="Attack <= 116.5\ngini = 0.921\nsamples = 276\nvalue = [13, 16, 20, 38, 8, 12, 25, 4, 9, 13, 8, 8, 20\n7, 37, 7, 6, 25]\nclass = Grass", fillcolor="#fffffe"] ;
48 -> 76 ;
77 [label="Sp. Atk <= 67.0\ngini = 0.907\nsamples = 206\nvalue = [10, 12, 6, 37, 4, 3, 21, 4, 8, 13, 3, 7, 16\n7, 29, 3, 4, 19]\nclass = Grass", fillcolor="#fbfef6"] ;
76 -> 77 ;
78 [label="Speed <= 97.5\ngini = 0.711\nsamples = 16\nvalue = [0, 0, 1, 1, 1, 0, 2, 0, 0, 0, 0, 1, 8, 1\n1, 0, 0, 0]\nclass = Water", fillcolor="#c9aaf4"] ;
77 -> 78 ;
79 [label="gini = 0.8\nsamples = 5\nvalue = [0, 0, 0, 1, 0, 0, 1, 0, 0, 0, 0, 0, 1, 1\n1, 0, 0, 0]\nclass = Grass", fillcolor="#ffffff"] ;
78 -> 79 ;
80 [label="Defense <= 67.5\ngini = 0.562\nsamples = 11\nvalue = [0, 0, 1, 0, 1, 0, 1, 0, 0, 0, 0, 1, 7, 0\n0, 0, 0, 0]\nclass = Water", fillcolor="#b388ef"] ;
78 -> 80 ;
81 [label="gini = 0.0\nsamples = 5\nvalue = [0, 0, 0, 0, 0, 0, 0, 0, 0, 0, 0, 0, 5, 0\n0, 0, 0, 0]\nclass = Water", fillcolor="#8139e5"] ;
80 -> 81 ;
82 [label="gini = 0.778\nsamples = 6\nvalue = [0, 0, 1, 0, 1, 0, 1, 0, 0, 0, 0, 1, 2, 0\n0, 0, 0, 0]\nclass = Water", fillcolor="#e6d7fa"] ;
80 -> 82 ;
83 [label="Speed <= 87.5\ngini = 0.903\nsamples = 190\nvalue = [10, 12, 5, 36, 3, 3, 19, 4, 8, 13, 3, 6, 8\n6, 28, 3, 4, 19]\nclass = Grass", fillcolor="#fafef5"] ;
77 -> 83 ;
84 [label="gini = 0.278\nsamples = 6\nvalue = [0, 0, 0, 5, 0, 0, 0, 0, 0, 0, 0, 0, 0, 0\n0, 1, 0, 0]\nclass = Grass", fillcolor="#b1ea61"] ;
83 -> 84 ;
85 [label="Sp. Def <= 94.5\ngini = 0.906\nsamples = 184\nvalue = [10, 12, 5, 31, 3, 3, 19, 4, 8, 13, 3, 6, 8\n6, 28, 2, 4, 19]\nclass = Grass", fillcolor="#fdfffb"] ;
83 -> 85 ;
86 [label="gini = 0.894\nsamples = 128\nvalue = [8, 10, 1, 28, 1, 3, 15, 4, 4, 9, 2, 3, 6, 4\n12, 1, 2, 15]\nclass = Grass", fillcolor="#f4fce8"] ;
85 -> 86 ;
87 [label="gini = 0.879\nsamples = 56\nvalue = [2, 2, 4, 3, 2, 0, 4, 0, 4, 4, 1, 3, 2, 2\n16, 1, 2, 4]\nclass = Bug", fillcolor="#f9d1f6"] ;
85 -> 87 ;
88 [label="Speed <= 96.0\ngini = 0.898\nsamples = 70\nvalue = [3, 4, 14, 1, 4, 9, 4, 0, 1, 0, 5, 1, 4, 0\n8, 4, 2, 6]\nclass = Grass", fillcolor="#fcfdef"] ;
76 -> 88 ;
89 [label="HP <= 102.5\ngini = 0.728\nsamples = 18\nvalue = [0, 0, 8, 1, 0, 0, 1, 0, 1, 0, 4, 0, 0, 0\n0, 0, 1, 2]\nclass = Grass", fillcolor="#f4f8c6"] ;
88 -> 89 ;
90 [label="Sp. Atk <= 112.5\ngini = 0.74\nsamples = 10\nvalue = [0, 0, 2, 1, 0, 0, 0, 0, 0, 0, 4, 0, 0, 0\n0, 0, 1, 2]\nclass = Water", fillcolor="#ced8f8"] ;
89 -> 90 ;
91 [label="gini = 0.56\nsamples = 5\nvalue = [0, 0, 0, 1, 0, 0, 0, 0, 0, 0, 3, 0, 0, 0\n0, 0, 0, 1]\nclass = Water", fillcolor="#9cb2f2"] ;
90 -> 91 ;
92 [label="gini = 0.72\nsamples = 5\nvalue = [0, 0, 2, 0, 0, 0, 0, 0, 0, 0, 1, 0, 0, 0\n0, 0, 1, 1]\nclass = Grass", fillcolor="#f5f8ce"] ;
90 -> 92 ;
93 [label="gini = 0.406\nsamples = 8\nvalue = [0, 0, 6, 0, 0, 0, 1, 0, 1, 0, 0, 0, 0, 0\n0, 0, 0, 0]\nclass = Grass", fillcolor="#e2ec72"] ;
89 -> 93 ;
94 [label="Sp. Atk <= 97.5\ngini = 0.896\nsamples = 52\nvalue = [3, 4, 6, 0, 4, 9, 3, 0, 0, 0, 1, 1, 4, 0\n8, 4, 1, 4]\nclass = Fire", fillcolor="#fafefb"] ;
88 -> 94 ;
95 [label="Attack <= 142.5\ngini = 0.78\nsamples = 20\nvalue = [1, 2, 1, 0, 2, 8, 0, 0, 0, 0, 0, 0, 3, 0\n1, 2, 0, 0]\nclass = Fire", fillcolor="#c5f7c9"] ;
94 -> 95 ;
96 [label="gini = 0.667\nsamples = 15\nvalue = [0, 2, 1, 0, 1, 8, 0, 0, 0, 0, 0, 0, 1, 0\n0, 2, 0, 0]\nclass = Fire", fillcolor="#a4f3aa"] ;
95 -> 96 ;
97 [label="gini = 0.72\nsamples = 5\nvalue = [1, 0, 0, 0, 1, 0, 0, 0, 0, 0, 0, 0, 2, 0\n1, 0, 0, 0]\nclass = Water", fillcolor="#e0cef8"] ;
95 -> 97 ;
98 [label="Speed <= 124.5\ngini = 0.883\nsamples = 32\nvalue = [2, 2, 5, 0, 2, 1, 3, 0, 0, 0, 1, 1, 1, 0\n7, 2, 1, 4]\nclass = Bug", fillcolor="#fdf0fc"] ;
94 -> 98 ;
99 [label="gini = 0.903\nsamples = 24\nvalue = [1, 2, 4, 0, 2, 1, 3, 0, 0, 0, 1, 1, 1, 0\n2, 2, 1, 3]\nclass = Grass", fillcolor="#fdfef6"] ;
98 -> 99 ;
100 [label="gini = 0.562\nsamples = 8\nvalue = [1, 0, 1, 0, 0, 0, 0, 0, 0, 0, 0, 0, 0, 0\n5, 0, 0, 1]\nclass = Bug", fillcolor="#f08ee8"] ;
98 -> 100 ;
}