digraph Tree {
node [shape=box, style="filled, rounded", color="black", fontname="helvetica"] ;
edge [fontname="helvetica"] ;
0 [label="Sp. Atk <= 60.5\ngini = 0.93\nsamples = 1190\nvalue = [91, 56, 47, 73, 31, 49, 75, 10, 47, 104, 46, 43\n131, 46, 82, 67, 43, 149]\nclass = Bug", fillcolor="#fffcfc"] ;
1 [label="Defense <= 99.5\ngini = 0.918\nsamples = 525\nvalue = [65, 27, 16, 16, 11, 31, 16, 5, 16, 39, 33, 17\n85, 22, 11, 40, 23, 52]\nclass = Water", fillcolor="#faf6fe"] ;
0 -> 1 [labeldistance=2.5, labelangle=45, headlabel="True"] ;
2 [label="HP <= 81.0\ngini = 0.909\nsamples = 430\nvalue = [55, 20, 15, 16, 10, 27, 15, 4, 10, 36, 22, 14\n82, 20, 10, 18, 9, 47]\nclass = Water", fillcolor="#f6f1fd"] ;
1 -> 2 ;
3 [label="Sp. Atk <= 29.5\ngini = 0.913\nsamples = 375\nvalue = [55, 20, 13, 16, 9, 21, 14, 4, 9, 35, 19, 9, 59\n19, 7, 16, 9, 41]\nclass = Water", fillcolor="#fdfdff"] ;
2 -> 3 ;
4 [label="Attack <= 48.0\ngini = 0.765\nsamples = 41\nvalue = [18, 1, 0, 0, 0, 2, 1, 0, 0, 1, 1, 2, 4, 1\n1, 2, 1, 6]\nclass = Grass", fillcolor="#f6d4bb"] ;
3 -> 4 ;
5 [label="Attack <= 21.0\ngini = 0.56\nsamples = 27\nvalue = [17, 0, 0, 0, 0, 0, 0, 0, 0, 0, 0, 0, 2, 1\n1, 0, 1, 5]\nclass = Grass", fillcolor="#f1ba93"] ;
4 -> 5 ;
6 [label="Sp. Atk <= 22.5\ngini = 0.625\nsamples = 8\nvalue = [2, 0, 0, 0, 0, 0, 0, 0, 0, 0, 0, 0, 2, 0\n0, 0, 0, 4]\nclass = Bug", fillcolor="#f6c2bd"] ;
5 -> 6 ;
7 [label="Sp. Atk <= 17.5\ngini = 0.48\nsamples = 5\nvalue = [0, 0, 0, 0, 0, 0, 0, 0, 0, 0, 0, 0, 2, 0\n0, 0, 0, 3]\nclass = Bug", fillcolor="#f6c2bd"] ;
6 -> 7 ;
8 [label="gini = 0.0\nsamples = 2\nvalue = [0, 0, 0, 0, 0, 0, 0, 0, 0, 0, 0, 0, 0, 0\n0, 0, 0, 2]\nclass = Bug", fillcolor="#e54739"] ;
7 -> 8 ;
9 [label="Sp. Def <= 47.5\ngini = 0.444\nsamples = 3\nvalue = [0, 0, 0, 0, 0, 0, 0, 0, 0, 0, 0, 0, 2, 0\n0, 0, 0, 1]\nclass = Water", fillcolor="#c09cf2"] ;
7 -> 9 ;
10 [label="gini = 0.0\nsamples = 2\nvalue = [0, 0, 0, 0, 0, 0, 0, 0, 0, 0, 0, 0, 2, 0\n0, 0, 0, 0]\nclass = Water", fillcolor="#8139e5"] ;
9 -> 10 ;
11 [label="gini = 0.0\nsamples = 1\nvalue = [0, 0, 0, 0, 0, 0, 0, 0, 0, 0, 0, 0, 0, 0\n0, 0, 0, 1]\nclass = Bug", fillcolor="#e54739"] ;
9 -> 11 ;
12 [label="Speed <= 35.0\ngini = 0.444\nsamples = 3\nvalue = [2, 0, 0, 0, 0, 0, 0, 0, 0, 0, 0, 0, 0, 0\n0, 0, 0, 1]\nclass = Grass", fillcolor="#f2c09c"] ;
6 -> 12 ;
13 [label="gini = 0.0\nsamples = 1\nvalue = [1, 0, 0, 0, 0, 0, 0, 0, 0, 0, 0, 0, 0, 0\n0, 0, 0, 0]\nclass = Grass", fillcolor="#e58139"] ;
12 -> 13 ;
14 [label="Speed <= 42.5\ngini = 0.5\nsamples = 2\nvalue = [1, 0, 0, 0, 0, 0, 0, 0, 0, 0, 0, 0, 0, 0\n0, 0, 0, 1]\nclass = Grass", fillcolor="#ffffff"] ;
12 -> 14 ;
15 [label="gini = 0.0\nsamples = 1\nvalue = [0, 0, 0, 0, 0, 0, 0, 0, 0, 0, 0, 0, 0, 0\n0, 0, 0, 1]\nclass = Bug", fillcolor="#e54739"] ;
14 -> 15 ;
16 [label="gini = 0.0\nsamples = 1\nvalue = [1, 0, 0, 0, 0, 0, 0, 0, 0, 0, 0, 0, 0, 0\n0, 0, 0, 0]\nclass = Grass", fillcolor="#e58139"] ;
14 -> 16 ;
17 [label="HP <= 52.5\ngini = 0.366\nsamples = 19\nvalue = [15, 0, 0, 0, 0, 0, 0, 0, 0, 0, 0, 0, 0, 1\n1, 0, 1, 1]\nclass = Grass", fillcolor="#eb9d65"] ;
5 -> 17 ;
18 [label="Defense <= 33.0\ngini = 0.117\nsamples = 16\nvalue = [15, 0, 0, 0, 0, 0, 0, 0, 0, 0, 0, 0, 0, 0\n1, 0, 0, 0]\nclass = Grass", fillcolor="#e78946"] ;
17 -> 18 ;
19 [label="Speed <= 43.5\ngini = 0.5\nsamples = 2\nvalue = [1, 0, 0, 0, 0, 0, 0, 0, 0, 0, 0, 0, 0, 0\n1, 0, 0, 0]\nclass = Grass", fillcolor="#ffffff"] ;
18 -> 19 ;
20 [label="gini = 0.0\nsamples = 1\nvalue = [0, 0, 0, 0, 0, 0, 0, 0, 0, 0, 0, 0, 0, 0\n1, 0, 0, 0]\nclass = Bug", fillcolor="#e539d7"] ;
19 -> 20 ;
21 [label="gini = 0.0\nsamples = 1\nvalue = [1, 0, 0, 0, 0, 0, 0, 0, 0, 0, 0, 0, 0, 0\n0, 0, 0, 0]\nclass = Grass", fillcolor="#e58139"] ;
19 -> 21 ;
22 [label="gini = 0.0\nsamples = 14\nvalue = [14, 0, 0, 0, 0, 0, 0, 0, 0, 0, 0, 0, 0, 0\n0, 0, 0, 0]\nclass = Grass", fillcolor="#e58139"] ;
18 -> 22 ;
23 [label="Speed <= 19.0\ngini = 0.667\nsamples = 3\nvalue = [0, 0, 0, 0, 0, 0, 0, 0, 0, 0, 0, 0, 0, 1\n0, 0, 1, 1]\nclass = Bug", fillcolor="#ffffff"] ;
17 -> 23 ;
24 [label="gini = 0.5\nsamples = 2\nvalue = [0, 0, 0, 0, 0, 0, 0, 0, 0, 0, 0, 0, 0, 1\n0, 0, 0, 1]\nclass = Bug", fillcolor="#ffffff"] ;
23 -> 24 ;
25 [label="gini = 0.0\nsamples = 1\nvalue = [0, 0, 0, 0, 0, 0, 0, 0, 0, 0, 0, 0, 0, 0\n0, 0, 1, 0]\nclass = Bug", fillcolor="#e53964"] ;
23 -> 25 ;
26 [label="HP <= 71.0\ngini = 0.888\nsamples = 14\nvalue = [1, 1, 0, 0, 0, 2, 1, 0, 0, 1, 1, 2, 2, 0\n0, 2, 0, 1]\nclass = Fire", fillcolor="#ffffff"] ;
4 -> 26 ;
27 [label="Speed <= 27.5\ngini = 0.875\nsamples = 12\nvalue = [1, 1, 0, 0, 0, 0, 1, 0, 0, 1, 1, 2, 2, 0\n0, 2, 0, 1]\nclass = Water", fillcolor="#ffffff"] ;
26 -> 27 ;
28 [label="Attack <= 62.5\ngini = 0.444\nsamples = 3\nvalue = [0, 0, 0, 0, 0, 0, 0, 0, 0, 1, 0, 0, 0, 0\n0, 2, 0, 0]\nclass = Bug", fillcolor="#f29cce"] ;
27 -> 28 ;
29 [label="gini = 0.0\nsamples = 1\nvalue = [0, 0, 0, 0, 0, 0, 0, 0, 0, 1, 0, 0, 0, 0\n0, 0, 0, 0]\nclass = Water", fillcolor="#399de5"] ;
28 -> 29 ;
30 [label="gini = 0.0\nsamples = 2\nvalue = [0, 0, 0, 0, 0, 0, 0, 0, 0, 0, 0, 0, 0, 0\n0, 2, 0, 0]\nclass = Bug", fillcolor="#e5399d"] ;
28 -> 30 ;
31 [label="Attack <= 67.5\ngini = 0.84\nsamples = 9\nvalue = [1, 1, 0, 0, 0, 0, 1, 0, 0, 0, 1, 2, 2, 0\n0, 0, 0, 1]\nclass = Water", fillcolor="#ffffff"] ;
27 -> 31 ;
32 [label="Attack <= 58.0\ngini = 0.444\nsamples = 3\nvalue = [0, 1, 0, 0, 0, 0, 0, 0, 0, 0, 0, 0, 2, 0\n0, 0, 0, 0]\nclass = Water", fillcolor="#c09cf2"] ;
31 -> 32 ;
33 [label="gini = 0.5\nsamples = 2\nvalue = [0, 1, 0, 0, 0, 0, 0, 0, 0, 0, 0, 0, 1, 0\n0, 0, 0, 0]\nclass = Grass", fillcolor="#ffffff"] ;
32 -> 33 ;
34 [label="gini = 0.0\nsamples = 1\nvalue = [0, 0, 0, 0, 0, 0, 0, 0, 0, 0, 0, 0, 1, 0\n0, 0, 0, 0]\nclass = Water", fillcolor="#8139e5"] ;
32 -> 34 ;
35 [label="Sp. Def <= 32.5\ngini = 0.778\nsamples = 6\nvalue = [1, 0, 0, 0, 0, 0, 1, 0, 0, 0, 1, 2, 0, 0\n0, 0, 0, 1]\nclass = Water", fillcolor="#dad7fa"] ;
31 -> 35 ;
36 [label="Defense <= 87.5\ngini = 0.5\nsamples = 2\nvalue = [0, 0, 0, 0, 0, 0, 0, 0, 0, 0, 1, 0, 0, 0\n0, 0, 0, 1]\nclass = Water", fillcolor="#ffffff"] ;
35 -> 36 ;
37 [label="gini = 0.0\nsamples = 1\nvalue = [0, 0, 0, 0, 0, 0, 0, 0, 0, 0, 1, 0, 0, 0\n0, 0, 0, 0]\nclass = Water", fillcolor="#3964e5"] ;
36 -> 37 ;
38 [label="gini = 0.0\nsamples = 1\nvalue = [0, 0, 0, 0, 0, 0, 0, 0, 0, 0, 0, 0, 0, 0\n0, 0, 0, 1]\nclass = Bug", fillcolor="#e54739"] ;
36 -> 38 ;
39 [label="Sp. Def <= 62.5\ngini = 0.625\nsamples = 4\nvalue = [1, 0, 0, 0, 0, 0, 1, 0, 0, 0, 0, 2, 0, 0\n0, 0, 0, 0]\nclass = Water", fillcolor="#c2bdf6"] ;
35 -> 39 ;
40 [label="HP <= 60.0\ngini = 0.444\nsamples = 3\nvalue = [0, 0, 0, 0, 0, 0, 1, 0, 0, 0, 0, 2, 0, 0\n0, 0, 0, 0]\nclass = Water", fillcolor="#a39cf2"] ;
39 -> 40 ;
41 [label="gini = 0.0\nsamples = 1\nvalue = [0, 0, 0, 0, 0, 0, 0, 0, 0, 0, 0, 1, 0, 0\n0, 0, 0, 0]\nclass = Water", fillcolor="#4739e5"] ;
40 -> 41 ;
42 [label="gini = 0.5\nsamples = 2\nvalue = [0, 0, 0, 0, 0, 0, 1, 0, 0, 0, 0, 1, 0, 0\n0, 0, 0, 0]\nclass = Fire", fillcolor="#ffffff"] ;
40 -> 42 ;
43 [label="gini = 0.0\nsamples = 1\nvalue = [1, 0, 0, 0, 0, 0, 0, 0, 0, 0, 0, 0, 0, 0\n0, 0, 0, 0]\nclass = Grass", fillcolor="#e58139"] ;
39 -> 43 ;
44 [label="gini = 0.0\nsamples = 2\nvalue = [0, 0, 0, 0, 0, 2, 0, 0, 0, 0, 0, 0, 0, 0\n0, 0, 0, 0]\nclass = Fire", fillcolor="#39e547"] ;
26 -> 44 ;
45 [label="Defense <= 69.5\ngini = 0.917\nsamples = 334\nvalue = [37, 19, 13, 16, 9, 19, 13, 4, 9, 34, 18, 7, 55\n18, 6, 14, 8, 35]\nclass = Water", fillcolor="#f7f3fd"] ;
3 -> 45 ;
46 [label="Sp. Atk <= 37.5\ngini = 0.91\nsamples = 250\nvalue = [18, 12, 10, 15, 8, 14, 12, 3, 2, 24, 12, 6, 48\n15, 6, 10, 4, 31]\nclass = Water", fillcolor="#f5f0fd"] ;
45 -> 46 ;
47 [label="HP <= 32.5\ngini = 0.839\nsamples = 58\nvalue = [4, 4, 2, 1, 1, 6, 0, 1, 1, 5, 5, 1, 20, 1\n0, 3, 1, 2]\nclass = Water", fillcolor="#ddcaf8"] ;
46 -> 47 ;
48 [label="Defense <= 36.0\ngini = 0.75\nsamples = 8\nvalue = [3, 0, 0, 1, 0, 0, 0, 0, 0, 1, 2, 0, 0, 0\n0, 0, 0, 1]\nclass = Grass", fillcolor="#fbeade"] ;
47 -> 48 ;
49 [label="Sp. Def <= 40.0\ngini = 0.72\nsamples = 5\nvalue = [0, 0, 0, 1, 0, 0, 0, 0, 0, 1, 2, 0, 0, 0\n0, 0, 0, 1]\nclass = Water", fillcolor="#ced8f8"] ;
48 -> 49 ;
50 [label="Sp. Def <= 27.5\ngini = 0.667\nsamples = 3\nvalue = [0, 0, 0, 1, 0, 0, 0, 0, 0, 1, 0, 0, 0, 0\n0, 0, 0, 1]\nclass = Grass", fillcolor="#ffffff"] ;
49 -> 50 ;
51 [label="gini = 0.0\nsamples = 1\nvalue = [0, 0, 0, 0, 0, 0, 0, 0, 0, 0, 0, 0, 0, 0\n0, 0, 0, 1]\nclass = Bug", fillcolor="#e54739"] ;
50 -> 51 ;
52 [label="Defense <= 22.5\ngini = 0.5\nsamples = 2\nvalue = [0, 0, 0, 1, 0, 0, 0, 0, 0, 1, 0, 0, 0, 0\n0, 0, 0, 0]\nclass = Grass", fillcolor="#ffffff"] ;
50 -> 52 ;
53 [label="gini = 0.0\nsamples = 1\nvalue = [0, 0, 0, 1, 0, 0, 0, 0, 0, 0, 0, 0, 0, 0\n0, 0, 0, 0]\nclass = Grass", fillcolor="#9de539"] ;
52 -> 53 ;
54 [label="gini = 0.0\nsamples = 1\nvalue = [0, 0, 0, 0, 0, 0, 0, 0, 0, 1, 0, 0, 0, 0\n0, 0, 0, 0]\nclass = Water", fillcolor="#399de5"] ;
52 -> 54 ;
55 [label="gini = 0.0\nsamples = 2\nvalue = [0, 0, 0, 0, 0, 0, 0, 0, 0, 0, 2, 0, 0, 0\n0, 0, 0, 0]\nclass = Water", fillcolor="#3964e5"] ;
49 -> 55 ;
56 [label="gini = 0.0\nsamples = 3\nvalue = [3, 0, 0, 0, 0, 0, 0, 0, 0, 0, 0, 0, 0, 0\n0, 0, 0, 0]\nclass = Grass", fillcolor="#e58139"] ;
48 -> 56 ;
57 [label="Defense <= 34.5\ngini = 0.801\nsamples = 50\nvalue = [1, 4, 2, 0, 1, 6, 0, 1, 1, 4, 3, 1, 20, 1\n0, 3, 1, 1]\nclass = Water", fillcolor="#d7c0f7"] ;
47 -> 57 ;
58 [label="gini = 0.0\nsamples = 7\nvalue = [0, 0, 0, 0, 0, 0, 0, 0, 0, 0, 0, 0, 7, 0\n0, 0, 0, 0]\nclass = Water", fillcolor="#8139e5"] ;
57 -> 58 ;
59 [label="Attack <= 60.5\ngini = 0.856\nsamples = 43\nvalue = [1, 4, 2, 0, 1, 6, 0, 1, 1, 4, 3, 1, 13, 1\n0, 3, 1, 1]\nclass = Water", fillcolor="#e7dafa"] ;
57 -> 59 ;
60 [label="HP <= 43.5\ngini = 0.752\nsamples = 23\nvalue = [1, 3, 0, 0, 1, 1, 0, 1, 0, 4, 0, 1, 10, 1\n0, 0, 0, 0]\nclass = Water", fillcolor="#d7c0f7"] ;
59 -> 60 ;
61 [label="Defense <= 36.5\ngini = 0.805\nsamples = 13\nvalue = [1, 2, 0, 0, 0, 1, 0, 1, 0, 4, 0, 0, 3, 1\n0, 0, 0, 0]\nclass = Water", fillcolor="#ebf5fc"] ;
60 -> 61 ;
62 [label="Sp. Def <= 32.5\ngini = 0.75\nsamples = 4\nvalue = [0, 1, 0, 0, 0, 1, 0, 1, 0, 0, 0, 0, 0, 1\n0, 0, 0, 0]\nclass = Grass", fillcolor="#ffffff"] ;
61 -> 62 ;
63 [label="gini = 0.0\nsamples = 1\nvalue = [0, 1, 0, 0, 0, 0, 0, 0, 0, 0, 0, 0, 0, 0\n0, 0, 0, 0]\nclass = Grass", fillcolor="#e5ba39"] ;
62 -> 63 ;
64 [label="Attack <= 40.0\ngini = 0.667\nsamples = 3\nvalue = [0, 0, 0, 0, 0, 1, 0, 1, 0, 0, 0, 0, 0, 1\n0, 0, 0, 0]\nclass = Fire", fillcolor="#ffffff"] ;
62 -> 64 ;
65 [label="gini = 0.0\nsamples = 1\nvalue = [0, 0, 0, 0, 0, 1, 0, 0, 0, 0, 0, 0, 0, 0\n0, 0, 0, 0]\nclass = Fire", fillcolor="#39e547"] ;
64 -> 65 ;
66 [label="HP <= 39.0\ngini = 0.5\nsamples = 2\nvalue = [0, 0, 0, 0, 0, 0, 0, 1, 0, 0, 0, 0, 0, 1\n0, 0, 0, 0]\nclass = Fire", fillcolor="#ffffff"] ;
64 -> 66 ;
67 [label="gini = 0.0\nsamples = 1\nvalue = [0, 0, 0, 0, 0, 0, 0, 1, 0, 0, 0, 0, 0, 0\n0, 0, 0, 0]\nclass = Fire", fillcolor="#39e5ba"] ;
66 -> 67 ;
68 [label="gini = 0.0\nsamples = 1\nvalue = [0, 0, 0, 0, 0, 0, 0, 0, 0, 0, 0, 0, 0, 1\n0, 0, 0, 0]\nclass = Bug", fillcolor="#ba39e5"] ;
66 -> 68 ;
69 [label="Speed <= 53.0\ngini = 0.667\nsamples = 9\nvalue = [1, 1, 0, 0, 0, 0, 0, 0, 0, 4, 0, 0, 3, 0\n0, 0, 0, 0]\nclass = Water", fillcolor="#deeffb"] ;
61 -> 69 ;
70 [label="Sp. Def <= 56.5\ngini = 0.375\nsamples = 4\nvalue = [1, 0, 0, 0, 0, 0, 0, 0, 0, 3, 0, 0, 0, 0\n0, 0, 0, 0]\nclass = Water", fillcolor="#7bbeee"] ;
69 -> 70 ;
71 [label="gini = 0.0\nsamples = 3\nvalue = [0, 0, 0, 0, 0, 0, 0, 0, 0, 3, 0, 0, 0, 0\n0, 0, 0, 0]\nclass = Water", fillcolor="#399de5"] ;
70 -> 71 ;
72 [label="gini = 0.0\nsamples = 1\nvalue = [1, 0, 0, 0, 0, 0, 0, 0, 0, 0, 0, 0, 0, 0\n0, 0, 0, 0]\nclass = Grass", fillcolor="#e58139"] ;
70 -> 72 ;
73 [label="Attack <= 28.5\ngini = 0.56\nsamples = 5\nvalue = [0, 1, 0, 0, 0, 0, 0, 0, 0, 1, 0, 0, 3, 0\n0, 0, 0, 0]\nclass = Water", fillcolor="#c09cf2"] ;
69 -> 73 ;
74 [label="gini = 0.0\nsamples = 1\nvalue = [0, 0, 0, 0, 0, 0, 0, 0, 0, 1, 0, 0, 0, 0\n0, 0, 0, 0]\nclass = Water", fillcolor="#399de5"] ;
73 -> 74 ;
75 [label="Attack <= 33.0\ngini = 0.375\nsamples = 4\nvalue = [0, 1, 0, 0, 0, 0, 0, 0, 0, 0, 0, 0, 3, 0\n0, 0, 0, 0]\nclass = Water", fillcolor="#ab7bee"] ;
73 -> 75 ;
76 [label="gini = 0.5\nsamples = 2\nvalue = [0, 1, 0, 0, 0, 0, 0, 0, 0, 0, 0, 0, 1, 0\n0, 0, 0, 0]\nclass = Grass", fillcolor="#ffffff"] ;
75 -> 76 ;
77 [label="gini = 0.0\nsamples = 2\nvalue = [0, 0, 0, 0, 0, 0, 0, 0, 0, 0, 0, 0, 2, 0\n0, 0, 0, 0]\nclass = Water", fillcolor="#8139e5"] ;
75 -> 77 ;
78 [label="Sp. Def <= 45.5\ngini = 0.48\nsamples = 10\nvalue = [0, 1, 0, 0, 1, 0, 0, 0, 0, 0, 0, 1, 7, 0\n0, 0, 0, 0]\nclass = Water", fillcolor="#ab7bee"] ;
60 -> 78 ;
79 [label="Sp. Atk <= 32.5\ngini = 0.219\nsamples = 8\nvalue = [0, 0, 0, 0, 0, 0, 0, 0, 0, 0, 0, 1, 7, 0\n0, 0, 0, 0]\nclass = Water", fillcolor="#9355e9"] ;
78 -> 79 ;
80 [label="gini = 0.0\nsamples = 1\nvalue = [0, 0, 0, 0, 0, 0, 0, 0, 0, 0, 0, 1, 0, 0\n0, 0, 0, 0]\nclass = Water", fillcolor="#4739e5"] ;
79 -> 80 ;
81 [label="gini = 0.0\nsamples = 7\nvalue = [0, 0, 0, 0, 0, 0, 0, 0, 0, 0, 0, 0, 7, 0\n0, 0, 0, 0]\nclass = Water", fillcolor="#8139e5"] ;
79 -> 81 ;
82 [label="Sp. Def <= 55.0\ngini = 0.5\nsamples = 2\nvalue = [0, 1, 0, 0, 1, 0, 0, 0, 0, 0, 0, 0, 0, 0\n0, 0, 0, 0]\nclass = Grass", fillcolor="#ffffff"] ;
78 -> 82 ;
83 [label="gini = 0.0\nsamples = 1\nvalue = [0, 1, 0, 0, 0, 0, 0, 0, 0, 0, 0, 0, 0, 0\n0, 0, 0, 0]\nclass = Grass", fillcolor="#e5ba39"] ;
82 -> 83 ;
84 [label="gini = 0.0\nsamples = 1\nvalue = [0, 0, 0, 0, 1, 0, 0, 0, 0, 0, 0, 0, 0, 0\n0, 0, 0, 0]\nclass = Fire", fillcolor="#64e539"] ;
82 -> 84 ;
85 [label="Sp. Atk <= 32.5\ngini = 0.85\nsamples = 20\nvalue = [0, 1, 2, 0, 0, 5, 0, 0, 1, 0, 3, 0, 3, 0\n0, 3, 1, 1]\nclass = Fire", fillcolor="#e8fce9"] ;
59 -> 85 ;
86 [label="Defense <= 50.0\ngini = 0.735\nsamples = 7\nvalue = [0, 0, 1, 0, 0, 0, 0, 0, 1, 0, 1, 0, 0, 0\n0, 3, 1, 0]\nclass = Bug", fillcolor="#f6bdde"] ;
85 -> 86 ;
87 [label="Speed <= 64.0\ngini = 0.375\nsamples = 4\nvalue = [0, 0, 0, 0, 0, 0, 0, 0, 0, 0, 1, 0, 0, 0\n0, 3, 0, 0]\nclass = Bug", fillcolor="#ee7bbe"] ;
86 -> 87 ;
88 [label="gini = 0.0\nsamples = 3\nvalue = [0, 0, 0, 0, 0, 0, 0, 0, 0, 0, 0, 0, 0, 0\n0, 3, 0, 0]\nclass = Bug", fillcolor="#e5399d"] ;
87 -> 88 ;
89 [label="gini = 0.0\nsamples = 1\nvalue = [0, 0, 0, 0, 0, 0, 0, 0, 0, 0, 1, 0, 0, 0\n0, 0, 0, 0]\nclass = Water", fillcolor="#3964e5"] ;
87 -> 89 ;
90 [label="Speed <= 40.5\ngini = 0.667\nsamples = 3\nvalue = [0, 0, 1, 0, 0, 0, 0, 0, 1, 0, 0, 0, 0, 0\n0, 0, 1, 0]\nclass = Grass", fillcolor="#ffffff"] ;
86 -> 90 ;
91 [label="gini = 0.0\nsamples = 1\nvalue = [0, 0, 0, 0, 0, 0, 0, 0, 1, 0, 0, 0, 0, 0\n0, 0, 0, 0]\nclass = Fire", fillcolor="#39d7e5"] ;
90 -> 91 ;
92 [label="Defense <= 61.5\ngini = 0.5\nsamples = 2\nvalue = [0, 0, 1, 0, 0, 0, 0, 0, 0, 0, 0, 0, 0, 0\n0, 0, 1, 0]\nclass = Grass", fillcolor="#ffffff"] ;
90 -> 92 ;
93 [label="gini = 0.0\nsamples = 1\nvalue = [0, 0, 1, 0, 0, 0, 0, 0, 0, 0, 0, 0, 0, 0\n0, 0, 0, 0]\nclass = Grass", fillcolor="#d7e539"] ;
92 -> 93 ;
94 [label="gini = 0.0\nsamples = 1\nvalue = [0, 0, 0, 0, 0, 0, 0, 0, 0, 0, 0, 0, 0, 0\n0, 0, 1, 0]\nclass = Bug", fillcolor="#e53964"] ;
92 -> 94 ;
95 [label="Attack <= 77.5\ngini = 0.757\nsamples = 13\nvalue = [0, 1, 1, 0, 0, 5, 0, 0, 0, 0, 2, 0, 3, 0\n0, 0, 0, 1]\nclass = Fire", fillcolor="#d7fada"] ;
85 -> 95 ;
96 [label="Attack <= 71.0\ngini = 0.72\nsamples = 5\nvalue = [0, 0, 1, 0, 0, 1, 0, 0, 0, 0, 2, 0, 0, 0\n0, 0, 0, 1]\nclass = Water", fillcolor="#ced8f8"] ;
95 -> 96 ;
97 [label="Defense <= 50.0\ngini = 0.5\nsamples = 2\nvalue = [0, 0, 0, 0, 0, 1, 0, 0, 0, 0, 0, 0, 0, 0\n0, 0, 0, 1]\nclass = Fire", fillcolor="#ffffff"] ;
96 -> 97 ;
98 [label="gini = 0.0\nsamples = 1\nvalue = [0, 0, 0, 0, 0, 1, 0, 0, 0, 0, 0, 0, 0, 0\n0, 0, 0, 0]\nclass = Fire", fillcolor="#39e547"] ;
97 -> 98 ;
99 [label="gini = 0.0\nsamples = 1\nvalue = [0, 0, 0, 0, 0, 0, 0, 0, 0, 0, 0, 0, 0, 0\n0, 0, 0, 1]\nclass = Bug", fillcolor="#e54739"] ;
97 -> 99 ;
100 [label="HP <= 62.0\ngini = 0.444\nsamples = 3\nvalue = [0, 0, 1, 0, 0, 0, 0, 0, 0, 0, 2, 0, 0, 0\n0, 0, 0, 0]\nclass = Water", fillcolor="#9cb2f2"] ;
96 -> 100 ;
101 [label="gini = 0.0\nsamples = 2\nvalue = [0, 0, 0, 0, 0, 0, 0, 0, 0, 0, 2, 0, 0, 0\n0, 0, 0, 0]\nclass = Water", fillcolor="#3964e5"] ;
100 -> 101 ;
102 [label="gini = 0.0\nsamples = 1\nvalue = [0, 0, 1, 0, 0, 0, 0, 0, 0, 0, 0, 0, 0, 0\n0, 0, 0, 0]\nclass = Grass", fillcolor="#d7e539"] ;
100 -> 102 ;
103 [label="Sp. Def <= 70.0\ngini = 0.594\nsamples = 8\nvalue = [0, 1, 0, 0, 0, 4, 0, 0, 0, 0, 0, 0, 3, 0\n0, 0, 0, 0]\nclass = Fire", fillcolor="#d7fada"] ;
95 -> 103 ;
104 [label="Attack <= 81.5\ngini = 0.48\nsamples = 5\nvalue = [0, 0, 0, 0, 0, 2, 0, 0, 0, 0, 0, 0, 3, 0\n0, 0, 0, 0]\nclass = Water", fillcolor="#d5bdf6"] ;
103 -> 104 ;
105 [label="Sp. Def <= 55.0\ngini = 0.444\nsamples = 3\nvalue = [0, 0, 0, 0, 0, 2, 0, 0, 0, 0, 0, 0, 1, 0\n0, 0, 0, 0]\nclass = Fire", fillcolor="#9cf2a3"] ;
104 -> 105 ;
106 [label="gini = 0.0\nsamples = 2\nvalue = [0, 0, 0, 0, 0, 2, 0, 0, 0, 0, 0, 0, 0, 0\n0, 0, 0, 0]\nclass = Fire", fillcolor="#39e547"] ;
105 -> 106 ;
107 [label="gini = 0.0\nsamples = 1\nvalue = [0, 0, 0, 0, 0, 0, 0, 0, 0, 0, 0, 0, 1, 0\n0, 0, 0, 0]\nclass = Water", fillcolor="#8139e5"] ;
105 -> 107 ;
108 [label="gini = 0.0\nsamples = 2\nvalue = [0, 0, 0, 0, 0, 0, 0, 0, 0, 0, 0, 0, 2, 0\n0, 0, 0, 0]\nclass = Water", fillcolor="#8139e5"] ;
104 -> 108 ;
109 [label="Defense <= 54.0\ngini = 0.444\nsamples = 3\nvalue = [0, 1, 0, 0, 0, 2, 0, 0, 0, 0, 0, 0, 0, 0\n0, 0, 0, 0]\nclass = Fire", fillcolor="#9cf2a3"] ;
103 -> 109 ;
110 [label="gini = 0.0\nsamples = 1\nvalue = [0, 0, 0, 0, 0, 1, 0, 0, 0, 0, 0, 0, 0, 0\n0, 0, 0, 0]\nclass = Fire", fillcolor="#39e547"] ;
109 -> 110 ;
111 [label="gini = 0.5\nsamples = 2\nvalue = [0, 1, 0, 0, 0, 1, 0, 0, 0, 0, 0, 0, 0, 0\n0, 0, 0, 0]\nclass = Grass", fillcolor="#ffffff"] ;
109 -> 111 ;
112 [label="Attack <= 80.5\ngini = 0.915\nsamples = 192\nvalue = [14, 8, 8, 14, 7, 8, 12, 2, 1, 19, 7, 5, 28\n14, 6, 7, 3, 29]\nclass = Bug", fillcolor="#fffefe"] ;
46 -> 112 ;
113 [label="Attack <= 49.5\ngini = 0.909\nsamples = 159\nvalue = [10, 7, 7, 12, 7, 2, 11, 2, 1, 19, 3, 5, 21\n13, 6, 3, 3, 27]\nclass = Bug", fillcolor="#fef7f6"] ;
112 -> 113 ;
114 [label="Speed <= 98.5\ngini = 0.889\nsamples = 62\nvalue = [5, 3, 0, 6, 5, 1, 1, 1, 0, 8, 2, 3, 4, 2\n6, 1, 0, 14]\nclass = Bug", fillcolor="#fcebe9"] ;
113 -> 114 ;
115 [label="Sp. Def <= 54.0\ngini = 0.887\nsamples = 60\nvalue = [5, 3, 0, 4, 5, 1, 1, 1, 0, 8, 2, 3, 4, 2\n6, 1, 0, 14]\nclass = Bug", fillcolor="#fceae8"] ;
114 -> 115 ;
116 [label="Speed <= 25.5\ngini = 0.891\nsamples = 30\nvalue = [3, 3, 0, 4, 0, 0, 0, 1, 0, 2, 0, 2, 3, 2\n4, 1, 0, 5]\nclass = Bug", fillcolor="#fef8f7"] ;
115 -> 116 ;
117 [label="gini = 0.0\nsamples = 2\nvalue = [0, 0, 0, 0, 0, 0, 0, 0, 0, 0, 0, 2, 0, 0\n0, 0, 0, 0]\nclass = Water", fillcolor="#4739e5"] ;
116 -> 117 ;
118 [label="Defense <= 51.0\ngini = 0.88\nsamples = 28\nvalue = [3, 3, 0, 4, 0, 0, 0, 1, 0, 2, 0, 0, 3, 2\n4, 1, 0, 5]\nclass = Bug", fillcolor="#fef7f7"] ;
116 -> 118 ;
119 [label="HP <= 35.0\ngini = 0.864\nsamples = 25\nvalue = [3, 3, 0, 4, 0, 0, 0, 1, 0, 2, 0, 0, 2, 0\n4, 1, 0, 5]\nclass = Bug", fillcolor="#fef6f6"] ;
118 -> 119 ;
120 [label="Attack <= 37.5\ngini = 0.444\nsamples = 3\nvalue = [0, 0, 0, 0, 0, 0, 0, 0, 0, 0, 0, 0, 0, 0\n2, 1, 0, 0]\nclass = Bug", fillcolor="#f29ceb"] ;
119 -> 120 ;
121 [label="gini = 0.0\nsamples = 2\nvalue = [0, 0, 0, 0, 0, 0, 0, 0, 0, 0, 0, 0, 0, 0\n2, 0, 0, 0]\nclass = Bug", fillcolor="#e539d7"] ;
120 -> 121 ;
122 [label="gini = 0.0\nsamples = 1\nvalue = [0, 0, 0, 0, 0, 0, 0, 0, 0, 0, 0, 0, 0, 0\n0, 1, 0, 0]\nclass = Bug", fillcolor="#e5399d"] ;
120 -> 122 ;
123 [label="Sp. Atk <= 46.5\ngini = 0.851\nsamples = 22\nvalue = [3, 3, 0, 4, 0, 0, 0, 1, 0, 2, 0, 0, 2, 0\n2, 0, 0, 5]\nclass = Bug", fillcolor="#fef5f4"] ;
119 -> 123 ;
124 [label="Speed <= 28.0\ngini = 0.688\nsamples = 8\nvalue = [0, 0, 0, 1, 0, 0, 0, 1, 0, 1, 0, 0, 1, 0\n0, 0, 0, 4]\nclass = Bug", fillcolor="#f4b0aa"] ;
123 -> 124 ;
125 [label="gini = 0.0\nsamples = 1\nvalue = [0, 0, 0, 1, 0, 0, 0, 0, 0, 0, 0, 0, 0, 0\n0, 0, 0, 0]\nclass = Grass", fillcolor="#9de539"] ;
124 -> 125 ;
126 [label="gini = 0.612\nsamples = 7\nvalue = [0, 0, 0, 0, 0, 0, 0, 1, 0, 1, 0, 0, 1, 0\n0, 0, 0, 4]\nclass = Bug", fillcolor="#f2a39c"] ;
124 -> 126 ;
127 [label="Defense <= 42.0\ngini = 0.827\nsamples = 14\nvalue = [3, 3, 0, 3, 0, 0, 0, 0, 0, 1, 0, 0, 1, 0\n2, 0, 0, 1]\nclass = Grass", fillcolor="#ffffff"] ;
123 -> 127 ;
128 [label="gini = 0.716\nsamples = 9\nvalue = [2, 3, 0, 3, 0, 0, 0, 0, 0, 0, 0, 0, 0, 0\n0, 0, 0, 1]\nclass = Grass", fillcolor="#ffffff"] ;
127 -> 128 ;
129 [label="gini = 0.72\nsamples = 5\nvalue = [1, 0, 0, 0, 0, 0, 0, 0, 0, 1, 0, 0, 1, 0\n2, 0, 0, 0]\nclass = Bug", fillcolor="#f8cef5"] ;
127 -> 129 ;
130 [label="Speed <= 44.5\ngini = 0.444\nsamples = 3\nvalue = [0, 0, 0, 0, 0, 0, 0, 0, 0, 0, 0, 0, 1, 2\n0, 0, 0, 0]\nclass = Bug", fillcolor="#dc9cf2"] ;
118 -> 130 ;
131 [label="gini = 0.0\nsamples = 2\nvalue = [0, 0, 0, 0, 0, 0, 0, 0, 0, 0, 0, 0, 0, 2\n0, 0, 0, 0]\nclass = Bug", fillcolor="#ba39e5"] ;
130 -> 131 ;
132 [label="gini = 0.0\nsamples = 1\nvalue = [0, 0, 0, 0, 0, 0, 0, 0, 0, 0, 0, 0, 1, 0\n0, 0, 0, 0]\nclass = Water", fillcolor="#8139e5"] ;
130 -> 132 ;
133 [label="Speed <= 49.5\ngini = 0.824\nsamples = 30\nvalue = [2, 0, 0, 0, 5, 1, 1, 0, 0, 6, 2, 1, 1, 0\n2, 0, 0, 9]\nclass = Bug", fillcolor="#fce8e6"] ;
115 -> 133 ;
134 [label="Sp. Def <= 61.5\ngini = 0.724\nsamples = 14\nvalue = [0, 0, 0, 0, 5, 0, 0, 0, 0, 3, 0, 0, 0, 0\n2, 0, 0, 4]\nclass = Fire", fillcolor="#effceb"] ;
133 -> 134 ;
135 [label="Sp. Atk <= 42.5\ngini = 0.48\nsamples = 5\nvalue = [0, 0, 0, 0, 3, 0, 0, 0, 0, 2, 0, 0, 0, 0\n0, 0, 0, 0]\nclass = Fire", fillcolor="#cbf6bd"] ;
134 -> 135 ;
136 [label="gini = 0.0\nsamples = 2\nvalue = [0, 0, 0, 0, 0, 0, 0, 0, 0, 2, 0, 0, 0, 0\n0, 0, 0, 0]\nclass = Water", fillcolor="#399de5"] ;
135 -> 136 ;
137 [label="gini = 0.0\nsamples = 3\nvalue = [0, 0, 0, 0, 3, 0, 0, 0, 0, 0, 0, 0, 0, 0\n0, 0, 0, 0]\nclass = Fire", fillcolor="#64e539"] ;
135 -> 137 ;
138 [label="Attack <= 48.5\ngini = 0.691\nsamples = 9\nvalue = [0, 0, 0, 0, 2, 0, 0, 0, 0, 1, 0, 0, 0, 0\n2, 0, 0, 4]\nclass = Bug", fillcolor="#f8cac6"] ;
134 -> 138 ;
139 [label="Attack <= 25.0\ngini = 0.625\nsamples = 8\nvalue = [0, 0, 0, 0, 2, 0, 0, 0, 0, 0, 0, 0, 0, 0\n2, 0, 0, 4]\nclass = Bug", fillcolor="#f6c2bd"] ;
138 -> 139 ;
140 [label="gini = 0.0\nsamples = 1\nvalue = [0, 0, 0, 0, 1, 0, 0, 0, 0, 0, 0, 0, 0, 0\n0, 0, 0, 0]\nclass = Fire", fillcolor="#64e539"] ;
139 -> 140 ;
141 [label="Defense <= 51.0\ngini = 0.571\nsamples = 7\nvalue = [0, 0, 0, 0, 1, 0, 0, 0, 0, 0, 0, 0, 0, 0\n2, 0, 0, 4]\nclass = Bug", fillcolor="#f5b5b0"] ;
139 -> 141 ;
142 [label="gini = 0.625\nsamples = 4\nvalue = [0, 0, 0, 0, 1, 0, 0, 0, 0, 0, 0, 0, 0, 0\n2, 0, 0, 1]\nclass = Bug", fillcolor="#f6bdf2"] ;
141 -> 142 ;
143 [label="gini = 0.0\nsamples = 3\nvalue = [0, 0, 0, 0, 0, 0, 0, 0, 0, 0, 0, 0, 0, 0\n0, 0, 0, 3]\nclass = Bug", fillcolor="#e54739"] ;
141 -> 143 ;
144 [label="gini = 0.0\nsamples = 1\nvalue = [0, 0, 0, 0, 0, 0, 0, 0, 0, 1, 0, 0, 0, 0\n0, 0, 0, 0]\nclass = Water", fillcolor="#399de5"] ;
138 -> 144 ;
145 [label="HP <= 39.0\ngini = 0.82\nsamples = 16\nvalue = [2, 0, 0, 0, 0, 1, 1, 0, 0, 3, 2, 1, 1, 0\n0, 0, 0, 5]\nclass = Bug", fillcolor="#fbe3e1"] ;
133 -> 145 ;
146 [label="Speed <= 62.5\ngini = 0.667\nsamples = 3\nvalue = [0, 0, 0, 0, 0, 1, 1, 0, 0, 0, 0, 1, 0, 0\n0, 0, 0, 0]\nclass = Fire", fillcolor="#ffffff"] ;
145 -> 146 ;
147 [label="gini = 0.0\nsamples = 1\nvalue = [0, 0, 0, 0, 0, 1, 0, 0, 0, 0, 0, 0, 0, 0\n0, 0, 0, 0]\nclass = Fire", fillcolor="#39e547"] ;
146 -> 147 ;
148 [label="gini = 0.5\nsamples = 2\nvalue = [0, 0, 0, 0, 0, 0, 1, 0, 0, 0, 0, 1, 0, 0\n0, 0, 0, 0]\nclass = Fire", fillcolor="#ffffff"] ;
146 -> 148 ;
149 [label="Defense <= 58.0\ngini = 0.746\nsamples = 13\nvalue = [2, 0, 0, 0, 0, 0, 0, 0, 0, 3, 2, 0, 1, 0\n0, 0, 0, 5]\nclass = Bug", fillcolor="#fadad7"] ;
145 -> 149 ;
150 [label="Sp. Atk <= 55.5\ngini = 0.708\nsamples = 12\nvalue = [2, 0, 0, 0, 0, 0, 0, 0, 0, 3, 2, 0, 0, 0\n0, 0, 0, 5]\nclass = Bug", fillcolor="#f9d6d3"] ;
149 -> 150 ;
151 [label="Sp. Def <= 75.0\ngini = 0.74\nsamples = 10\nvalue = [2, 0, 0, 0, 0, 0, 0, 0, 0, 3, 2, 0, 0, 0\n0, 0, 0, 3]\nclass = Water", fillcolor="#ffffff"] ;
150 -> 151 ;
152 [label="gini = 0.611\nsamples = 6\nvalue = [0, 0, 0, 0, 0, 0, 0, 0, 0, 3, 1, 0, 0, 0\n0, 0, 0, 2]\nclass = Water", fillcolor="#cee6f8"] ;
151 -> 152 ;
153 [label="gini = 0.625\nsamples = 4\nvalue = [2, 0, 0, 0, 0, 0, 0, 0, 0, 0, 1, 0, 0, 0\n0, 0, 0, 1]\nclass = Grass", fillcolor="#f6d5bd"] ;
151 -> 153 ;
154 [label="gini = 0.0\nsamples = 2\nvalue = [0, 0, 0, 0, 0, 0, 0, 0, 0, 0, 0, 0, 0, 0\n0, 0, 0, 2]\nclass = Bug", fillcolor="#e54739"] ;
150 -> 154 ;
155 [label="gini = 0.0\nsamples = 1\nvalue = [0, 0, 0, 0, 0, 0, 0, 0, 0, 0, 0, 0, 1, 0\n0, 0, 0, 0]\nclass = Water", fillcolor="#8139e5"] ;
149 -> 155 ;
156 [label="gini = 0.0\nsamples = 2\nvalue = [0, 0, 0, 2, 0, 0, 0, 0, 0, 0, 0, 0, 0, 0\n0, 0, 0, 0]\nclass = Grass", fillcolor="#9de539"] ;
114 -> 156 ;
157 [label="HP <= 53.5\ngini = 0.899\nsamples = 97\nvalue = [5, 4, 7, 6, 2, 1, 10, 1, 1, 11, 1, 2, 17, 11\n0, 2, 3, 13]\nclass = Water", fillcolor="#f9f6fe"] ;
113 -> 157 ;
158 [label="Sp. Atk <= 56.5\ngini = 0.902\nsamples = 55\nvalue = [4, 2, 5, 5, 0, 1, 8, 0, 1, 5, 1, 1, 3, 6\n0, 2, 2, 9]\nclass = Bug", fillcolor="#fefbfb"] ;
157 -> 158 ;
159 [label="Speed <= 31.0\ngini = 0.908\nsamples = 49\nvalue = [4, 2, 5, 5, 0, 1, 4, 0, 1, 5, 1, 1, 3, 5\n0, 2, 2, 8]\nclass = Bug", fillcolor="#fdf2f2"] ;
158 -> 159 ;
160 [label="gini = 0.0\nsamples = 2\nvalue = [2, 0, 0, 0, 0, 0, 0, 0, 0, 0, 0, 0, 0, 0\n0, 0, 0, 0]\nclass = Grass", fillcolor="#e58139"] ;
159 -> 160 ;
161 [label="Sp. Def <= 51.0\ngini = 0.905\nsamples = 47\nvalue = [2, 2, 5, 5, 0, 1, 4, 0, 1, 5, 1, 1, 3, 5\n0, 2, 2, 8]\nclass = Bug", fillcolor="#fdf2f1"] ;
159 -> 161 ;
162 [label="Defense <= 34.5\ngini = 0.896\nsamples = 41\nvalue = [2, 2, 4, 5, 0, 1, 4, 0, 0, 5, 1, 1, 3, 2\n0, 1, 2, 8]\nclass = Bug", fillcolor="#fdf0ee"] ;
161 -> 162 ;
163 [label="HP <= 42.5\ngini = 0.56\nsamples = 5\nvalue = [0, 0, 1, 3, 0, 0, 0, 0, 0, 1, 0, 0, 0, 0\n0, 0, 0, 0]\nclass = Grass", fillcolor="#cef29c"] ;
162 -> 163 ;
164 [label="Sp. Atk <= 42.5\ngini = 0.5\nsamples = 2\nvalue = [0, 0, 1, 0, 0, 0, 0, 0, 0, 1, 0, 0, 0, 0\n0, 0, 0, 0]\nclass = Grass", fillcolor="#ffffff"] ;
163 -> 164 ;
165 [label="gini = 0.0\nsamples = 1\nvalue = [0, 0, 1, 0, 0, 0, 0, 0, 0, 0, 0, 0, 0, 0\n0, 0, 0, 0]\nclass = Grass", fillcolor="#d7e539"] ;
164 -> 165 ;
166 [label="gini = 0.0\nsamples = 1\nvalue = [0, 0, 0, 0, 0, 0, 0, 0, 0, 1, 0, 0, 0, 0\n0, 0, 0, 0]\nclass = Water", fillcolor="#399de5"] ;
164 -> 166 ;
167 [label="gini = 0.0\nsamples = 3\nvalue = [0, 0, 0, 3, 0, 0, 0, 0, 0, 0, 0, 0, 0, 0\n0, 0, 0, 0]\nclass = Grass", fillcolor="#9de539"] ;
163 -> 167 ;
168 [label="HP <= 37.5\ngini = 0.894\nsamples = 36\nvalue = [2, 2, 3, 2, 0, 1, 4, 0, 0, 4, 1, 1, 3, 2\n0, 1, 2, 8]\nclass = Bug", fillcolor="#fce8e6"] ;
162 -> 168 ;
169 [label="gini = 0.0\nsamples = 2\nvalue = [0, 0, 0, 2, 0, 0, 0, 0, 0, 0, 0, 0, 0, 0\n0, 0, 0, 0]\nclass = Grass", fillcolor="#9de539"] ;
168 -> 169 ;
170 [label="Defense <= 54.5\ngini = 0.884\nsamples = 34\nvalue = [2, 2, 3, 0, 0, 1, 4, 0, 0, 4, 1, 1, 3, 2\n0, 1, 2, 8]\nclass = Bug", fillcolor="#fce6e5"] ;
168 -> 170 ;
171 [label="gini = 0.872\nsamples = 27\nvalue = [2, 2, 1, 0, 0, 0, 4, 0, 0, 4, 1, 1, 3, 2\n0, 1, 0, 6]\nclass = Bug", fillcolor="#fdefee"] ;
170 -> 171 ;
172 [label="gini = 0.735\nsamples = 7\nvalue = [0, 0, 2, 0, 0, 1, 0, 0, 0, 0, 0, 0, 0, 0\n0, 0, 2, 2]\nclass = Grass", fillcolor="#ffffff"] ;
170 -> 172 ;
173 [label="Sp. Atk <= 46.5\ngini = 0.667\nsamples = 6\nvalue = [0, 0, 1, 0, 0, 0, 0, 0, 1, 0, 0, 0, 0, 3\n0, 1, 0, 0]\nclass = Bug", fillcolor="#e3b0f5"] ;
161 -> 173 ;
174 [label="Sp. Atk <= 39.5\ngini = 0.375\nsamples = 4\nvalue = [0, 0, 0, 0, 0, 0, 0, 0, 0, 0, 0, 0, 0, 3\n0, 1, 0, 0]\nclass = Bug", fillcolor="#d17bee"] ;
173 -> 174 ;
175 [label="gini = 0.0\nsamples = 1\nvalue = [0, 0, 0, 0, 0, 0, 0, 0, 0, 0, 0, 0, 0, 0\n0, 1, 0, 0]\nclass = Bug", fillcolor="#e5399d"] ;
174 -> 175 ;
176 [label="gini = 0.0\nsamples = 3\nvalue = [0, 0, 0, 0, 0, 0, 0, 0, 0, 0, 0, 0, 0, 3\n0, 0, 0, 0]\nclass = Bug", fillcolor="#ba39e5"] ;
174 -> 176 ;
177 [label="Sp. Def <= 67.5\ngini = 0.5\nsamples = 2\nvalue = [0, 0, 1, 0, 0, 0, 0, 0, 1, 0, 0, 0, 0, 0\n0, 0, 0, 0]\nclass = Grass", fillcolor="#ffffff"] ;
173 -> 177 ;
178 [label="gini = 0.0\nsamples = 1\nvalue = [0, 0, 0, 0, 0, 0, 0, 0, 1, 0, 0, 0, 0, 0\n0, 0, 0, 0]\nclass = Fire", fillcolor="#39d7e5"] ;
177 -> 178 ;
179 [label="gini = 0.0\nsamples = 1\nvalue = [0, 0, 1, 0, 0, 0, 0, 0, 0, 0, 0, 0, 0, 0\n0, 0, 0, 0]\nclass = Grass", fillcolor="#d7e539"] ;
177 -> 179 ;
180 [label="HP <= 47.5\ngini = 0.5\nsamples = 6\nvalue = [0, 0, 0, 0, 0, 0, 4, 0, 0, 0, 0, 0, 0, 1\n0, 0, 0, 1]\nclass = Fire", fillcolor="#88efb3"] ;
158 -> 180 ;
181 [label="gini = 0.0\nsamples = 4\nvalue = [0, 0, 0, 0, 0, 0, 4, 0, 0, 0, 0, 0, 0, 0\n0, 0, 0, 0]\nclass = Fire", fillcolor="#39e581"] ;
180 -> 181 ;
182 [label="Speed <= 37.0\ngini = 0.5\nsamples = 2\nvalue = [0, 0, 0, 0, 0, 0, 0, 0, 0, 0, 0, 0, 0, 1\n0, 0, 0, 1]\nclass = Bug", fillcolor="#ffffff"] ;
180 -> 182 ;
183 [label="gini = 0.0\nsamples = 1\nvalue = [0, 0, 0, 0, 0, 0, 0, 0, 0, 0, 0, 0, 0, 1\n0, 0, 0, 0]\nclass = Bug", fillcolor="#ba39e5"] ;
182 -> 183 ;
184 [label="gini = 0.0\nsamples = 1\nvalue = [0, 0, 0, 0, 0, 0, 0, 0, 0, 0, 0, 0, 0, 0\n0, 0, 0, 1]\nclass = Bug", fillcolor="#e54739"] ;
182 -> 184 ;
185 [label="HP <= 79.0\ngini = 0.833\nsamples = 42\nvalue = [1, 2, 2, 1, 2, 0, 2, 1, 0, 6, 0, 1, 14, 5\n0, 0, 1, 4]\nclass = Water", fillcolor="#e3d3f9"] ;
157 -> 185 ;
186 [label="Speed <= 47.5\ngini = 0.826\nsamples = 40\nvalue = [1, 2, 2, 1, 2, 0, 2, 1, 0, 6, 0, 1, 14, 3\n0, 0, 1, 4]\nclass = Water", fillcolor="#e1d0f9"] ;
185 -> 186 ;
187 [label="Defense <= 52.5\ngini = 0.819\nsamples = 12\nvalue = [1, 0, 1, 0, 1, 0, 1, 0, 0, 4, 0, 1, 2, 0\n0, 0, 1, 0]\nclass = Water", fillcolor="#d7ebfa"] ;
186 -> 187 ;
188 [label="Sp. Atk <= 47.5\ngini = 0.864\nsamples = 9\nvalue = [1, 0, 1, 0, 1, 0, 1, 0, 0, 1, 0, 1, 2, 0\n0, 0, 1, 0]\nclass = Water", fillcolor="#efe6fc"] ;
187 -> 188 ;
189 [label="HP <= 59.0\ngini = 0.8\nsamples = 5\nvalue = [1, 0, 1, 0, 1, 0, 1, 0, 0, 0, 0, 0, 0, 0\n0, 0, 1, 0]\nclass = Grass", fillcolor="#ffffff"] ;
188 -> 189 ;
190 [label="gini = 0.0\nsamples = 1\nvalue = [0, 0, 1, 0, 0, 0, 0, 0, 0, 0, 0, 0, 0, 0\n0, 0, 0, 0]\nclass = Grass", fillcolor="#d7e539"] ;
189 -> 190 ;
191 [label="Attack <= 59.0\ngini = 0.75\nsamples = 4\nvalue = [1, 0, 0, 0, 1, 0, 1, 0, 0, 0, 0, 0, 0, 0\n0, 0, 1, 0]\nclass = Grass", fillcolor="#ffffff"] ;
189 -> 191 ;
192 [label="gini = 0.0\nsamples = 1\nvalue = [1, 0, 0, 0, 0, 0, 0, 0, 0, 0, 0, 0, 0, 0\n0, 0, 0, 0]\nclass = Grass", fillcolor="#e58139"] ;
191 -> 192 ;
193 [label="gini = 0.667\nsamples = 3\nvalue = [0, 0, 0, 0, 1, 0, 1, 0, 0, 0, 0, 0, 0, 0\n0, 0, 1, 0]\nclass = Fire", fillcolor="#ffffff"] ;
191 -> 193 ;
194 [label="Sp. Atk <= 53.0\ngini = 0.625\nsamples = 4\nvalue = [0, 0, 0, 0, 0, 0, 0, 0, 0, 1, 0, 1, 2, 0\n0, 0, 0, 0]\nclass = Water", fillcolor="#d5bdf6"] ;
188 -> 194 ;
195 [label="gini = 0.0\nsamples = 2\nvalue = [0, 0, 0, 0, 0, 0, 0, 0, 0, 0, 0, 0, 2, 0\n0, 0, 0, 0]\nclass = Water", fillcolor="#8139e5"] ;
194 -> 195 ;
196 [label="Speed <= 27.5\ngini = 0.5\nsamples = 2\nvalue = [0, 0, 0, 0, 0, 0, 0, 0, 0, 1, 0, 1, 0, 0\n0, 0, 0, 0]\nclass = Water", fillcolor="#ffffff"] ;
194 -> 196 ;
197 [label="gini = 0.0\nsamples = 1\nvalue = [0, 0, 0, 0, 0, 0, 0, 0, 0, 1, 0, 0, 0, 0\n0, 0, 0, 0]\nclass = Water", fillcolor="#399de5"] ;
196 -> 197 ;
198 [label="gini = 0.0\nsamples = 1\nvalue = [0, 0, 0, 0, 0, 0, 0, 0, 0, 0, 0, 1, 0, 0\n0, 0, 0, 0]\nclass = Water", fillcolor="#4739e5"] ;
196 -> 198 ;
199 [label="gini = 0.0\nsamples = 3\nvalue = [0, 0, 0, 0, 0, 0, 0, 0, 0, 3, 0, 0, 0, 0\n0, 0, 0, 0]\nclass = Water", fillcolor="#399de5"] ;
187 -> 199 ;
200 [label="Sp. Atk <= 55.5\ngini = 0.768\nsamples = 28\nvalue = [0, 2, 1, 1, 1, 0, 1, 1, 0, 2, 0, 0, 12, 3\n0, 0, 0, 4]\nclass = Water", fillcolor="#d5bdf6"] ;
186 -> 200 ;
201 [label="Sp. Def <= 73.5\ngini = 0.68\nsamples = 21\nvalue = [0, 2, 0, 1, 1, 0, 0, 1, 0, 0, 0, 0, 11, 3\n0, 0, 0, 2]\nclass = Water", fillcolor="#c7a7f3"] ;
200 -> 201 ;
202 [label="Attack <= 61.0\ngini = 0.65\nsamples = 20\nvalue = [0, 2, 0, 1, 0, 0, 0, 1, 0, 0, 0, 0, 11, 3\n0, 0, 0, 2]\nclass = Water", fillcolor="#c4a2f3"] ;
201 -> 202 ;
203 [label="gini = 0.0\nsamples = 4\nvalue = [0, 0, 0, 0, 0, 0, 0, 0, 0, 0, 0, 0, 4, 0\n0, 0, 0, 0]\nclass = Water", fillcolor="#8139e5"] ;
202 -> 203 ;
204 [label="Attack <= 64.0\ngini = 0.734\nsamples = 16\nvalue = [0, 2, 0, 1, 0, 0, 0, 1, 0, 0, 0, 0, 7, 3\n0, 0, 0, 2]\nclass = Water", fillcolor="#d8c2f7"] ;
202 -> 204 ;
205 [label="gini = 0.0\nsamples = 2\nvalue = [0, 0, 0, 0, 0, 0, 0, 0, 0, 0, 0, 0, 0, 2\n0, 0, 0, 0]\nclass = Bug", fillcolor="#ba39e5"] ;
204 -> 205 ;
206 [label="gini = 0.694\nsamples = 14\nvalue = [0, 2, 0, 1, 0, 0, 0, 1, 0, 0, 0, 0, 7, 1\n0, 0, 0, 2]\nclass = Water", fillcolor="#caacf4"] ;
204 -> 206 ;
207 [label="gini = 0.0\nsamples = 1\nvalue = [0, 0, 0, 0, 1, 0, 0, 0, 0, 0, 0, 0, 0, 0\n0, 0, 0, 0]\nclass = Fire", fillcolor="#64e539"] ;
201 -> 207 ;
208 [label="Attack <= 67.5\ngini = 0.776\nsamples = 7\nvalue = [0, 0, 1, 0, 0, 0, 1, 0, 0, 2, 0, 0, 1, 0\n0, 0, 0, 2]\nclass = Water", fillcolor="#ffffff"] ;
200 -> 208 ;
209 [label="Defense <= 55.0\ngini = 0.444\nsamples = 3\nvalue = [0, 0, 0, 0, 0, 0, 0, 0, 0, 0, 0, 0, 1, 0\n0, 0, 0, 2]\nclass = Bug", fillcolor="#f2a39c"] ;
208 -> 209 ;
210 [label="gini = 0.0\nsamples = 2\nvalue = [0, 0, 0, 0, 0, 0, 0, 0, 0, 0, 0, 0, 0, 0\n0, 0, 0, 2]\nclass = Bug", fillcolor="#e54739"] ;
209 -> 210 ;
211 [label="gini = 0.0\nsamples = 1\nvalue = [0, 0, 0, 0, 0, 0, 0, 0, 0, 0, 0, 0, 1, 0\n0, 0, 0, 0]\nclass = Water", fillcolor="#8139e5"] ;
209 -> 211 ;
212 [label="Speed <= 83.5\ngini = 0.625\nsamples = 4\nvalue = [0, 0, 1, 0, 0, 0, 1, 0, 0, 2, 0, 0, 0, 0\n0, 0, 0, 0]\nclass = Water", fillcolor="#bddef6"] ;
208 -> 212 ;
213 [label="gini = 0.0\nsamples = 2\nvalue = [0, 0, 0, 0, 0, 0, 0, 0, 0, 2, 0, 0, 0, 0\n0, 0, 0, 0]\nclass = Water", fillcolor="#399de5"] ;
212 -> 213 ;
214 [label="Speed <= 93.0\ngini = 0.5\nsamples = 2\nvalue = [0, 0, 1, 0, 0, 0, 1, 0, 0, 0, 0, 0, 0, 0\n0, 0, 0, 0]\nclass = Grass", fillcolor="#ffffff"] ;
212 -> 214 ;
215 [label="gini = 0.0\nsamples = 1\nvalue = [0, 0, 0, 0, 0, 0, 1, 0, 0, 0, 0, 0, 0, 0\n0, 0, 0, 0]\nclass = Fire", fillcolor="#39e581"] ;
214 -> 215 ;
216 [label="gini = 0.0\nsamples = 1\nvalue = [0, 0, 1, 0, 0, 0, 0, 0, 0, 0, 0, 0, 0, 0\n0, 0, 0, 0]\nclass = Grass", fillcolor="#d7e539"] ;
214 -> 216 ;
217 [label="gini = 0.0\nsamples = 2\nvalue = [0, 0, 0, 0, 0, 0, 0, 0, 0, 0, 0, 0, 0, 2\n0, 0, 0, 0]\nclass = Bug", fillcolor="#ba39e5"] ;
185 -> 217 ;
218 [label="Sp. Def <= 46.0\ngini = 0.867\nsamples = 33\nvalue = [4, 1, 1, 2, 0, 6, 1, 0, 0, 0, 4, 0, 7, 1\n0, 4, 0, 2]\nclass = Water", fillcolor="#faf8fe"] ;
112 -> 218 ;
219 [label="gini = 0.0\nsamples = 2\nvalue = [0, 0, 0, 0, 0, 0, 0, 0, 0, 0, 2, 0, 0, 0\n0, 0, 0, 0]\nclass = Water", fillcolor="#3964e5"] ;
218 -> 219 ;
220 [label="Speed <= 103.5\ngini = 0.862\nsamples = 31\nvalue = [4, 1, 1, 2, 0, 6, 1, 0, 0, 0, 2, 0, 7, 1\n0, 4, 0, 2]\nclass = Water", fillcolor="#faf7fe"] ;
218 -> 220 ;
221 [label="Sp. Def <= 50.5\ngini = 0.78\nsamples = 20\nvalue = [3, 0, 1, 2, 0, 6, 1, 0, 0, 0, 0, 0, 6, 0\n0, 1, 0, 0]\nclass = Fire", fillcolor="#ffffff"] ;
220 -> 221 ;
222 [label="Sp. Atk <= 41.0\ngini = 0.612\nsamples = 7\nvalue = [0, 0, 0, 1, 0, 4, 0, 0, 0, 0, 0, 0, 1, 0\n0, 1, 0, 0]\nclass = Fire", fillcolor="#9cf2a3"] ;
221 -> 222 ;
223 [label="Attack <= 90.0\ngini = 0.5\nsamples = 2\nvalue = [0, 0, 0, 0, 0, 0, 0, 0, 0, 0, 0, 0, 1, 0\n0, 1, 0, 0]\nclass = Water", fillcolor="#ffffff"] ;
222 -> 223 ;
224 [label="gini = 0.0\nsamples = 1\nvalue = [0, 0, 0, 0, 0, 0, 0, 0, 0, 0, 0, 0, 1, 0\n0, 0, 0, 0]\nclass = Water", fillcolor="#8139e5"] ;
223 -> 224 ;
225 [label="gini = 0.0\nsamples = 1\nvalue = [0, 0, 0, 0, 0, 0, 0, 0, 0, 0, 0, 0, 0, 0\n0, 1, 0, 0]\nclass = Bug", fillcolor="#e5399d"] ;
223 -> 225 ;
226 [label="Sp. Atk <= 57.5\ngini = 0.32\nsamples = 5\nvalue = [0, 0, 0, 1, 0, 4, 0, 0, 0, 0, 0, 0, 0, 0\n0, 0, 0, 0]\nclass = Fire", fillcolor="#6aec75"] ;
222 -> 226 ;
227 [label="gini = 0.0\nsamples = 4\nvalue = [0, 0, 0, 0, 0, 4, 0, 0, 0, 0, 0, 0, 0, 0\n0, 0, 0, 0]\nclass = Fire", fillcolor="#39e547"] ;
226 -> 227 ;
228 [label="gini = 0.0\nsamples = 1\nvalue = [0, 0, 0, 1, 0, 0, 0, 0, 0, 0, 0, 0, 0, 0\n0, 0, 0, 0]\nclass = Grass", fillcolor="#9de539"] ;
226 -> 228 ;
229 [label="Defense <= 53.0\ngini = 0.757\nsamples = 13\nvalue = [3, 0, 1, 1, 0, 2, 1, 0, 0, 0, 0, 0, 5, 0\n0, 0, 0, 0]\nclass = Water", fillcolor="#e6d7fa"] ;
221 -> 229 ;
230 [label="gini = 0.0\nsamples = 2\nvalue = [2, 0, 0, 0, 0, 0, 0, 0, 0, 0, 0, 0, 0, 0\n0, 0, 0, 0]\nclass = Grass", fillcolor="#e58139"] ;
229 -> 230 ;
231 [label="Sp. Def <= 57.5\ngini = 0.727\nsamples = 11\nvalue = [1, 0, 1, 1, 0, 2, 1, 0, 0, 0, 0, 0, 5, 0\n0, 0, 0, 0]\nclass = Water", fillcolor="#d5bdf6"] ;
229 -> 231 ;
232 [label="Defense <= 60.0\ngini = 0.5\nsamples = 2\nvalue = [1, 0, 1, 0, 0, 0, 0, 0, 0, 0, 0, 0, 0, 0\n0, 0, 0, 0]\nclass = Grass", fillcolor="#ffffff"] ;
231 -> 232 ;
233 [label="gini = 0.0\nsamples = 1\nvalue = [1, 0, 0, 0, 0, 0, 0, 0, 0, 0, 0, 0, 0, 0\n0, 0, 0, 0]\nclass = Grass", fillcolor="#e58139"] ;
232 -> 233 ;
234 [label="gini = 0.0\nsamples = 1\nvalue = [0, 0, 1, 0, 0, 0, 0, 0, 0, 0, 0, 0, 0, 0\n0, 0, 0, 0]\nclass = Grass", fillcolor="#d7e539"] ;
232 -> 234 ;
235 [label="Attack <= 92.5\ngini = 0.617\nsamples = 9\nvalue = [0, 0, 0, 1, 0, 2, 1, 0, 0, 0, 0, 0, 5, 0\n0, 0, 0, 0]\nclass = Water", fillcolor="#c9aaf4"] ;
231 -> 235 ;
236 [label="Sp. Def <= 61.0\ngini = 0.32\nsamples = 5\nvalue = [0, 0, 0, 0, 0, 0, 1, 0, 0, 0, 0, 0, 4, 0\n0, 0, 0, 0]\nclass = Water", fillcolor="#a06aec"] ;
235 -> 236 ;
237 [label="HP <= 72.0\ngini = 0.5\nsamples = 2\nvalue = [0, 0, 0, 0, 0, 0, 1, 0, 0, 0, 0, 0, 1, 0\n0, 0, 0, 0]\nclass = Fire", fillcolor="#ffffff"] ;
236 -> 237 ;
238 [label="gini = 0.0\nsamples = 1\nvalue = [0, 0, 0, 0, 0, 0, 1, 0, 0, 0, 0, 0, 0, 0\n0, 0, 0, 0]\nclass = Fire", fillcolor="#39e581"] ;
237 -> 238 ;
239 [label="gini = 0.0\nsamples = 1\nvalue = [0, 0, 0, 0, 0, 0, 0, 0, 0, 0, 0, 0, 1, 0\n0, 0, 0, 0]\nclass = Water", fillcolor="#8139e5"] ;
237 -> 239 ;
240 [label="gini = 0.0\nsamples = 3\nvalue = [0, 0, 0, 0, 0, 0, 0, 0, 0, 0, 0, 0, 3, 0\n0, 0, 0, 0]\nclass = Water", fillcolor="#8139e5"] ;
236 -> 240 ;
241 [label="Defense <= 61.5\ngini = 0.625\nsamples = 4\nvalue = [0, 0, 0, 1, 0, 2, 0, 0, 0, 0, 0, 0, 1, 0\n0, 0, 0, 0]\nclass = Fire", fillcolor="#bdf6c2"] ;
235 -> 241 ;
242 [label="Sp. Def <= 61.0\ngini = 0.444\nsamples = 3\nvalue = [0, 0, 0, 0, 0, 2, 0, 0, 0, 0, 0, 0, 1, 0\n0, 0, 0, 0]\nclass = Fire", fillcolor="#9cf2a3"] ;
241 -> 242 ;
243 [label="gini = 0.0\nsamples = 1\nvalue = [0, 0, 0, 0, 0, 0, 0, 0, 0, 0, 0, 0, 1, 0\n0, 0, 0, 0]\nclass = Water", fillcolor="#8139e5"] ;
242 -> 243 ;
244 [label="gini = 0.0\nsamples = 2\nvalue = [0, 0, 0, 0, 0, 2, 0, 0, 0, 0, 0, 0, 0, 0\n0, 0, 0, 0]\nclass = Fire", fillcolor="#39e547"] ;
242 -> 244 ;
245 [label="gini = 0.0\nsamples = 1\nvalue = [0, 0, 0, 1, 0, 0, 0, 0, 0, 0, 0, 0, 0, 0\n0, 0, 0, 0]\nclass = Grass", fillcolor="#9de539"] ;
241 -> 245 ;
246 [label="HP <= 72.5\ngini = 0.826\nsamples = 11\nvalue = [1, 1, 0, 0, 0, 0, 0, 0, 0, 0, 2, 0, 1, 1\n0, 3, 0, 2]\nclass = Bug", fillcolor="#fce9f4"] ;
220 -> 246 ;
247 [label="Sp. Atk <= 47.5\ngini = 0.722\nsamples = 6\nvalue = [1, 1, 0, 0, 0, 0, 0, 0, 0, 0, 2, 0, 0, 0\n0, 0, 0, 2]\nclass = Water", fillcolor="#ffffff"] ;
246 -> 247 ;
248 [label="gini = 0.0\nsamples = 1\nvalue = [0, 1, 0, 0, 0, 0, 0, 0, 0, 0, 0, 0, 0, 0\n0, 0, 0, 0]\nclass = Grass", fillcolor="#e5ba39"] ;
247 -> 248 ;
249 [label="Defense <= 47.5\ngini = 0.64\nsamples = 5\nvalue = [1, 0, 0, 0, 0, 0, 0, 0, 0, 0, 2, 0, 0, 0\n0, 0, 0, 2]\nclass = Water", fillcolor="#ffffff"] ;
247 -> 249 ;
250 [label="gini = 0.0\nsamples = 1\nvalue = [1, 0, 0, 0, 0, 0, 0, 0, 0, 0, 0, 0, 0, 0\n0, 0, 0, 0]\nclass = Grass", fillcolor="#e58139"] ;
249 -> 250 ;
251 [label="Attack <= 111.5\ngini = 0.5\nsamples = 4\nvalue = [0, 0, 0, 0, 0, 0, 0, 0, 0, 0, 2, 0, 0, 0\n0, 0, 0, 2]\nclass = Water", fillcolor="#ffffff"] ;
249 -> 251 ;
252 [label="Speed <= 115.0\ngini = 0.444\nsamples = 3\nvalue = [0, 0, 0, 0, 0, 0, 0, 0, 0, 0, 2, 0, 0, 0\n0, 0, 0, 1]\nclass = Water", fillcolor="#9cb2f2"] ;
251 -> 252 ;
253 [label="gini = 0.0\nsamples = 1\nvalue = [0, 0, 0, 0, 0, 0, 0, 0, 0, 0, 1, 0, 0, 0\n0, 0, 0, 0]\nclass = Water", fillcolor="#3964e5"] ;
252 -> 253 ;
254 [label="gini = 0.5\nsamples = 2\nvalue = [0, 0, 0, 0, 0, 0, 0, 0, 0, 0, 1, 0, 0, 0\n0, 0, 0, 1]\nclass = Water", fillcolor="#ffffff"] ;
252 -> 254 ;
255 [label="gini = 0.0\nsamples = 1\nvalue = [0, 0, 0, 0, 0, 0, 0, 0, 0, 0, 0, 0, 0, 0\n0, 0, 0, 1]\nclass = Bug", fillcolor="#e54739"] ;
251 -> 255 ;
256 [label="Attack <= 102.5\ngini = 0.56\nsamples = 5\nvalue = [0, 0, 0, 0, 0, 0, 0, 0, 0, 0, 0, 0, 1, 1\n0, 3, 0, 0]\nclass = Bug", fillcolor="#f29cce"] ;
246 -> 256 ;
257 [label="gini = 0.0\nsamples = 1\nvalue = [0, 0, 0, 0, 0, 0, 0, 0, 0, 0, 0, 0, 1, 0\n0, 0, 0, 0]\nclass = Water", fillcolor="#8139e5"] ;
256 -> 257 ;
258 [label="Defense <= 62.5\ngini = 0.375\nsamples = 4\nvalue = [0, 0, 0, 0, 0, 0, 0, 0, 0, 0, 0, 0, 0, 1\n0, 3, 0, 0]\nclass = Bug", fillcolor="#ee7bbe"] ;
256 -> 258 ;
259 [label="gini = 0.0\nsamples = 1\nvalue = [0, 0, 0, 0, 0, 0, 0, 0, 0, 0, 0, 0, 0, 1\n0, 0, 0, 0]\nclass = Bug", fillcolor="#ba39e5"] ;
258 -> 259 ;
260 [label="gini = 0.0\nsamples = 3\nvalue = [0, 0, 0, 0, 0, 0, 0, 0, 0, 0, 0, 0, 0, 0\n0, 3, 0, 0]\nclass = Bug", fillcolor="#e5399d"] ;
258 -> 260 ;
261 [label="Speed <= 87.5\ngini = 0.895\nsamples = 84\nvalue = [19, 7, 3, 1, 1, 5, 1, 1, 7, 10, 6, 1, 7, 3\n0, 4, 4, 4]\nclass = Grass", fillcolor="#fcf0e7"] ;
45 -> 261 ;
262 [label="Speed <= 56.5\ngini = 0.89\nsamples = 69\nvalue = [16, 7, 2, 0, 1, 5, 1, 1, 6, 8, 6, 1, 1, 3\n0, 4, 3, 4]\nclass = Grass", fillcolor="#fceee5"] ;
261 -> 262 ;
263 [label="Sp. Def <= 67.5\ngini = 0.853\nsamples = 42\nvalue = [12, 1, 1, 0, 0, 1, 0, 0, 6, 3, 6, 1, 1, 1\n0, 4, 3, 2]\nclass = Grass", fillcolor="#fbeade"] ;
262 -> 263 ;
264 [label="Sp. Atk <= 42.0\ngini = 0.852\nsamples = 28\nvalue = [5, 0, 0, 0, 0, 1, 0, 0, 5, 3, 6, 1, 0, 1\n0, 3, 3, 0]\nclass = Water", fillcolor="#f6f8fe"] ;
263 -> 264 ;
265 [label="HP <= 51.0\ngini = 0.724\nsamples = 14\nvalue = [5, 0, 0, 0, 0, 0, 0, 0, 0, 1, 5, 1, 0, 0\n0, 1, 1, 0]\nclass = Grass", fillcolor="#ffffff"] ;
264 -> 265 ;
266 [label="Speed <= 37.5\ngini = 0.617\nsamples = 9\nvalue = [5, 0, 0, 0, 0, 0, 0, 0, 0, 1, 2, 0, 0, 0\n0, 0, 1, 0]\nclass = Grass", fillcolor="#f4c9aa"] ;
265 -> 266 ;
267 [label="Speed <= 27.5\ngini = 0.722\nsamples = 6\nvalue = [2, 0, 0, 0, 0, 0, 0, 0, 0, 1, 2, 0, 0, 0\n0, 0, 1, 0]\nclass = Grass", fillcolor="#ffffff"] ;
266 -> 267 ;
268 [label="Defense <= 82.5\ngini = 0.444\nsamples = 3\nvalue = [2, 0, 0, 0, 0, 0, 0, 0, 0, 1, 0, 0, 0, 0\n0, 0, 0, 0]\nclass = Grass", fillcolor="#f2c09c"] ;
267 -> 268 ;
269 [label="gini = 0.0\nsamples = 1\nvalue = [0, 0, 0, 0, 0, 0, 0, 0, 0, 1, 0, 0, 0, 0\n0, 0, 0, 0]\nclass = Water", fillcolor="#399de5"] ;
268 -> 269 ;
270 [label="gini = 0.0\nsamples = 2\nvalue = [2, 0, 0, 0, 0, 0, 0, 0, 0, 0, 0, 0, 0, 0\n0, 0, 0, 0]\nclass = Grass", fillcolor="#e58139"] ;
268 -> 270 ;
271 [label="Defense <= 82.5\ngini = 0.444\nsamples = 3\nvalue = [0, 0, 0, 0, 0, 0, 0, 0, 0, 0, 2, 0, 0, 0\n0, 0, 1, 0]\nclass = Water", fillcolor="#9cb2f2"] ;
267 -> 271 ;
272 [label="gini = 0.0\nsamples = 1\nvalue = [0, 0, 0, 0, 0, 0, 0, 0, 0, 0, 0, 0, 0, 0\n0, 0, 1, 0]\nclass = Bug", fillcolor="#e53964"] ;
271 -> 272 ;
273 [label="gini = 0.0\nsamples = 2\nvalue = [0, 0, 0, 0, 0, 0, 0, 0, 0, 0, 2, 0, 0, 0\n0, 0, 0, 0]\nclass = Water", fillcolor="#3964e5"] ;
271 -> 273 ;
274 [label="gini = 0.0\nsamples = 3\nvalue = [3, 0, 0, 0, 0, 0, 0, 0, 0, 0, 0, 0, 0, 0\n0, 0, 0, 0]\nclass = Grass", fillcolor="#e58139"] ;
266 -> 274 ;
275 [label="Attack <= 56.0\ngini = 0.56\nsamples = 5\nvalue = [0, 0, 0, 0, 0, 0, 0, 0, 0, 0, 3, 1, 0, 0\n0, 1, 0, 0]\nclass = Water", fillcolor="#9cb2f2"] ;
265 -> 275 ;
276 [label="gini = 0.0\nsamples = 1\nvalue = [0, 0, 0, 0, 0, 0, 0, 0, 0, 0, 0, 0, 0, 0\n0, 1, 0, 0]\nclass = Bug", fillcolor="#e5399d"] ;
275 -> 276 ;
277 [label="HP <= 61.5\ngini = 0.375\nsamples = 4\nvalue = [0, 0, 0, 0, 0, 0, 0, 0, 0, 0, 3, 1, 0, 0\n0, 0, 0, 0]\nclass = Water", fillcolor="#7b98ee"] ;
275 -> 277 ;
278 [label="Speed <= 37.0\ngini = 0.5\nsamples = 2\nvalue = [0, 0, 0, 0, 0, 0, 0, 0, 0, 0, 1, 1, 0, 0\n0, 0, 0, 0]\nclass = Water", fillcolor="#ffffff"] ;
277 -> 278 ;
279 [label="gini = 0.0\nsamples = 1\nvalue = [0, 0, 0, 0, 0, 0, 0, 0, 0, 0, 0, 1, 0, 0\n0, 0, 0, 0]\nclass = Water", fillcolor="#4739e5"] ;
278 -> 279 ;
280 [label="gini = 0.0\nsamples = 1\nvalue = [0, 0, 0, 0, 0, 0, 0, 0, 0, 0, 1, 0, 0, 0\n0, 0, 0, 0]\nclass = Water", fillcolor="#3964e5"] ;
278 -> 280 ;
281 [label="gini = 0.0\nsamples = 2\nvalue = [0, 0, 0, 0, 0, 0, 0, 0, 0, 0, 2, 0, 0, 0\n0, 0, 0, 0]\nclass = Water", fillcolor="#3964e5"] ;
277 -> 281 ;
282 [label="Sp. Atk <= 44.5\ngini = 0.796\nsamples = 14\nvalue = [0, 0, 0, 0, 0, 1, 0, 0, 5, 2, 1, 0, 0, 1\n0, 2, 2, 0]\nclass = Fire", fillcolor="#cef5f8"] ;
264 -> 282 ;
283 [label="gini = 0.0\nsamples = 4\nvalue = [0, 0, 0, 0, 0, 0, 0, 0, 4, 0, 0, 0, 0, 0\n0, 0, 0, 0]\nclass = Fire", fillcolor="#39d7e5"] ;
282 -> 283 ;
284 [label="HP <= 59.0\ngini = 0.84\nsamples = 10\nvalue = [0, 0, 0, 0, 0, 1, 0, 0, 1, 2, 1, 0, 0, 1\n0, 2, 2, 0]\nclass = Water", fillcolor="#ffffff"] ;
282 -> 284 ;
285 [label="Sp. Def <= 50.0\ngini = 0.722\nsamples = 6\nvalue = [0, 0, 0, 0, 0, 0, 0, 0, 1, 0, 0, 0, 0, 1\n0, 2, 2, 0]\nclass = Bug", fillcolor="#ffffff"] ;
284 -> 285 ;
286 [label="Sp. Atk <= 57.5\ngini = 0.444\nsamples = 3\nvalue = [0, 0, 0, 0, 0, 0, 0, 0, 0, 0, 0, 0, 0, 1\n0, 2, 0, 0]\nclass = Bug", fillcolor="#f29cce"] ;
285 -> 286 ;
287 [label="gini = 0.0\nsamples = 2\nvalue = [0, 0, 0, 0, 0, 0, 0, 0, 0, 0, 0, 0, 0, 0\n0, 2, 0, 0]\nclass = Bug", fillcolor="#e5399d"] ;
286 -> 287 ;
288 [label="gini = 0.0\nsamples = 1\nvalue = [0, 0, 0, 0, 0, 0, 0, 0, 0, 0, 0, 0, 0, 1\n0, 0, 0, 0]\nclass = Bug", fillcolor="#ba39e5"] ;
286 -> 288 ;
289 [label="HP <= 39.0\ngini = 0.444\nsamples = 3\nvalue = [0, 0, 0, 0, 0, 0, 0, 0, 1, 0, 0, 0, 0, 0\n0, 0, 2, 0]\nclass = Bug", fillcolor="#f29cb2"] ;
285 -> 289 ;
290 [label="gini = 0.0\nsamples = 1\nvalue = [0, 0, 0, 0, 0, 0, 0, 0, 1, 0, 0, 0, 0, 0\n0, 0, 0, 0]\nclass = Fire", fillcolor="#39d7e5"] ;
289 -> 290 ;
291 [label="gini = 0.0\nsamples = 2\nvalue = [0, 0, 0, 0, 0, 0, 0, 0, 0, 0, 0, 0, 0, 0\n0, 0, 2, 0]\nclass = Bug", fillcolor="#e53964"] ;
289 -> 291 ;
292 [label="Attack <= 94.5\ngini = 0.625\nsamples = 4\nvalue = [0, 0, 0, 0, 0, 1, 0, 0, 0, 2, 1, 0, 0, 0\n0, 0, 0, 0]\nclass = Water", fillcolor="#bddef6"] ;
284 -> 292 ;
293 [label="gini = 0.0\nsamples = 2\nvalue = [0, 0, 0, 0, 0, 0, 0, 0, 0, 2, 0, 0, 0, 0\n0, 0, 0, 0]\nclass = Water", fillcolor="#399de5"] ;
292 -> 293 ;
294 [label="Sp. Atk <= 47.5\ngini = 0.5\nsamples = 2\nvalue = [0, 0, 0, 0, 0, 1, 0, 0, 0, 0, 1, 0, 0, 0\n0, 0, 0, 0]\nclass = Fire", fillcolor="#ffffff"] ;
292 -> 294 ;
295 [label="gini = 0.0\nsamples = 1\nvalue = [0, 0, 0, 0, 0, 0, 0, 0, 0, 0, 1, 0, 0, 0\n0, 0, 0, 0]\nclass = Water", fillcolor="#3964e5"] ;
294 -> 295 ;
296 [label="gini = 0.0\nsamples = 1\nvalue = [0, 0, 0, 0, 0, 1, 0, 0, 0, 0, 0, 0, 0, 0\n0, 0, 0, 0]\nclass = Fire", fillcolor="#39e547"] ;
294 -> 296 ;
297 [label="Speed <= 47.5\ngini = 0.704\nsamples = 14\nvalue = [7, 1, 1, 0, 0, 0, 0, 0, 1, 0, 0, 0, 1, 0\n0, 1, 0, 2]\nclass = Grass", fillcolor="#f4caac"] ;
263 -> 297 ;
298 [label="Sp. Def <= 105.0\ngini = 0.48\nsamples = 10\nvalue = [7, 0, 0, 0, 0, 0, 0, 0, 1, 0, 0, 0, 1, 0\n0, 0, 0, 1]\nclass = Grass", fillcolor="#eeab7b"] ;
297 -> 298 ;
299 [label="Sp. Atk <= 35.0\ngini = 0.219\nsamples = 8\nvalue = [7, 0, 0, 0, 0, 0, 0, 0, 1, 0, 0, 0, 0, 0\n0, 0, 0, 0]\nclass = Grass", fillcolor="#e99355"] ;
298 -> 299 ;
300 [label="gini = 0.0\nsamples = 1\nvalue = [0, 0, 0, 0, 0, 0, 0, 0, 1, 0, 0, 0, 0, 0\n0, 0, 0, 0]\nclass = Fire", fillcolor="#39d7e5"] ;
299 -> 300 ;
301 [label="gini = 0.0\nsamples = 7\nvalue = [7, 0, 0, 0, 0, 0, 0, 0, 0, 0, 0, 0, 0, 0\n0, 0, 0, 0]\nclass = Grass", fillcolor="#e58139"] ;
299 -> 301 ;
302 [label="Speed <= 41.0\ngini = 0.5\nsamples = 2\nvalue = [0, 0, 0, 0, 0, 0, 0, 0, 0, 0, 0, 0, 1, 0\n0, 0, 0, 1]\nclass = Water", fillcolor="#ffffff"] ;
298 -> 302 ;
303 [label="gini = 0.0\nsamples = 1\nvalue = [0, 0, 0, 0, 0, 0, 0, 0, 0, 0, 0, 0, 1, 0\n0, 0, 0, 0]\nclass = Water", fillcolor="#8139e5"] ;
302 -> 303 ;
304 [label="gini = 0.0\nsamples = 1\nvalue = [0, 0, 0, 0, 0, 0, 0, 0, 0, 0, 0, 0, 0, 0\n0, 0, 0, 1]\nclass = Bug", fillcolor="#e54739"] ;
302 -> 304 ;
305 [label="HP <= 60.0\ngini = 0.75\nsamples = 4\nvalue = [0, 1, 1, 0, 0, 0, 0, 0, 0, 0, 0, 0, 0, 0\n0, 1, 0, 1]\nclass = Grass", fillcolor="#ffffff"] ;
297 -> 305 ;
306 [label="gini = 0.0\nsamples = 1\nvalue = [0, 1, 0, 0, 0, 0, 0, 0, 0, 0, 0, 0, 0, 0\n0, 0, 0, 0]\nclass = Grass", fillcolor="#e5ba39"] ;
305 -> 306 ;
307 [label="Sp. Def <= 80.0\ngini = 0.667\nsamples = 3\nvalue = [0, 0, 1, 0, 0, 0, 0, 0, 0, 0, 0, 0, 0, 0\n0, 1, 0, 1]\nclass = Grass", fillcolor="#ffffff"] ;
305 -> 307 ;
308 [label="Attack <= 72.5\ngini = 0.5\nsamples = 2\nvalue = [0, 0, 0, 0, 0, 0, 0, 0, 0, 0, 0, 0, 0, 0\n0, 1, 0, 1]\nclass = Bug", fillcolor="#ffffff"] ;
307 -> 308 ;
309 [label="gini = 0.0\nsamples = 1\nvalue = [0, 0, 0, 0, 0, 0, 0, 0, 0, 0, 0, 0, 0, 0\n0, 1, 0, 0]\nclass = Bug", fillcolor="#e5399d"] ;
308 -> 309 ;
310 [label="gini = 0.0\nsamples = 1\nvalue = [0, 0, 0, 0, 0, 0, 0, 0, 0, 0, 0, 0, 0, 0\n0, 0, 0, 1]\nclass = Bug", fillcolor="#e54739"] ;
308 -> 310 ;
311 [label="gini = 0.0\nsamples = 1\nvalue = [0, 0, 1, 0, 0, 0, 0, 0, 0, 0, 0, 0, 0, 0\n0, 0, 0, 0]\nclass = Grass", fillcolor="#d7e539"] ;
307 -> 311 ;
312 [label="Sp. Atk <= 37.5\ngini = 0.856\nsamples = 27\nvalue = [4, 6, 1, 0, 1, 4, 1, 1, 0, 5, 0, 0, 0, 2\n0, 0, 0, 2]\nclass = Grass", fillcolor="#fefcf6"] ;
262 -> 312 ;
313 [label="Attack <= 75.0\ngini = 0.56\nsamples = 5\nvalue = [0, 0, 0, 0, 1, 3, 0, 0, 0, 0, 0, 0, 0, 1\n0, 0, 0, 0]\nclass = Fire", fillcolor="#9cf2a3"] ;
312 -> 313 ;
314 [label="Defense <= 80.0\ngini = 0.5\nsamples = 2\nvalue = [0, 0, 0, 0, 1, 0, 0, 0, 0, 0, 0, 0, 0, 1\n0, 0, 0, 0]\nclass = Fire", fillcolor="#ffffff"] ;
313 -> 314 ;
315 [label="gini = 0.0\nsamples = 1\nvalue = [0, 0, 0, 0, 1, 0, 0, 0, 0, 0, 0, 0, 0, 0\n0, 0, 0, 0]\nclass = Fire", fillcolor="#64e539"] ;
314 -> 315 ;
316 [label="gini = 0.0\nsamples = 1\nvalue = [0, 0, 0, 0, 0, 0, 0, 0, 0, 0, 0, 0, 0, 1\n0, 0, 0, 0]\nclass = Bug", fillcolor="#ba39e5"] ;
314 -> 316 ;
317 [label="gini = 0.0\nsamples = 3\nvalue = [0, 0, 0, 0, 0, 3, 0, 0, 0, 0, 0, 0, 0, 0\n0, 0, 0, 0]\nclass = Fire", fillcolor="#39e547"] ;
313 -> 317 ;
318 [label="Sp. Def <= 72.5\ngini = 0.822\nsamples = 22\nvalue = [4, 6, 1, 0, 0, 1, 1, 1, 0, 5, 0, 0, 0, 1\n0, 0, 0, 2]\nclass = Grass", fillcolor="#fdfbf3"] ;
312 -> 318 ;
319 [label="Sp. Def <= 64.0\ngini = 0.678\nsamples = 11\nvalue = [0, 5, 1, 0, 0, 0, 0, 0, 0, 3, 0, 0, 0, 0\n0, 0, 0, 2]\nclass = Grass", fillcolor="#f8eece"] ;
318 -> 319 ;
320 [label="Sp. Def <= 56.5\ngini = 0.716\nsamples = 9\nvalue = [0, 3, 1, 0, 0, 0, 0, 0, 0, 3, 0, 0, 0, 0\n0, 0, 0, 2]\nclass = Grass", fillcolor="#ffffff"] ;
319 -> 320 ;
321 [label="Attack <= 106.0\ngini = 0.625\nsamples = 4\nvalue = [0, 2, 1, 0, 0, 0, 0, 0, 0, 0, 0, 0, 0, 0\n0, 0, 0, 1]\nclass = Grass", fillcolor="#f6e8bd"] ;
320 -> 321 ;
322 [label="HP <= 55.0\ngini = 0.444\nsamples = 3\nvalue = [0, 2, 0, 0, 0, 0, 0, 0, 0, 0, 0, 0, 0, 0\n0, 0, 0, 1]\nclass = Grass", fillcolor="#f2dc9c"] ;
321 -> 322 ;
323 [label="gini = 0.0\nsamples = 1\nvalue = [0, 1, 0, 0, 0, 0, 0, 0, 0, 0, 0, 0, 0, 0\n0, 0, 0, 0]\nclass = Grass", fillcolor="#e5ba39"] ;
322 -> 323 ;
324 [label="gini = 0.5\nsamples = 2\nvalue = [0, 1, 0, 0, 0, 0, 0, 0, 0, 0, 0, 0, 0, 0\n0, 0, 0, 1]\nclass = Grass", fillcolor="#ffffff"] ;
322 -> 324 ;
325 [label="gini = 0.0\nsamples = 1\nvalue = [0, 0, 1, 0, 0, 0, 0, 0, 0, 0, 0, 0, 0, 0\n0, 0, 0, 0]\nclass = Grass", fillcolor="#d7e539"] ;
321 -> 325 ;
326 [label="Sp. Def <= 61.5\ngini = 0.56\nsamples = 5\nvalue = [0, 1, 0, 0, 0, 0, 0, 0, 0, 3, 0, 0, 0, 0\n0, 0, 0, 1]\nclass = Water", fillcolor="#9ccef2"] ;
320 -> 326 ;
327 [label="Attack <= 87.5\ngini = 0.375\nsamples = 4\nvalue = [0, 1, 0, 0, 0, 0, 0, 0, 0, 3, 0, 0, 0, 0\n0, 0, 0, 0]\nclass = Water", fillcolor="#7bbeee"] ;
326 -> 327 ;
328 [label="gini = 0.0\nsamples = 2\nvalue = [0, 0, 0, 0, 0, 0, 0, 0, 0, 2, 0, 0, 0, 0\n0, 0, 0, 0]\nclass = Water", fillcolor="#399de5"] ;
327 -> 328 ;
329 [label="HP <= 65.0\ngini = 0.5\nsamples = 2\nvalue = [0, 1, 0, 0, 0, 0, 0, 0, 0, 1, 0, 0, 0, 0\n0, 0, 0, 0]\nclass = Grass", fillcolor="#ffffff"] ;
327 -> 329 ;
330 [label="gini = 0.0\nsamples = 1\nvalue = [0, 0, 0, 0, 0, 0, 0, 0, 0, 1, 0, 0, 0, 0\n0, 0, 0, 0]\nclass = Water", fillcolor="#399de5"] ;
329 -> 330 ;
331 [label="gini = 0.0\nsamples = 1\nvalue = [0, 1, 0, 0, 0, 0, 0, 0, 0, 0, 0, 0, 0, 0\n0, 0, 0, 0]\nclass = Grass", fillcolor="#e5ba39"] ;
329 -> 331 ;
332 [label="gini = 0.0\nsamples = 1\nvalue = [0, 0, 0, 0, 0, 0, 0, 0, 0, 0, 0, 0, 0, 0\n0, 0, 0, 1]\nclass = Bug", fillcolor="#e54739"] ;
326 -> 332 ;
333 [label="gini = 0.0\nsamples = 2\nvalue = [0, 2, 0, 0, 0, 0, 0, 0, 0, 0, 0, 0, 0, 0\n0, 0, 0, 0]\nclass = Grass", fillcolor="#e5ba39"] ;
319 -> 333 ;
334 [label="Sp. Atk <= 55.0\ngini = 0.793\nsamples = 11\nvalue = [4, 1, 0, 0, 0, 1, 1, 1, 0, 2, 0, 0, 0, 1\n0, 0, 0, 0]\nclass = Grass", fillcolor="#f9e3d3"] ;
318 -> 334 ;
335 [label="Defense <= 96.5\ngini = 0.5\nsamples = 6\nvalue = [4, 1, 0, 0, 0, 0, 0, 0, 0, 1, 0, 0, 0, 0\n0, 0, 0, 0]\nclass = Grass", fillcolor="#efb388"] ;
334 -> 335 ;
336 [label="Sp. Atk <= 42.5\ngini = 0.32\nsamples = 5\nvalue = [4, 1, 0, 0, 0, 0, 0, 0, 0, 0, 0, 0, 0, 0\n0, 0, 0, 0]\nclass = Grass", fillcolor="#eca06a"] ;
335 -> 336 ;
337 [label="Attack <= 98.0\ngini = 0.5\nsamples = 2\nvalue = [1, 1, 0, 0, 0, 0, 0, 0, 0, 0, 0, 0, 0, 0\n0, 0, 0, 0]\nclass = Grass", fillcolor="#ffffff"] ;
336 -> 337 ;
338 [label="gini = 0.0\nsamples = 1\nvalue = [0, 1, 0, 0, 0, 0, 0, 0, 0, 0, 0, 0, 0, 0\n0, 0, 0, 0]\nclass = Grass", fillcolor="#e5ba39"] ;
337 -> 338 ;
339 [label="gini = 0.0\nsamples = 1\nvalue = [1, 0, 0, 0, 0, 0, 0, 0, 0, 0, 0, 0, 0, 0\n0, 0, 0, 0]\nclass = Grass", fillcolor="#e58139"] ;
337 -> 339 ;
340 [label="gini = 0.0\nsamples = 3\nvalue = [3, 0, 0, 0, 0, 0, 0, 0, 0, 0, 0, 0, 0, 0\n0, 0, 0, 0]\nclass = Grass", fillcolor="#e58139"] ;
336 -> 340 ;
341 [label="gini = 0.0\nsamples = 1\nvalue = [0, 0, 0, 0, 0, 0, 0, 0, 0, 1, 0, 0, 0, 0\n0, 0, 0, 0]\nclass = Water", fillcolor="#399de5"] ;
335 -> 341 ;
342 [label="Speed <= 77.5\ngini = 0.8\nsamples = 5\nvalue = [0, 0, 0, 0, 0, 1, 1, 1, 0, 1, 0, 0, 0, 1\n0, 0, 0, 0]\nclass = Fire", fillcolor="#ffffff"] ;
334 -> 342 ;
343 [label="gini = 0.0\nsamples = 1\nvalue = [0, 0, 0, 0, 0, 0, 0, 0, 0, 0, 0, 0, 0, 1\n0, 0, 0, 0]\nclass = Bug", fillcolor="#ba39e5"] ;
342 -> 343 ;
344 [label="Speed <= 81.0\ngini = 0.75\nsamples = 4\nvalue = [0, 0, 0, 0, 0, 1, 1, 1, 0, 1, 0, 0, 0, 0\n0, 0, 0, 0]\nclass = Fire", fillcolor="#ffffff"] ;
342 -> 344 ;
345 [label="gini = 0.0\nsamples = 1\nvalue = [0, 0, 0, 0, 0, 1, 0, 0, 0, 0, 0, 0, 0, 0\n0, 0, 0, 0]\nclass = Fire", fillcolor="#39e547"] ;
344 -> 345 ;
346 [label="Attack <= 81.5\ngini = 0.667\nsamples = 3\nvalue = [0, 0, 0, 0, 0, 0, 1, 1, 0, 1, 0, 0, 0, 0\n0, 0, 0, 0]\nclass = Fire", fillcolor="#ffffff"] ;
344 -> 346 ;
347 [label="gini = 0.0\nsamples = 1\nvalue = [0, 0, 0, 0, 0, 0, 0, 0, 0, 1, 0, 0, 0, 0\n0, 0, 0, 0]\nclass = Water", fillcolor="#399de5"] ;
346 -> 347 ;
348 [label="Speed <= 83.5\ngini = 0.5\nsamples = 2\nvalue = [0, 0, 0, 0, 0, 0, 1, 1, 0, 0, 0, 0, 0, 0\n0, 0, 0, 0]\nclass = Fire", fillcolor="#ffffff"] ;
346 -> 348 ;
349 [label="gini = 0.0\nsamples = 1\nvalue = [0, 0, 0, 0, 0, 0, 0, 1, 0, 0, 0, 0, 0, 0\n0, 0, 0, 0]\nclass = Fire", fillcolor="#39e5ba"] ;
348 -> 349 ;
350 [label="gini = 0.0\nsamples = 1\nvalue = [0, 0, 0, 0, 0, 0, 1, 0, 0, 0, 0, 0, 0, 0\n0, 0, 0, 0]\nclass = Fire", fillcolor="#39e581"] ;
348 -> 350 ;
351 [label="Attack <= 65.5\ngini = 0.764\nsamples = 15\nvalue = [3, 0, 1, 1, 0, 0, 0, 0, 1, 2, 0, 0, 6, 0\n0, 0, 1, 0]\nclass = Water", fillcolor="#e0cef8"] ;
261 -> 351 ;
352 [label="Attack <= 50.0\ngini = 0.5\nsamples = 2\nvalue = [0, 0, 0, 1, 0, 0, 0, 0, 0, 1, 0, 0, 0, 0\n0, 0, 0, 0]\nclass = Grass", fillcolor="#ffffff"] ;
351 -> 352 ;
353 [label="gini = 0.0\nsamples = 1\nvalue = [0, 0, 0, 1, 0, 0, 0, 0, 0, 0, 0, 0, 0, 0\n0, 0, 0, 0]\nclass = Grass", fillcolor="#9de539"] ;
352 -> 353 ;
354 [label="gini = 0.0\nsamples = 1\nvalue = [0, 0, 0, 0, 0, 0, 0, 0, 0, 1, 0, 0, 0, 0\n0, 0, 0, 0]\nclass = Water", fillcolor="#399de5"] ;
352 -> 354 ;
355 [label="Sp. Def <= 100.5\ngini = 0.71\nsamples = 13\nvalue = [3, 0, 1, 0, 0, 0, 0, 0, 1, 1, 0, 0, 6, 0\n0, 0, 1, 0]\nclass = Water", fillcolor="#d9c4f7"] ;
351 -> 355 ;
356 [label="Attack <= 141.5\ngini = 0.667\nsamples = 12\nvalue = [3, 0, 1, 0, 0, 0, 0, 0, 0, 1, 0, 0, 6, 0\n0, 0, 1, 0]\nclass = Water", fillcolor="#d5bdf6"] ;
355 -> 356 ;
357 [label="HP <= 73.0\ngini = 0.612\nsamples = 11\nvalue = [3, 0, 0, 0, 0, 0, 0, 0, 0, 1, 0, 0, 6, 0\n0, 0, 1, 0]\nclass = Water", fillcolor="#d0b5f5"] ;
356 -> 357 ;
358 [label="Sp. Def <= 88.0\ngini = 0.612\nsamples = 7\nvalue = [3, 0, 0, 0, 0, 0, 0, 0, 0, 1, 0, 0, 3, 0\n0, 0, 0, 0]\nclass = Grass", fillcolor="#ffffff"] ;
357 -> 358 ;
359 [label="Defense <= 76.5\ngini = 0.56\nsamples = 5\nvalue = [3, 0, 0, 0, 0, 0, 0, 0, 0, 1, 0, 0, 1, 0\n0, 0, 0, 0]\nclass = Grass", fillcolor="#f2c09c"] ;
358 -> 359 ;
360 [label="Speed <= 107.5\ngini = 0.5\nsamples = 2\nvalue = [0, 0, 0, 0, 0, 0, 0, 0, 0, 1, 0, 0, 1, 0\n0, 0, 0, 0]\nclass = Water", fillcolor="#ffffff"] ;
359 -> 360 ;
361 [label="gini = 0.0\nsamples = 1\nvalue = [0, 0, 0, 0, 0, 0, 0, 0, 0, 1, 0, 0, 0, 0\n0, 0, 0, 0]\nclass = Water", fillcolor="#399de5"] ;
360 -> 361 ;
362 [label="gini = 0.0\nsamples = 1\nvalue = [0, 0, 0, 0, 0, 0, 0, 0, 0, 0, 0, 0, 1, 0\n0, 0, 0, 0]\nclass = Water", fillcolor="#8139e5"] ;
360 -> 362 ;
363 [label="gini = 0.0\nsamples = 3\nvalue = [3, 0, 0, 0, 0, 0, 0, 0, 0, 0, 0, 0, 0, 0\n0, 0, 0, 0]\nclass = Grass", fillcolor="#e58139"] ;
359 -> 363 ;
364 [label="gini = 0.0\nsamples = 2\nvalue = [0, 0, 0, 0, 0, 0, 0, 0, 0, 0, 0, 0, 2, 0\n0, 0, 0, 0]\nclass = Water", fillcolor="#8139e5"] ;
358 -> 364 ;
365 [label="Attack <= 109.5\ngini = 0.375\nsamples = 4\nvalue = [0, 0, 0, 0, 0, 0, 0, 0, 0, 0, 0, 0, 3, 0\n0, 0, 1, 0]\nclass = Water", fillcolor="#ab7bee"] ;
357 -> 365 ;
366 [label="gini = 0.0\nsamples = 3\nvalue = [0, 0, 0, 0, 0, 0, 0, 0, 0, 0, 0, 0, 3, 0\n0, 0, 0, 0]\nclass = Water", fillcolor="#8139e5"] ;
365 -> 366 ;
367 [label="gini = 0.0\nsamples = 1\nvalue = [0, 0, 0, 0, 0, 0, 0, 0, 0, 0, 0, 0, 0, 0\n0, 0, 1, 0]\nclass = Bug", fillcolor="#e53964"] ;
365 -> 367 ;
368 [label="gini = 0.0\nsamples = 1\nvalue = [0, 0, 1, 0, 0, 0, 0, 0, 0, 0, 0, 0, 0, 0\n0, 0, 0, 0]\nclass = Grass", fillcolor="#d7e539"] ;
356 -> 368 ;
369 [label="gini = 0.0\nsamples = 1\nvalue = [0, 0, 0, 0, 0, 0, 0, 0, 1, 0, 0, 0, 0, 0\n0, 0, 0, 0]\nclass = Fire", fillcolor="#39d7e5"] ;
355 -> 369 ;
370 [label="Attack <= 111.5\ngini = 0.783\nsamples = 55\nvalue = [0, 0, 2, 0, 1, 6, 1, 0, 1, 1, 3, 5, 23, 1\n3, 2, 0, 6]\nclass = Water", fillcolor="#d3baf6"] ;
2 -> 370 ;
371 [label="Sp. Def <= 50.5\ngini = 0.662\nsamples = 36\nvalue = [0, 0, 1, 0, 0, 2, 0, 0, 1, 0, 1, 2, 20, 1\n3, 1, 0, 4]\nclass = Water", fillcolor="#c09cf2"] ;
370 -> 371 ;
372 [label="Defense <= 27.0\ngini = 0.84\nsamples = 10\nvalue = [0, 0, 0, 0, 0, 1, 0, 0, 1, 0, 1, 1, 2, 0\n2, 0, 0, 2]\nclass = Water", fillcolor="#ffffff"] ;
371 -> 372 ;
373 [label="gini = 0.0\nsamples = 2\nvalue = [0, 0, 0, 0, 0, 0, 0, 0, 0, 0, 0, 0, 2, 0\n0, 0, 0, 0]\nclass = Water", fillcolor="#8139e5"] ;
372 -> 373 ;
374 [label="Speed <= 31.5\ngini = 0.812\nsamples = 8\nvalue = [0, 0, 0, 0, 0, 1, 0, 0, 1, 0, 1, 1, 0, 0\n2, 0, 0, 2]\nclass = Bug", fillcolor="#ffffff"] ;
372 -> 374 ;
375 [label="HP <= 92.5\ngini = 0.444\nsamples = 3\nvalue = [0, 0, 0, 0, 0, 0, 0, 0, 0, 0, 0, 0, 0, 0\n2, 0, 0, 1]\nclass = Bug", fillcolor="#f29ceb"] ;
374 -> 375 ;
376 [label="gini = 0.5\nsamples = 2\nvalue = [0, 0, 0, 0, 0, 0, 0, 0, 0, 0, 0, 0, 0, 0\n1, 0, 0, 1]\nclass = Bug", fillcolor="#ffffff"] ;
375 -> 376 ;
377 [label="gini = 0.0\nsamples = 1\nvalue = [0, 0, 0, 0, 0, 0, 0, 0, 0, 0, 0, 0, 0, 0\n1, 0, 0, 0]\nclass = Bug", fillcolor="#e539d7"] ;
375 -> 377 ;
378 [label="Defense <= 39.5\ngini = 0.8\nsamples = 5\nvalue = [0, 0, 0, 0, 0, 1, 0, 0, 1, 0, 1, 1, 0, 0\n0, 0, 0, 1]\nclass = Fire", fillcolor="#ffffff"] ;
374 -> 378 ;
379 [label="gini = 0.0\nsamples = 1\nvalue = [0, 0, 0, 0, 0, 0, 0, 0, 1, 0, 0, 0, 0, 0\n0, 0, 0, 0]\nclass = Fire", fillcolor="#39d7e5"] ;
378 -> 379 ;
380 [label="Defense <= 52.5\ngini = 0.75\nsamples = 4\nvalue = [0, 0, 0, 0, 0, 1, 0, 0, 0, 0, 1, 1, 0, 0\n0, 0, 0, 1]\nclass = Fire", fillcolor="#ffffff"] ;
378 -> 380 ;
381 [label="gini = 0.0\nsamples = 1\nvalue = [0, 0, 0, 0, 0, 0, 0, 0, 0, 0, 0, 1, 0, 0\n0, 0, 0, 0]\nclass = Water", fillcolor="#4739e5"] ;
380 -> 381 ;
382 [label="Sp. Def <= 42.5\ngini = 0.667\nsamples = 3\nvalue = [0, 0, 0, 0, 0, 1, 0, 0, 0, 0, 1, 0, 0, 0\n0, 0, 0, 1]\nclass = Fire", fillcolor="#ffffff"] ;
380 -> 382 ;
383 [label="gini = 0.0\nsamples = 1\nvalue = [0, 0, 0, 0, 0, 0, 0, 0, 0, 0, 1, 0, 0, 0\n0, 0, 0, 0]\nclass = Water", fillcolor="#3964e5"] ;
382 -> 383 ;
384 [label="Speed <= 52.5\ngini = 0.5\nsamples = 2\nvalue = [0, 0, 0, 0, 0, 1, 0, 0, 0, 0, 0, 0, 0, 0\n0, 0, 0, 1]\nclass = Fire", fillcolor="#ffffff"] ;
382 -> 384 ;
385 [label="gini = 0.0\nsamples = 1\nvalue = [0, 0, 0, 0, 0, 1, 0, 0, 0, 0, 0, 0, 0, 0\n0, 0, 0, 0]\nclass = Fire", fillcolor="#39e547"] ;
384 -> 385 ;
386 [label="gini = 0.0\nsamples = 1\nvalue = [0, 0, 0, 0, 0, 0, 0, 0, 0, 0, 0, 0, 0, 0\n0, 0, 0, 1]\nclass = Bug", fillcolor="#e54739"] ;
384 -> 386 ;
387 [label="Speed <= 96.0\ngini = 0.506\nsamples = 26\nvalue = [0, 0, 1, 0, 0, 1, 0, 0, 0, 0, 0, 1, 18, 1\n1, 1, 0, 2]\nclass = Water", fillcolor="#ab7bee"] ;
371 -> 387 ;
388 [label="Sp. Atk <= 34.0\ngini = 0.47\nsamples = 25\nvalue = [0, 0, 1, 0, 0, 1, 0, 0, 0, 0, 0, 1, 18, 1\n1, 1, 0, 1]\nclass = Water", fillcolor="#a673ed"] ;
387 -> 388 ;
389 [label="Sp. Def <= 61.5\ngini = 0.667\nsamples = 3\nvalue = [0, 0, 0, 0, 0, 1, 0, 0, 0, 0, 0, 0, 1, 0\n1, 0, 0, 0]\nclass = Fire", fillcolor="#ffffff"] ;
388 -> 389 ;
390 [label="gini = 0.0\nsamples = 1\nvalue = [0, 0, 0, 0, 0, 0, 0, 0, 0, 0, 0, 0, 0, 0\n1, 0, 0, 0]\nclass = Bug", fillcolor="#e539d7"] ;
389 -> 390 ;
391 [label="HP <= 110.0\ngini = 0.5\nsamples = 2\nvalue = [0, 0, 0, 0, 0, 1, 0, 0, 0, 0, 0, 0, 1, 0\n0, 0, 0, 0]\nclass = Fire", fillcolor="#ffffff"] ;
389 -> 391 ;
392 [label="gini = 0.0\nsamples = 1\nvalue = [0, 0, 0, 0, 0, 0, 0, 0, 0, 0, 0, 0, 1, 0\n0, 0, 0, 0]\nclass = Water", fillcolor="#8139e5"] ;
391 -> 392 ;
393 [label="gini = 0.0\nsamples = 1\nvalue = [0, 0, 0, 0, 0, 1, 0, 0, 0, 0, 0, 0, 0, 0\n0, 0, 0, 0]\nclass = Fire", fillcolor="#39e547"] ;
391 -> 393 ;
394 [label="Sp. Atk <= 59.5\ngini = 0.393\nsamples = 22\nvalue = [0, 0, 1, 0, 0, 0, 0, 0, 0, 0, 0, 1, 17, 1\n0, 1, 0, 1]\nclass = Water", fillcolor="#9f68eb"] ;
388 -> 394 ;
395 [label="Sp. Def <= 97.5\ngini = 0.296\nsamples = 18\nvalue = [0, 0, 1, 0, 0, 0, 0, 0, 0, 0, 0, 0, 15, 1\n0, 1, 0, 0]\nclass = Water", fillcolor="#975cea"] ;
394 -> 395 ;
396 [label="Sp. Def <= 70.0\ngini = 0.227\nsamples = 16\nvalue = [0, 0, 1, 0, 0, 0, 0, 0, 0, 0, 0, 0, 14, 0\n0, 1, 0, 0]\nclass = Water", fillcolor="#9253e8"] ;
395 -> 396 ;
397 [label="Sp. Def <= 62.5\ngini = 0.406\nsamples = 8\nvalue = [0, 0, 1, 0, 0, 0, 0, 0, 0, 0, 0, 0, 6, 0\n0, 1, 0, 0]\nclass = Water", fillcolor="#a572ec"] ;
396 -> 397 ;
398 [label="gini = 0.0\nsamples = 6\nvalue = [0, 0, 0, 0, 0, 0, 0, 0, 0, 0, 0, 0, 6, 0\n0, 0, 0, 0]\nclass = Water", fillcolor="#8139e5"] ;
397 -> 398 ;
399 [label="Defense <= 75.5\ngini = 0.5\nsamples = 2\nvalue = [0, 0, 1, 0, 0, 0, 0, 0, 0, 0, 0, 0, 0, 0\n0, 1, 0, 0]\nclass = Grass", fillcolor="#ffffff"] ;
397 -> 399 ;
400 [label="gini = 0.0\nsamples = 1\nvalue = [0, 0, 1, 0, 0, 0, 0, 0, 0, 0, 0, 0, 0, 0\n0, 0, 0, 0]\nclass = Grass", fillcolor="#d7e539"] ;
399 -> 400 ;
401 [label="gini = 0.0\nsamples = 1\nvalue = [0, 0, 0, 0, 0, 0, 0, 0, 0, 0, 0, 0, 0, 0\n0, 1, 0, 0]\nclass = Bug", fillcolor="#e5399d"] ;
399 -> 401 ;
402 [label="gini = 0.0\nsamples = 8\nvalue = [0, 0, 0, 0, 0, 0, 0, 0, 0, 0, 0, 0, 8, 0\n0, 0, 0, 0]\nclass = Water", fillcolor="#8139e5"] ;
396 -> 402 ;
403 [label="HP <= 190.0\ngini = 0.5\nsamples = 2\nvalue = [0, 0, 0, 0, 0, 0, 0, 0, 0, 0, 0, 0, 1, 1\n0, 0, 0, 0]\nclass = Water", fillcolor="#ffffff"] ;
395 -> 403 ;
404 [label="gini = 0.0\nsamples = 1\nvalue = [0, 0, 0, 0, 0, 0, 0, 0, 0, 0, 0, 0, 0, 1\n0, 0, 0, 0]\nclass = Bug", fillcolor="#ba39e5"] ;
403 -> 404 ;
405 [label="gini = 0.0\nsamples = 1\nvalue = [0, 0, 0, 0, 0, 0, 0, 0, 0, 0, 0, 0, 1, 0\n0, 0, 0, 0]\nclass = Water", fillcolor="#8139e5"] ;
403 -> 405 ;
406 [label="Attack <= 52.5\ngini = 0.625\nsamples = 4\nvalue = [0, 0, 0, 0, 0, 0, 0, 0, 0, 0, 0, 1, 2, 0\n0, 0, 0, 1]\nclass = Water", fillcolor="#d5bdf6"] ;
394 -> 406 ;
407 [label="gini = 0.0\nsamples = 1\nvalue = [0, 0, 0, 0, 0, 0, 0, 0, 0, 0, 0, 0, 0, 0\n0, 0, 0, 1]\nclass = Bug", fillcolor="#e54739"] ;
406 -> 407 ;
408 [label="Attack <= 80.0\ngini = 0.444\nsamples = 3\nvalue = [0, 0, 0, 0, 0, 0, 0, 0, 0, 0, 0, 1, 2, 0\n0, 0, 0, 0]\nclass = Water", fillcolor="#c09cf2"] ;
406 -> 408 ;
409 [label="gini = 0.0\nsamples = 2\nvalue = [0, 0, 0, 0, 0, 0, 0, 0, 0, 0, 0, 0, 2, 0\n0, 0, 0, 0]\nclass = Water", fillcolor="#8139e5"] ;
408 -> 409 ;
410 [label="gini = 0.0\nsamples = 1\nvalue = [0, 0, 0, 0, 0, 0, 0, 0, 0, 0, 0, 1, 0, 0\n0, 0, 0, 0]\nclass = Water", fillcolor="#4739e5"] ;
408 -> 410 ;
411 [label="gini = 0.0\nsamples = 1\nvalue = [0, 0, 0, 0, 0, 0, 0, 0, 0, 0, 0, 0, 0, 0\n0, 0, 0, 1]\nclass = Bug", fillcolor="#e54739"] ;
387 -> 411 ;
412 [label="Sp. Def <= 57.5\ngini = 0.87\nsamples = 19\nvalue = [0, 0, 1, 0, 1, 4, 1, 0, 0, 1, 2, 3, 3, 0\n0, 1, 0, 2]\nclass = Fire", fillcolor="#f3fdf4"] ;
370 -> 412 ;
413 [label="Defense <= 60.0\ngini = 0.375\nsamples = 4\nvalue = [0, 0, 0, 0, 0, 0, 1, 0, 0, 0, 0, 3, 0, 0\n0, 0, 0, 0]\nclass = Water", fillcolor="#847bee"] ;
412 -> 413 ;
414 [label="Speed <= 115.0\ngini = 0.444\nsamples = 3\nvalue = [0, 0, 0, 0, 0, 0, 1, 0, 0, 0, 0, 2, 0, 0\n0, 0, 0, 0]\nclass = Water", fillcolor="#a39cf2"] ;
413 -> 414 ;
415 [label="gini = 0.5\nsamples = 2\nvalue = [0, 0, 0, 0, 0, 0, 1, 0, 0, 0, 0, 1, 0, 0\n0, 0, 0, 0]\nclass = Fire", fillcolor="#ffffff"] ;
414 -> 415 ;
416 [label="gini = 0.0\nsamples = 1\nvalue = [0, 0, 0, 0, 0, 0, 0, 0, 0, 0, 0, 1, 0, 0\n0, 0, 0, 0]\nclass = Water", fillcolor="#4739e5"] ;
414 -> 416 ;
417 [label="gini = 0.0\nsamples = 1\nvalue = [0, 0, 0, 0, 0, 0, 0, 0, 0, 0, 0, 1, 0, 0\n0, 0, 0, 0]\nclass = Water", fillcolor="#4739e5"] ;
413 -> 417 ;
418 [label="Sp. Atk <= 44.0\ngini = 0.836\nsamples = 15\nvalue = [0, 0, 1, 0, 1, 4, 0, 0, 0, 1, 2, 0, 3, 0\n0, 1, 0, 2]\nclass = Fire", fillcolor="#effdf0"] ;
412 -> 418 ;
419 [label="gini = 0.0\nsamples = 2\nvalue = [0, 0, 0, 0, 0, 2, 0, 0, 0, 0, 0, 0, 0, 0\n0, 0, 0, 0]\nclass = Fire", fillcolor="#39e547"] ;
418 -> 419 ;
420 [label="Sp. Def <= 62.5\ngini = 0.852\nsamples = 13\nvalue = [0, 0, 1, 0, 1, 2, 0, 0, 0, 1, 2, 0, 3, 0\n0, 1, 0, 2]\nclass = Water", fillcolor="#f4edfd"] ;
418 -> 420 ;
421 [label="Sp. Atk <= 57.5\ngini = 0.444\nsamples = 3\nvalue = [0, 0, 0, 0, 1, 0, 0, 0, 0, 0, 0, 0, 2, 0\n0, 0, 0, 0]\nclass = Water", fillcolor="#c09cf2"] ;
420 -> 421 ;
422 [label="gini = 0.0\nsamples = 2\nvalue = [0, 0, 0, 0, 0, 0, 0, 0, 0, 0, 0, 0, 2, 0\n0, 0, 0, 0]\nclass = Water", fillcolor="#8139e5"] ;
421 -> 422 ;
423 [label="gini = 0.0\nsamples = 1\nvalue = [0, 0, 0, 0, 1, 0, 0, 0, 0, 0, 0, 0, 0, 0\n0, 0, 0, 0]\nclass = Fire", fillcolor="#64e539"] ;
421 -> 423 ;
424 [label="HP <= 97.5\ngini = 0.84\nsamples = 10\nvalue = [0, 0, 1, 0, 0, 2, 0, 0, 0, 1, 2, 0, 1, 0\n0, 1, 0, 2]\nclass = Fire", fillcolor="#ffffff"] ;
420 -> 424 ;
425 [label="HP <= 89.5\ngini = 0.625\nsamples = 4\nvalue = [0, 0, 0, 0, 0, 0, 0, 0, 0, 0, 1, 0, 0, 0\n0, 1, 0, 2]\nclass = Bug", fillcolor="#f6c2bd"] ;
424 -> 425 ;
426 [label="Speed <= 68.5\ngini = 0.5\nsamples = 2\nvalue = [0, 0, 0, 0, 0, 0, 0, 0, 0, 0, 1, 0, 0, 0\n0, 1, 0, 0]\nclass = Water", fillcolor="#ffffff"] ;
425 -> 426 ;
427 [label="gini = 0.0\nsamples = 1\nvalue = [0, 0, 0, 0, 0, 0, 0, 0, 0, 0, 1, 0, 0, 0\n0, 0, 0, 0]\nclass = Water", fillcolor="#3964e5"] ;
426 -> 427 ;
428 [label="gini = 0.0\nsamples = 1\nvalue = [0, 0, 0, 0, 0, 0, 0, 0, 0, 0, 0, 0, 0, 0\n0, 1, 0, 0]\nclass = Bug", fillcolor="#e5399d"] ;
426 -> 428 ;
429 [label="gini = 0.0\nsamples = 2\nvalue = [0, 0, 0, 0, 0, 0, 0, 0, 0, 0, 0, 0, 0, 0\n0, 0, 0, 2]\nclass = Bug", fillcolor="#e54739"] ;
425 -> 429 ;
430 [label="Defense <= 77.5\ngini = 0.778\nsamples = 6\nvalue = [0, 0, 1, 0, 0, 2, 0, 0, 0, 1, 1, 0, 1, 0\n0, 0, 0, 0]\nclass = Fire", fillcolor="#d7fada"] ;
424 -> 430 ;
431 [label="HP <= 102.5\ngini = 0.667\nsamples = 3\nvalue = [0, 0, 1, 0, 0, 0, 0, 0, 0, 0, 1, 0, 1, 0\n0, 0, 0, 0]\nclass = Grass", fillcolor="#ffffff"] ;
430 -> 431 ;
432 [label="gini = 0.0\nsamples = 1\nvalue = [0, 0, 0, 0, 0, 0, 0, 0, 0, 0, 0, 0, 1, 0\n0, 0, 0, 0]\nclass = Water", fillcolor="#8139e5"] ;
431 -> 432 ;
433 [label="Attack <= 137.0\ngini = 0.5\nsamples = 2\nvalue = [0, 0, 1, 0, 0, 0, 0, 0, 0, 0, 1, 0, 0, 0\n0, 0, 0, 0]\nclass = Grass", fillcolor="#ffffff"] ;
431 -> 433 ;
434 [label="gini = 0.0\nsamples = 1\nvalue = [0, 0, 0, 0, 0, 0, 0, 0, 0, 0, 1, 0, 0, 0\n0, 0, 0, 0]\nclass = Water", fillcolor="#3964e5"] ;
433 -> 434 ;
435 [label="gini = 0.0\nsamples = 1\nvalue = [0, 0, 1, 0, 0, 0, 0, 0, 0, 0, 0, 0, 0, 0\n0, 0, 0, 0]\nclass = Grass", fillcolor="#d7e539"] ;
433 -> 435 ;
436 [label="Sp. Atk <= 57.5\ngini = 0.444\nsamples = 3\nvalue = [0, 0, 0, 0, 0, 2, 0, 0, 0, 1, 0, 0, 0, 0\n0, 0, 0, 0]\nclass = Fire", fillcolor="#9cf2a3"] ;
430 -> 436 ;
437 [label="gini = 0.0\nsamples = 2\nvalue = [0, 0, 0, 0, 0, 2, 0, 0, 0, 0, 0, 0, 0, 0\n0, 0, 0, 0]\nclass = Fire", fillcolor="#39e547"] ;
436 -> 437 ;
438 [label="gini = 0.0\nsamples = 1\nvalue = [0, 0, 0, 0, 0, 0, 0, 0, 0, 1, 0, 0, 0, 0\n0, 0, 0, 0]\nclass = Water", fillcolor="#399de5"] ;
436 -> 438 ;
439 [label="HP <= 87.5\ngini = 0.882\nsamples = 95\nvalue = [10, 7, 1, 0, 1, 4, 1, 1, 6, 3, 11, 3, 3, 2\n1, 22, 14, 5]\nclass = Bug", fillcolor="#fcebf5"] ;
1 -> 439 ;
440 [label="Speed <= 79.5\ngini = 0.856\nsamples = 74\nvalue = [9, 2, 1, 0, 1, 3, 1, 0, 6, 3, 5, 1, 1, 2\n1, 20, 14, 4]\nclass = Bug", fillcolor="#fcebf5"] ;
439 -> 440 ;
441 [label="Defense <= 137.5\ngini = 0.807\nsamples = 60\nvalue = [7, 2, 1, 0, 0, 0, 1, 0, 4, 1, 3, 1, 0, 1\n1, 20, 14, 4]\nclass = Bug", fillcolor="#fce5f2"] ;
440 -> 441 ;
442 [label="Sp. Def <= 67.5\ngini = 0.815\nsamples = 41\nvalue = [4, 2, 1, 0, 0, 0, 1, 0, 4, 1, 2, 1, 0, 0\n1, 15, 5, 4]\nclass = Bug", fillcolor="#f8c8e4"] ;
441 -> 442 ;
443 [label="Speed <= 47.5\ngini = 0.665\nsamples = 19\nvalue = [0, 0, 1, 0, 0, 0, 0, 0, 0, 0, 1, 1, 0, 0\n0, 10, 3, 3]\nclass = Bug", fillcolor="#f4a8d4"] ;
442 -> 443 ;
444 [label="HP <= 54.5\ngini = 0.473\nsamples = 13\nvalue = [0, 0, 0, 0, 0, 0, 0, 0, 0, 0, 0, 0, 0, 0\n0, 9, 2, 2]\nclass = Bug", fillcolor="#ee81c1"] ;
443 -> 444 ;
445 [label="Sp. Atk <= 32.5\ngini = 0.667\nsamples = 6\nvalue = [0, 0, 0, 0, 0, 0, 0, 0, 0, 0, 0, 0, 0, 0\n0, 2, 2, 2]\nclass = Bug", fillcolor="#ffffff"] ;
444 -> 445 ;
446 [label="gini = 0.0\nsamples = 2\nvalue = [0, 0, 0, 0, 0, 0, 0, 0, 0, 0, 0, 0, 0, 0\n0, 2, 0, 0]\nclass = Bug", fillcolor="#e5399d"] ;
445 -> 446 ;
447 [label="Sp. Atk <= 42.5\ngini = 0.5\nsamples = 4\nvalue = [0, 0, 0, 0, 0, 0, 0, 0, 0, 0, 0, 0, 0, 0\n0, 0, 2, 2]\nclass = Bug", fillcolor="#ffffff"] ;
445 -> 447 ;
448 [label="gini = 0.0\nsamples = 2\nvalue = [0, 0, 0, 0, 0, 0, 0, 0, 0, 0, 0, 0, 0, 0\n0, 0, 2, 0]\nclass = Bug", fillcolor="#e53964"] ;
447 -> 448 ;
449 [label="gini = 0.0\nsamples = 2\nvalue = [0, 0, 0, 0, 0, 0, 0, 0, 0, 0, 0, 0, 0, 0\n0, 0, 0, 2]\nclass = Bug", fillcolor="#e54739"] ;
447 -> 449 ;
450 [label="gini = 0.0\nsamples = 7\nvalue = [0, 0, 0, 0, 0, 0, 0, 0, 0, 0, 0, 0, 0, 0\n0, 7, 0, 0]\nclass = Bug", fillcolor="#e5399d"] ;
444 -> 450 ;
451 [label="Attack <= 97.5\ngini = 0.833\nsamples = 6\nvalue = [0, 0, 1, 0, 0, 0, 0, 0, 0, 0, 1, 1, 0, 0\n0, 1, 1, 1]\nclass = Grass", fillcolor="#ffffff"] ;
443 -> 451 ;
452 [label="gini = 0.0\nsamples = 1\nvalue = [0, 0, 1, 0, 0, 0, 0, 0, 0, 0, 0, 0, 0, 0\n0, 0, 0, 0]\nclass = Grass", fillcolor="#d7e539"] ;
451 -> 452 ;
453 [label="Defense <= 105.0\ngini = 0.8\nsamples = 5\nvalue = [0, 0, 0, 0, 0, 0, 0, 0, 0, 0, 1, 1, 0, 0\n0, 1, 1, 1]\nclass = Water", fillcolor="#ffffff"] ;
451 -> 453 ;
454 [label="gini = 0.0\nsamples = 1\nvalue = [0, 0, 0, 0, 0, 0, 0, 0, 0, 0, 0, 0, 0, 0\n0, 0, 1, 0]\nclass = Bug", fillcolor="#e53964"] ;
453 -> 454 ;
455 [label="HP <= 62.5\ngini = 0.75\nsamples = 4\nvalue = [0, 0, 0, 0, 0, 0, 0, 0, 0, 0, 1, 1, 0, 0\n0, 1, 0, 1]\nclass = Water", fillcolor="#ffffff"] ;
453 -> 455 ;
456 [label="gini = 0.0\nsamples = 1\nvalue = [0, 0, 0, 0, 0, 0, 0, 0, 0, 0, 0, 0, 0, 0\n0, 0, 0, 1]\nclass = Bug", fillcolor="#e54739"] ;
455 -> 456 ;
457 [label="Speed <= 70.0\ngini = 0.667\nsamples = 3\nvalue = [0, 0, 0, 0, 0, 0, 0, 0, 0, 0, 1, 1, 0, 0\n0, 1, 0, 0]\nclass = Water", fillcolor="#ffffff"] ;
455 -> 457 ;
458 [label="Defense <= 115.0\ngini = 0.5\nsamples = 2\nvalue = [0, 0, 0, 0, 0, 0, 0, 0, 0, 0, 1, 1, 0, 0\n0, 0, 0, 0]\nclass = Water", fillcolor="#ffffff"] ;
457 -> 458 ;
459 [label="gini = 0.0\nsamples = 1\nvalue = [0, 0, 0, 0, 0, 0, 0, 0, 0, 0, 1, 0, 0, 0\n0, 0, 0, 0]\nclass = Water", fillcolor="#3964e5"] ;
458 -> 459 ;
460 [label="gini = 0.0\nsamples = 1\nvalue = [0, 0, 0, 0, 0, 0, 0, 0, 0, 0, 0, 1, 0, 0\n0, 0, 0, 0]\nclass = Water", fillcolor="#4739e5"] ;
458 -> 460 ;
461 [label="gini = 0.0\nsamples = 1\nvalue = [0, 0, 0, 0, 0, 0, 0, 0, 0, 0, 0, 0, 0, 0\n0, 1, 0, 0]\nclass = Bug", fillcolor="#e5399d"] ;
457 -> 461 ;
462 [label="Attack <= 127.5\ngini = 0.855\nsamples = 22\nvalue = [4, 2, 0, 0, 0, 0, 1, 0, 4, 1, 1, 0, 0, 0\n1, 5, 2, 1]\nclass = Bug", fillcolor="#fef4fa"] ;
442 -> 462 ;
463 [label="Attack <= 65.0\ngini = 0.858\nsamples = 18\nvalue = [1, 2, 0, 0, 0, 0, 1, 0, 4, 1, 1, 0, 0, 0\n1, 4, 2, 1]\nclass = Fire", fillcolor="#ffffff"] ;
462 -> 463 ;
464 [label="Sp. Atk <= 36.0\ngini = 0.56\nsamples = 5\nvalue = [0, 0, 0, 0, 0, 0, 0, 0, 0, 0, 0, 0, 0, 0\n1, 3, 0, 1]\nclass = Bug", fillcolor="#f29cce"] ;
463 -> 464 ;
465 [label="Defense <= 130.5\ngini = 0.5\nsamples = 2\nvalue = [0, 0, 0, 0, 0, 0, 0, 0, 0, 0, 0, 0, 0, 0\n1, 0, 0, 1]\nclass = Bug", fillcolor="#ffffff"] ;
464 -> 465 ;
466 [label="gini = 0.0\nsamples = 1\nvalue = [0, 0, 0, 0, 0, 0, 0, 0, 0, 0, 0, 0, 0, 0\n0, 0, 0, 1]\nclass = Bug", fillcolor="#e54739"] ;
465 -> 466 ;
467 [label="gini = 0.0\nsamples = 1\nvalue = [0, 0, 0, 0, 0, 0, 0, 0, 0, 0, 0, 0, 0, 0\n1, 0, 0, 0]\nclass = Bug", fillcolor="#e539d7"] ;
465 -> 467 ;
468 [label="gini = 0.0\nsamples = 3\nvalue = [0, 0, 0, 0, 0, 0, 0, 0, 0, 0, 0, 0, 0, 0\n0, 3, 0, 0]\nclass = Bug", fillcolor="#e5399d"] ;
464 -> 468 ;
469 [label="HP <= 68.5\ngini = 0.828\nsamples = 13\nvalue = [1, 2, 0, 0, 0, 0, 1, 0, 4, 1, 1, 0, 0, 0\n0, 1, 2, 0]\nclass = Fire", fillcolor="#dbf8fa"] ;
463 -> 469 ;
470 [label="Speed <= 54.0\ngini = 0.812\nsamples = 8\nvalue = [1, 2, 0, 0, 0, 0, 1, 0, 1, 0, 1, 0, 0, 0\n0, 0, 2, 0]\nclass = Grass", fillcolor="#ffffff"] ;
469 -> 470 ;
471 [label="Speed <= 47.5\ngini = 0.778\nsamples = 6\nvalue = [1, 0, 0, 0, 0, 0, 1, 0, 1, 0, 1, 0, 0, 0\n0, 0, 2, 0]\nclass = Bug", fillcolor="#fad7e0"] ;
470 -> 471 ;
472 [label="HP <= 50.0\ngini = 0.75\nsamples = 4\nvalue = [1, 0, 0, 0, 0, 0, 1, 0, 1, 0, 1, 0, 0, 0\n0, 0, 0, 0]\nclass = Grass", fillcolor="#ffffff"] ;
471 -> 472 ;
473 [label="gini = 0.0\nsamples = 1\nvalue = [0, 0, 0, 0, 0, 0, 0, 0, 1, 0, 0, 0, 0, 0\n0, 0, 0, 0]\nclass = Fire", fillcolor="#39d7e5"] ;
472 -> 473 ;
474 [label="Defense <= 107.5\ngini = 0.667\nsamples = 3\nvalue = [1, 0, 0, 0, 0, 0, 1, 0, 0, 0, 1, 0, 0, 0\n0, 0, 0, 0]\nclass = Grass", fillcolor="#ffffff"] ;
472 -> 474 ;
475 [label="gini = 0.0\nsamples = 1\nvalue = [1, 0, 0, 0, 0, 0, 0, 0, 0, 0, 0, 0, 0, 0\n0, 0, 0, 0]\nclass = Grass", fillcolor="#e58139"] ;
474 -> 475 ;
476 [label="gini = 0.5\nsamples = 2\nvalue = [0, 0, 0, 0, 0, 0, 1, 0, 0, 0, 1, 0, 0, 0\n0, 0, 0, 0]\nclass = Fire", fillcolor="#ffffff"] ;
474 -> 476 ;
477 [label="gini = 0.0\nsamples = 2\nvalue = [0, 0, 0, 0, 0, 0, 0, 0, 0, 0, 0, 0, 0, 0\n0, 0, 2, 0]\nclass = Bug", fillcolor="#e53964"] ;
471 -> 477 ;
478 [label="gini = 0.0\nsamples = 2\nvalue = [0, 2, 0, 0, 0, 0, 0, 0, 0, 0, 0, 0, 0, 0\n0, 0, 0, 0]\nclass = Grass", fillcolor="#e5ba39"] ;
470 -> 478 ;
479 [label="Sp. Def <= 106.5\ngini = 0.56\nsamples = 5\nvalue = [0, 0, 0, 0, 0, 0, 0, 0, 3, 1, 0, 0, 0, 0\n0, 1, 0, 0]\nclass = Fire", fillcolor="#9cebf2"] ;
469 -> 479 ;
480 [label="Attack <= 103.0\ngini = 0.375\nsamples = 4\nvalue = [0, 0, 0, 0, 0, 0, 0, 0, 3, 0, 0, 0, 0, 0\n0, 1, 0, 0]\nclass = Fire", fillcolor="#7be4ee"] ;
479 -> 480 ;
481 [label="gini = 0.0\nsamples = 3\nvalue = [0, 0, 0, 0, 0, 0, 0, 0, 3, 0, 0, 0, 0, 0\n0, 0, 0, 0]\nclass = Fire", fillcolor="#39d7e5"] ;
480 -> 481 ;
482 [label="gini = 0.0\nsamples = 1\nvalue = [0, 0, 0, 0, 0, 0, 0, 0, 0, 0, 0, 0, 0, 0\n0, 1, 0, 0]\nclass = Bug", fillcolor="#e5399d"] ;
480 -> 482 ;
483 [label="gini = 0.0\nsamples = 1\nvalue = [0, 0, 0, 0, 0, 0, 0, 0, 0, 1, 0, 0, 0, 0\n0, 0, 0, 0]\nclass = Water", fillcolor="#399de5"] ;
479 -> 483 ;
484 [label="HP <= 82.5\ngini = 0.375\nsamples = 4\nvalue = [3, 0, 0, 0, 0, 0, 0, 0, 0, 0, 0, 0, 0, 0\n0, 1, 0, 0]\nclass = Grass", fillcolor="#eeab7b"] ;
462 -> 484 ;
485 [label="gini = 0.0\nsamples = 3\nvalue = [3, 0, 0, 0, 0, 0, 0, 0, 0, 0, 0, 0, 0, 0\n0, 0, 0, 0]\nclass = Grass", fillcolor="#e58139"] ;
484 -> 485 ;
486 [label="gini = 0.0\nsamples = 1\nvalue = [0, 0, 0, 0, 0, 0, 0, 0, 0, 0, 0, 0, 0, 0\n0, 1, 0, 0]\nclass = Bug", fillcolor="#e5399d"] ;
484 -> 486 ;
487 [label="Sp. Def <= 97.5\ngini = 0.676\nsamples = 19\nvalue = [3, 0, 0, 0, 0, 0, 0, 0, 0, 0, 1, 0, 0, 1\n0, 5, 9, 0]\nclass = Bug", fillcolor="#f8c6d3"] ;
441 -> 487 ;
488 [label="Sp. Def <= 47.0\ngini = 0.43\nsamples = 11\nvalue = [2, 0, 0, 0, 0, 0, 0, 0, 0, 0, 0, 0, 0, 0\n0, 1, 8, 0]\nclass = Bug", fillcolor="#ee7b98"] ;
487 -> 488 ;
489 [label="gini = 0.0\nsamples = 1\nvalue = [0, 0, 0, 0, 0, 0, 0, 0, 0, 0, 0, 0, 0, 0\n0, 1, 0, 0]\nclass = Bug", fillcolor="#e5399d"] ;
488 -> 489 ;
490 [label="HP <= 72.5\ngini = 0.32\nsamples = 10\nvalue = [2, 0, 0, 0, 0, 0, 0, 0, 0, 0, 0, 0, 0, 0\n0, 0, 8, 0]\nclass = Bug", fillcolor="#ec6a8b"] ;
488 -> 490 ;
491 [label="gini = 0.0\nsamples = 6\nvalue = [0, 0, 0, 0, 0, 0, 0, 0, 0, 0, 0, 0, 0, 0\n0, 0, 6, 0]\nclass = Bug", fillcolor="#e53964"] ;
490 -> 491 ;
492 [label="Speed <= 35.0\ngini = 0.5\nsamples = 4\nvalue = [2, 0, 0, 0, 0, 0, 0, 0, 0, 0, 0, 0, 0, 0\n0, 0, 2, 0]\nclass = Grass", fillcolor="#ffffff"] ;
490 -> 492 ;
493 [label="gini = 0.0\nsamples = 2\nvalue = [0, 0, 0, 0, 0, 0, 0, 0, 0, 0, 0, 0, 0, 0\n0, 0, 2, 0]\nclass = Bug", fillcolor="#e53964"] ;
492 -> 493 ;
494 [label="gini = 0.0\nsamples = 2\nvalue = [2, 0, 0, 0, 0, 0, 0, 0, 0, 0, 0, 0, 0, 0\n0, 0, 0, 0]\nclass = Grass", fillcolor="#e58139"] ;
492 -> 494 ;
495 [label="Defense <= 147.5\ngini = 0.688\nsamples = 8\nvalue = [1, 0, 0, 0, 0, 0, 0, 0, 0, 0, 1, 0, 0, 1\n0, 4, 1, 0]\nclass = Bug", fillcolor="#f4aad5"] ;
487 -> 495 ;
496 [label="Speed <= 45.0\ngini = 0.5\nsamples = 2\nvalue = [0, 0, 0, 0, 0, 0, 0, 0, 0, 0, 1, 0, 0, 0\n0, 0, 1, 0]\nclass = Water", fillcolor="#ffffff"] ;
495 -> 496 ;
497 [label="gini = 0.0\nsamples = 1\nvalue = [0, 0, 0, 0, 0, 0, 0, 0, 0, 0, 1, 0, 0, 0\n0, 0, 0, 0]\nclass = Water", fillcolor="#3964e5"] ;
496 -> 497 ;
498 [label="gini = 0.0\nsamples = 1\nvalue = [0, 0, 0, 0, 0, 0, 0, 0, 0, 0, 0, 0, 0, 0\n0, 0, 1, 0]\nclass = Bug", fillcolor="#e53964"] ;
496 -> 498 ;
499 [label="Sp. Def <= 190.0\ngini = 0.5\nsamples = 6\nvalue = [1, 0, 0, 0, 0, 0, 0, 0, 0, 0, 0, 0, 0, 1\n0, 4, 0, 0]\nclass = Bug", fillcolor="#ef88c4"] ;
495 -> 499 ;
500 [label="Defense <= 160.0\ngini = 0.32\nsamples = 5\nvalue = [0, 0, 0, 0, 0, 0, 0, 0, 0, 0, 0, 0, 0, 1\n0, 4, 0, 0]\nclass = Bug", fillcolor="#ec6ab6"] ;
499 -> 500 ;
501 [label="Attack <= 56.5\ngini = 0.5\nsamples = 2\nvalue = [0, 0, 0, 0, 0, 0, 0, 0, 0, 0, 0, 0, 0, 1\n0, 1, 0, 0]\nclass = Bug", fillcolor="#ffffff"] ;
500 -> 501 ;
502 [label="gini = 0.0\nsamples = 1\nvalue = [0, 0, 0, 0, 0, 0, 0, 0, 0, 0, 0, 0, 0, 0\n0, 1, 0, 0]\nclass = Bug", fillcolor="#e5399d"] ;
501 -> 502 ;
503 [label="gini = 0.0\nsamples = 1\nvalue = [0, 0, 0, 0, 0, 0, 0, 0, 0, 0, 0, 0, 0, 1\n0, 0, 0, 0]\nclass = Bug", fillcolor="#ba39e5"] ;
501 -> 503 ;
504 [label="gini = 0.0\nsamples = 3\nvalue = [0, 0, 0, 0, 0, 0, 0, 0, 0, 0, 0, 0, 0, 0\n0, 3, 0, 0]\nclass = Bug", fillcolor="#e5399d"] ;
500 -> 504 ;
505 [label="gini = 0.0\nsamples = 1\nvalue = [1, 0, 0, 0, 0, 0, 0, 0, 0, 0, 0, 0, 0, 0\n0, 0, 0, 0]\nclass = Grass", fillcolor="#e58139"] ;
499 -> 505 ;
506 [label="Sp. Atk <= 32.5\ngini = 0.857\nsamples = 14\nvalue = [2, 0, 0, 0, 1, 3, 0, 0, 2, 2, 2, 0, 1, 1\n0, 0, 0, 0]\nclass = Fire", fillcolor="#eefdf0"] ;
440 -> 506 ;
507 [label="gini = 0.0\nsamples = 3\nvalue = [0, 0, 0, 0, 0, 3, 0, 0, 0, 0, 0, 0, 0, 0\n0, 0, 0, 0]\nclass = Fire", fillcolor="#39e547"] ;
506 -> 507 ;
508 [label="Sp. Atk <= 46.5\ngini = 0.843\nsamples = 11\nvalue = [2, 0, 0, 0, 1, 0, 0, 0, 2, 2, 2, 0, 1, 1\n0, 0, 0, 0]\nclass = Grass", fillcolor="#ffffff"] ;
506 -> 508 ;
509 [label="gini = 0.0\nsamples = 2\nvalue = [0, 0, 0, 0, 0, 0, 0, 0, 0, 0, 2, 0, 0, 0\n0, 0, 0, 0]\nclass = Water", fillcolor="#3964e5"] ;
508 -> 509 ;
510 [label="Defense <= 126.0\ngini = 0.815\nsamples = 9\nvalue = [2, 0, 0, 0, 1, 0, 0, 0, 2, 2, 0, 0, 1, 1\n0, 0, 0, 0]\nclass = Grass", fillcolor="#ffffff"] ;
508 -> 510 ;
511 [label="Sp. Def <= 72.5\ngini = 0.776\nsamples = 7\nvalue = [2, 0, 0, 0, 1, 0, 0, 0, 2, 0, 0, 0, 1, 1\n0, 0, 0, 0]\nclass = Grass", fillcolor="#ffffff"] ;
510 -> 511 ;
512 [label="gini = 0.0\nsamples = 2\nvalue = [2, 0, 0, 0, 0, 0, 0, 0, 0, 0, 0, 0, 0, 0\n0, 0, 0, 0]\nclass = Grass", fillcolor="#e58139"] ;
511 -> 512 ;
513 [label="Defense <= 118.5\ngini = 0.72\nsamples = 5\nvalue = [0, 0, 0, 0, 1, 0, 0, 0, 2, 0, 0, 0, 1, 1\n0, 0, 0, 0]\nclass = Fire", fillcolor="#cef5f8"] ;
511 -> 513 ;
514 [label="Sp. Def <= 77.5\ngini = 0.667\nsamples = 3\nvalue = [0, 0, 0, 0, 1, 0, 0, 0, 0, 0, 0, 0, 1, 1\n0, 0, 0, 0]\nclass = Fire", fillcolor="#ffffff"] ;
513 -> 514 ;
515 [label="gini = 0.0\nsamples = 1\nvalue = [0, 0, 0, 0, 0, 0, 0, 0, 0, 0, 0, 0, 0, 1\n0, 0, 0, 0]\nclass = Bug", fillcolor="#ba39e5"] ;
514 -> 515 ;
516 [label="Speed <= 91.5\ngini = 0.5\nsamples = 2\nvalue = [0, 0, 0, 0, 1, 0, 0, 0, 0, 0, 0, 0, 1, 0\n0, 0, 0, 0]\nclass = Fire", fillcolor="#ffffff"] ;
514 -> 516 ;
517 [label="gini = 0.0\nsamples = 1\nvalue = [0, 0, 0, 0, 0, 0, 0, 0, 0, 0, 0, 0, 1, 0\n0, 0, 0, 0]\nclass = Water", fillcolor="#8139e5"] ;
516 -> 517 ;
518 [label="gini = 0.0\nsamples = 1\nvalue = [0, 0, 0, 0, 1, 0, 0, 0, 0, 0, 0, 0, 0, 0\n0, 0, 0, 0]\nclass = Fire", fillcolor="#64e539"] ;
516 -> 518 ;
519 [label="gini = 0.0\nsamples = 2\nvalue = [0, 0, 0, 0, 0, 0, 0, 0, 2, 0, 0, 0, 0, 0\n0, 0, 0, 0]\nclass = Fire", fillcolor="#39d7e5"] ;
513 -> 519 ;
520 [label="gini = 0.0\nsamples = 2\nvalue = [0, 0, 0, 0, 0, 0, 0, 0, 0, 2, 0, 0, 0, 0\n0, 0, 0, 0]\nclass = Water", fillcolor="#399de5"] ;
510 -> 520 ;
521 [label="Attack <= 113.5\ngini = 0.825\nsamples = 21\nvalue = [1, 5, 0, 0, 0, 1, 0, 1, 0, 0, 6, 2, 2, 0\n0, 2, 0, 1]\nclass = Water", fillcolor="#f3f5fd"] ;
439 -> 521 ;
522 [label="Sp. Atk <= 54.0\ngini = 0.688\nsamples = 8\nvalue = [0, 4, 0, 0, 0, 0, 0, 1, 0, 0, 0, 0, 1, 0\n0, 1, 0, 1]\nclass = Grass", fillcolor="#f4e1aa"] ;
521 -> 522 ;
523 [label="Speed <= 45.0\ngini = 0.75\nsamples = 4\nvalue = [0, 0, 0, 0, 0, 0, 0, 1, 0, 0, 0, 0, 1, 0\n0, 1, 0, 1]\nclass = Fire", fillcolor="#ffffff"] ;
522 -> 523 ;
524 [label="gini = 0.0\nsamples = 1\nvalue = [0, 0, 0, 0, 0, 0, 0, 0, 0, 0, 0, 0, 0, 0\n0, 1, 0, 0]\nclass = Bug", fillcolor="#e5399d"] ;
523 -> 524 ;
525 [label="Sp. Atk <= 42.5\ngini = 0.667\nsamples = 3\nvalue = [0, 0, 0, 0, 0, 0, 0, 1, 0, 0, 0, 0, 1, 0\n0, 0, 0, 1]\nclass = Fire", fillcolor="#ffffff"] ;
523 -> 525 ;
526 [label="gini = 0.0\nsamples = 1\nvalue = [0, 0, 0, 0, 0, 0, 0, 0, 0, 0, 0, 0, 1, 0\n0, 0, 0, 0]\nclass = Water", fillcolor="#8139e5"] ;
525 -> 526 ;
527 [label="Sp. Atk <= 49.0\ngini = 0.5\nsamples = 2\nvalue = [0, 0, 0, 0, 0, 0, 0, 1, 0, 0, 0, 0, 0, 0\n0, 0, 0, 1]\nclass = Fire", fillcolor="#ffffff"] ;
525 -> 527 ;
528 [label="gini = 0.0\nsamples = 1\nvalue = [0, 0, 0, 0, 0, 0, 0, 0, 0, 0, 0, 0, 0, 0\n0, 0, 0, 1]\nclass = Bug", fillcolor="#e54739"] ;
527 -> 528 ;
529 [label="gini = 0.0\nsamples = 1\nvalue = [0, 0, 0, 0, 0, 0, 0, 1, 0, 0, 0, 0, 0, 0\n0, 0, 0, 0]\nclass = Fire", fillcolor="#39e5ba"] ;
527 -> 529 ;
530 [label="gini = 0.0\nsamples = 4\nvalue = [0, 4, 0, 0, 0, 0, 0, 0, 0, 0, 0, 0, 0, 0\n0, 0, 0, 0]\nclass = Grass", fillcolor="#e5ba39"] ;
522 -> 530 ;
531 [label="Defense <= 133.0\ngini = 0.734\nsamples = 13\nvalue = [1, 1, 0, 0, 0, 1, 0, 0, 0, 0, 6, 2, 1, 0\n0, 1, 0, 0]\nclass = Water", fillcolor="#b7c7f6"] ;
521 -> 531 ;
532 [label="Speed <= 93.5\ngini = 0.519\nsamples = 9\nvalue = [0, 1, 0, 0, 0, 1, 0, 0, 0, 0, 6, 0, 1, 0\n0, 0, 0, 0]\nclass = Water", fillcolor="#839eef"] ;
531 -> 532 ;
533 [label="HP <= 142.0\ngini = 0.406\nsamples = 8\nvalue = [0, 1, 0, 0, 0, 1, 0, 0, 0, 0, 6, 0, 0, 0\n0, 0, 0, 0]\nclass = Water", fillcolor="#7290ec"] ;
532 -> 533 ;
534 [label="Sp. Atk <= 57.5\ngini = 0.245\nsamples = 7\nvalue = [0, 1, 0, 0, 0, 0, 0, 0, 0, 0, 6, 0, 0, 0\n0, 0, 0, 0]\nclass = Water", fillcolor="#5a7ee9"] ;
533 -> 534 ;
535 [label="gini = 0.0\nsamples = 5\nvalue = [0, 0, 0, 0, 0, 0, 0, 0, 0, 0, 5, 0, 0, 0\n0, 0, 0, 0]\nclass = Water", fillcolor="#3964e5"] ;
534 -> 535 ;
536 [label="Sp. Def <= 72.5\ngini = 0.5\nsamples = 2\nvalue = [0, 1, 0, 0, 0, 0, 0, 0, 0, 0, 1, 0, 0, 0\n0, 0, 0, 0]\nclass = Grass", fillcolor="#ffffff"] ;
534 -> 536 ;
537 [label="gini = 0.0\nsamples = 1\nvalue = [0, 0, 0, 0, 0, 0, 0, 0, 0, 0, 1, 0, 0, 0\n0, 0, 0, 0]\nclass = Water", fillcolor="#3964e5"] ;
536 -> 537 ;
538 [label="gini = 0.0\nsamples = 1\nvalue = [0, 1, 0, 0, 0, 0, 0, 0, 0, 0, 0, 0, 0, 0\n0, 0, 0, 0]\nclass = Grass", fillcolor="#e5ba39"] ;
536 -> 538 ;
539 [label="gini = 0.0\nsamples = 1\nvalue = [0, 0, 0, 0, 0, 1, 0, 0, 0, 0, 0, 0, 0, 0\n0, 0, 0, 0]\nclass = Fire", fillcolor="#39e547"] ;
533 -> 539 ;
540 [label="gini = 0.0\nsamples = 1\nvalue = [0, 0, 0, 0, 0, 0, 0, 0, 0, 0, 0, 0, 1, 0\n0, 0, 0, 0]\nclass = Water", fillcolor="#8139e5"] ;
532 -> 540 ;
541 [label="Speed <= 54.0\ngini = 0.625\nsamples = 4\nvalue = [1, 0, 0, 0, 0, 0, 0, 0, 0, 0, 0, 2, 0, 0\n0, 1, 0, 0]\nclass = Water", fillcolor="#c2bdf6"] ;
531 -> 541 ;
542 [label="gini = 0.0\nsamples = 2\nvalue = [0, 0, 0, 0, 0, 0, 0, 0, 0, 0, 0, 2, 0, 0\n0, 0, 0, 0]\nclass = Water", fillcolor="#4739e5"] ;
541 -> 542 ;
543 [label="Speed <= 74.5\ngini = 0.5\nsamples = 2\nvalue = [1, 0, 0, 0, 0, 0, 0, 0, 0, 0, 0, 0, 0, 0\n0, 1, 0, 0]\nclass = Grass", fillcolor="#ffffff"] ;
541 -> 543 ;
544 [label="gini = 0.0\nsamples = 1\nvalue = [0, 0, 0, 0, 0, 0, 0, 0, 0, 0, 0, 0, 0, 0\n0, 1, 0, 0]\nclass = Bug", fillcolor="#e5399d"] ;
543 -> 544 ;
545 [label="gini = 0.0\nsamples = 1\nvalue = [1, 0, 0, 0, 0, 0, 0, 0, 0, 0, 0, 0, 0, 0\n0, 0, 0, 0]\nclass = Grass", fillcolor="#e58139"] ;
543 -> 545 ;
546 [label="Speed <= 85.5\ngini = 0.923\nsamples = 665\nvalue = [26, 29, 31, 57, 20, 18, 59, 5, 31, 65, 13, 26\n46, 24, 71, 27, 20, 97]\nclass = Bug", fillcolor="#fef7f6"] ;
0 -> 546 [labeldistance=2.5, labelangle=-45, headlabel="False"] ;
547 [label="Attack <= 55.5\ngini = 0.91\nsamples = 389\nvalue = [13, 13, 11, 19, 12, 6, 34, 1, 22, 52, 5, 18\n26, 17, 34, 20, 14, 72]\nclass = Bug", fillcolor="#fdf4f3"] ;
546 -> 547 ;
548 [label="HP <= 61.0\ngini = 0.883\nsamples = 81\nvalue = [3, 0, 1, 5, 5, 0, 7, 0, 10, 10, 0, 4, 2, 1\n17, 5, 0, 11]\nclass = Bug", fillcolor="#fdeefc"] ;
547 -> 548 ;
549 [label="Speed <= 34.0\ngini = 0.869\nsamples = 55\nvalue = [1, 0, 0, 4, 3, 0, 3, 0, 10, 9, 0, 3, 0, 1\n9, 3, 0, 9]\nclass = Fire", fillcolor="#fbfefe"] ;
548 -> 549 ;
550 [label="Defense <= 65.0\ngini = 0.704\nsamples = 14\nvalue = [0, 0, 0, 0, 0, 0, 2, 0, 5, 5, 0, 0, 0, 0\n2, 0, 0, 0]\nclass = Fire", fillcolor="#ffffff"] ;
549 -> 550 ;
551 [label="Sp. Atk <= 81.5\ngini = 0.656\nsamples = 8\nvalue = [0, 0, 0, 0, 0, 0, 1, 0, 1, 4, 0, 0, 0, 0\n2, 0, 0, 0]\nclass = Water", fillcolor="#bddef6"] ;
550 -> 551 ;
552 [label="Defense <= 45.0\ngini = 0.5\nsamples = 6\nvalue = [0, 0, 0, 0, 0, 0, 1, 0, 1, 4, 0, 0, 0, 0\n0, 0, 0, 0]\nclass = Water", fillcolor="#88c4ef"] ;
551 -> 552 ;
553 [label="gini = 0.0\nsamples = 1\nvalue = [0, 0, 0, 0, 0, 0, 1, 0, 0, 0, 0, 0, 0, 0\n0, 0, 0, 0]\nclass = Fire", fillcolor="#39e581"] ;
552 -> 553 ;
554 [label="Attack <= 32.5\ngini = 0.32\nsamples = 5\nvalue = [0, 0, 0, 0, 0, 0, 0, 0, 1, 4, 0, 0, 0, 0\n0, 0, 0, 0]\nclass = Water", fillcolor="#6ab6ec"] ;
552 -> 554 ;
555 [label="gini = 0.0\nsamples = 1\nvalue = [0, 0, 0, 0, 0, 0, 0, 0, 1, 0, 0, 0, 0, 0\n0, 0, 0, 0]\nclass = Fire", fillcolor="#39d7e5"] ;
554 -> 555 ;
556 [label="gini = 0.0\nsamples = 4\nvalue = [0, 0, 0, 0, 0, 0, 0, 0, 0, 4, 0, 0, 0, 0\n0, 0, 0, 0]\nclass = Water", fillcolor="#399de5"] ;
554 -> 556 ;
557 [label="gini = 0.0\nsamples = 2\nvalue = [0, 0, 0, 0, 0, 0, 0, 0, 0, 0, 0, 0, 0, 0\n2, 0, 0, 0]\nclass = Bug", fillcolor="#e539d7"] ;
551 -> 557 ;
558 [label="HP <= 59.0\ngini = 0.5\nsamples = 6\nvalue = [0, 0, 0, 0, 0, 0, 1, 0, 4, 1, 0, 0, 0, 0\n0, 0, 0, 0]\nclass = Fire", fillcolor="#88e7ef"] ;
550 -> 558 ;
559 [label="gini = 0.0\nsamples = 3\nvalue = [0, 0, 0, 0, 0, 0, 0, 0, 3, 0, 0, 0, 0, 0\n0, 0, 0, 0]\nclass = Fire", fillcolor="#39d7e5"] ;
558 -> 559 ;
560 [label="Defense <= 90.0\ngini = 0.667\nsamples = 3\nvalue = [0, 0, 0, 0, 0, 0, 1, 0, 1, 1, 0, 0, 0, 0\n0, 0, 0, 0]\nclass = Fire", fillcolor="#ffffff"] ;
558 -> 560 ;
561 [label="gini = 0.0\nsamples = 1\nvalue = [0, 0, 0, 0, 0, 0, 0, 0, 0, 1, 0, 0, 0, 0\n0, 0, 0, 0]\nclass = Water", fillcolor="#399de5"] ;
560 -> 561 ;
562 [label="Sp. Def <= 90.0\ngini = 0.5\nsamples = 2\nvalue = [0, 0, 0, 0, 0, 0, 1, 0, 1, 0, 0, 0, 0, 0\n0, 0, 0, 0]\nclass = Fire", fillcolor="#ffffff"] ;
560 -> 562 ;
563 [label="gini = 0.0\nsamples = 1\nvalue = [0, 0, 0, 0, 0, 0, 1, 0, 0, 0, 0, 0, 0, 0\n0, 0, 0, 0]\nclass = Fire", fillcolor="#39e581"] ;
562 -> 563 ;
564 [label="gini = 0.0\nsamples = 1\nvalue = [0, 0, 0, 0, 0, 0, 0, 0, 1, 0, 0, 0, 0, 0\n0, 0, 0, 0]\nclass = Fire", fillcolor="#39d7e5"] ;
562 -> 564 ;
565 [label="Sp. Atk <= 70.5\ngini = 0.871\nsamples = 41\nvalue = [1, 0, 0, 4, 3, 0, 1, 0, 5, 4, 0, 3, 0, 1\n7, 3, 0, 9]\nclass = Bug", fillcolor="#fdf4f3"] ;
549 -> 565 ;
566 [label="Attack <= 36.5\ngini = 0.786\nsamples = 23\nvalue = [0, 0, 0, 3, 1, 0, 1, 0, 0, 3, 0, 2, 0, 0\n5, 0, 0, 8]\nclass = Bug", fillcolor="#fbe0de"] ;
565 -> 566 ;
567 [label="Speed <= 40.0\ngini = 0.32\nsamples = 5\nvalue = [0, 0, 0, 0, 0, 0, 0, 0, 0, 1, 0, 0, 0, 0\n4, 0, 0, 0]\nclass = Bug", fillcolor="#ec6ae1"] ;
566 -> 567 ;
568 [label="gini = 0.0\nsamples = 1\nvalue = [0, 0, 0, 0, 0, 0, 0, 0, 0, 1, 0, 0, 0, 0\n0, 0, 0, 0]\nclass = Water", fillcolor="#399de5"] ;
567 -> 568 ;
569 [label="gini = 0.0\nsamples = 4\nvalue = [0, 0, 0, 0, 0, 0, 0, 0, 0, 0, 0, 0, 0, 0\n4, 0, 0, 0]\nclass = Bug", fillcolor="#e539d7"] ;
567 -> 569 ;
570 [label="HP <= 47.5\ngini = 0.741\nsamples = 18\nvalue = [0, 0, 0, 3, 1, 0, 1, 0, 0, 2, 0, 2, 0, 0\n1, 0, 0, 8]\nclass = Bug", fillcolor="#f6c2bd"] ;
566 -> 570 ;
571 [label="Defense <= 52.5\ngini = 0.843\nsamples = 11\nvalue = [0, 0, 0, 2, 1, 0, 1, 0, 0, 2, 0, 2, 0, 0\n1, 0, 0, 2]\nclass = Grass", fillcolor="#ffffff"] ;
570 -> 571 ;
572 [label="Sp. Def <= 44.0\ngini = 0.815\nsamples = 9\nvalue = [0, 0, 0, 2, 1, 0, 1, 0, 0, 2, 0, 2, 0, 0\n1, 0, 0, 0]\nclass = Grass", fillcolor="#ffffff"] ;
571 -> 572 ;
573 [label="gini = 0.0\nsamples = 2\nvalue = [0, 0, 0, 2, 0, 0, 0, 0, 0, 0, 0, 0, 0, 0\n0, 0, 0, 0]\nclass = Grass", fillcolor="#9de539"] ;
572 -> 573 ;
574 [label="Attack <= 49.5\ngini = 0.776\nsamples = 7\nvalue = [0, 0, 0, 0, 1, 0, 1, 0, 0, 2, 0, 2, 0, 0\n1, 0, 0, 0]\nclass = Water", fillcolor="#ffffff"] ;
572 -> 574 ;
575 [label="Sp. Atk <= 63.5\ngini = 0.625\nsamples = 4\nvalue = [0, 0, 0, 0, 1, 0, 1, 0, 0, 2, 0, 0, 0, 0\n0, 0, 0, 0]\nclass = Water", fillcolor="#bddef6"] ;
574 -> 575 ;
576 [label="Sp. Atk <= 61.5\ngini = 0.5\nsamples = 2\nvalue = [0, 0, 0, 0, 1, 0, 1, 0, 0, 0, 0, 0, 0, 0\n0, 0, 0, 0]\nclass = Fire", fillcolor="#ffffff"] ;
575 -> 576 ;
577 [label="gini = 0.0\nsamples = 1\nvalue = [0, 0, 0, 0, 1, 0, 0, 0, 0, 0, 0, 0, 0, 0\n0, 0, 0, 0]\nclass = Fire", fillcolor="#64e539"] ;
576 -> 577 ;
578 [label="gini = 0.0\nsamples = 1\nvalue = [0, 0, 0, 0, 0, 0, 1, 0, 0, 0, 0, 0, 0, 0\n0, 0, 0, 0]\nclass = Fire", fillcolor="#39e581"] ;
576 -> 578 ;
579 [label="gini = 0.0\nsamples = 2\nvalue = [0, 0, 0, 0, 0, 0, 0, 0, 0, 2, 0, 0, 0, 0\n0, 0, 0, 0]\nclass = Water", fillcolor="#399de5"] ;
575 -> 579 ;
580 [label="Sp. Atk <= 67.5\ngini = 0.444\nsamples = 3\nvalue = [0, 0, 0, 0, 0, 0, 0, 0, 0, 0, 0, 2, 0, 0\n1, 0, 0, 0]\nclass = Water", fillcolor="#a39cf2"] ;
574 -> 580 ;
581 [label="gini = 0.0\nsamples = 2\nvalue = [0, 0, 0, 0, 0, 0, 0, 0, 0, 0, 0, 2, 0, 0\n0, 0, 0, 0]\nclass = Water", fillcolor="#4739e5"] ;
580 -> 581 ;
582 [label="gini = 0.0\nsamples = 1\nvalue = [0, 0, 0, 0, 0, 0, 0, 0, 0, 0, 0, 0, 0, 0\n1, 0, 0, 0]\nclass = Bug", fillcolor="#e539d7"] ;
580 -> 582 ;
583 [label="gini = 0.0\nsamples = 2\nvalue = [0, 0, 0, 0, 0, 0, 0, 0, 0, 0, 0, 0, 0, 0\n0, 0, 0, 2]\nclass = Bug", fillcolor="#e54739"] ;
571 -> 583 ;
584 [label="Speed <= 37.5\ngini = 0.245\nsamples = 7\nvalue = [0, 0, 0, 1, 0, 0, 0, 0, 0, 0, 0, 0, 0, 0\n0, 0, 0, 6]\nclass = Bug", fillcolor="#e9665a"] ;
570 -> 584 ;
585 [label="gini = 0.0\nsamples = 1\nvalue = [0, 0, 0, 1, 0, 0, 0, 0, 0, 0, 0, 0, 0, 0\n0, 0, 0, 0]\nclass = Grass", fillcolor="#9de539"] ;
584 -> 585 ;
586 [label="gini = 0.0\nsamples = 6\nvalue = [0, 0, 0, 0, 0, 0, 0, 0, 0, 0, 0, 0, 0, 0\n0, 0, 0, 6]\nclass = Bug", fillcolor="#e54739"] ;
584 -> 586 ;
587 [label="Speed <= 78.5\ngini = 0.852\nsamples = 18\nvalue = [1, 0, 0, 1, 2, 0, 0, 0, 5, 1, 0, 1, 0, 1\n2, 3, 0, 1]\nclass = Fire", fillcolor="#e5fafc"] ;
565 -> 587 ;
588 [label="Defense <= 95.0\ngini = 0.88\nsamples = 15\nvalue = [1, 0, 0, 1, 2, 0, 0, 0, 2, 1, 0, 1, 0, 1\n2, 3, 0, 1]\nclass = Bug", fillcolor="#fdf0f7"] ;
587 -> 588 ;
589 [label="Sp. Def <= 91.5\ngini = 0.875\nsamples = 12\nvalue = [1, 0, 0, 1, 2, 0, 0, 0, 2, 1, 0, 1, 0, 1\n2, 1, 0, 0]\nclass = Fire", fillcolor="#ffffff"] ;
588 -> 589 ;
590 [label="Sp. Def <= 69.0\ngini = 0.84\nsamples = 9\nvalue = [1, 0, 0, 1, 0, 0, 0, 0, 2, 0, 0, 1, 0, 1\n2, 1, 0, 0]\nclass = Fire", fillcolor="#ffffff"] ;
589 -> 590 ;
591 [label="Attack <= 37.5\ngini = 0.778\nsamples = 6\nvalue = [0, 0, 0, 1, 0, 0, 0, 0, 2, 0, 0, 1, 0, 1\n0, 1, 0, 0]\nclass = Fire", fillcolor="#d7f7fa"] ;
590 -> 591 ;
592 [label="Speed <= 52.5\ngini = 0.667\nsamples = 3\nvalue = [0, 0, 0, 1, 0, 0, 0, 0, 0, 0, 0, 1, 0, 0\n0, 1, 0, 0]\nclass = Grass", fillcolor="#ffffff"] ;
591 -> 592 ;
593 [label="gini = 0.0\nsamples = 1\nvalue = [0, 0, 0, 1, 0, 0, 0, 0, 0, 0, 0, 0, 0, 0\n0, 0, 0, 0]\nclass = Grass", fillcolor="#9de539"] ;
592 -> 593 ;
594 [label="Sp. Atk <= 95.0\ngini = 0.5\nsamples = 2\nvalue = [0, 0, 0, 0, 0, 0, 0, 0, 0, 0, 0, 1, 0, 0\n0, 1, 0, 0]\nclass = Water", fillcolor="#ffffff"] ;
592 -> 594 ;
595 [label="gini = 0.0\nsamples = 1\nvalue = [0, 0, 0, 0, 0, 0, 0, 0, 0, 0, 0, 1, 0, 0\n0, 0, 0, 0]\nclass = Water", fillcolor="#4739e5"] ;
594 -> 595 ;
596 [label="gini = 0.0\nsamples = 1\nvalue = [0, 0, 0, 0, 0, 0, 0, 0, 0, 0, 0, 0, 0, 0\n0, 1, 0, 0]\nclass = Bug", fillcolor="#e5399d"] ;
594 -> 596 ;
597 [label="Sp. Def <= 47.0\ngini = 0.444\nsamples = 3\nvalue = [0, 0, 0, 0, 0, 0, 0, 0, 2, 0, 0, 0, 0, 1\n0, 0, 0, 0]\nclass = Fire", fillcolor="#9cebf2"] ;
591 -> 597 ;
598 [label="gini = 0.0\nsamples = 1\nvalue = [0, 0, 0, 0, 0, 0, 0, 0, 0, 0, 0, 0, 0, 1\n0, 0, 0, 0]\nclass = Bug", fillcolor="#ba39e5"] ;
597 -> 598 ;
599 [label="gini = 0.0\nsamples = 2\nvalue = [0, 0, 0, 0, 0, 0, 0, 0, 2, 0, 0, 0, 0, 0\n0, 0, 0, 0]\nclass = Fire", fillcolor="#39d7e5"] ;
597 -> 599 ;
600 [label="Speed <= 62.5\ngini = 0.444\nsamples = 3\nvalue = [1, 0, 0, 0, 0, 0, 0, 0, 0, 0, 0, 0, 0, 0\n2, 0, 0, 0]\nclass = Bug", fillcolor="#f29ceb"] ;
590 -> 600 ;
601 [label="gini = 0.0\nsamples = 2\nvalue = [0, 0, 0, 0, 0, 0, 0, 0, 0, 0, 0, 0, 0, 0\n2, 0, 0, 0]\nclass = Bug", fillcolor="#e539d7"] ;
600 -> 601 ;
602 [label="gini = 0.0\nsamples = 1\nvalue = [1, 0, 0, 0, 0, 0, 0, 0, 0, 0, 0, 0, 0, 0\n0, 0, 0, 0]\nclass = Grass", fillcolor="#e58139"] ;
600 -> 602 ;
603 [label="Sp. Def <= 112.5\ngini = 0.444\nsamples = 3\nvalue = [0, 0, 0, 0, 2, 0, 0, 0, 0, 1, 0, 0, 0, 0\n0, 0, 0, 0]\nclass = Fire", fillcolor="#b2f29c"] ;
589 -> 603 ;
604 [label="gini = 0.0\nsamples = 2\nvalue = [0, 0, 0, 0, 2, 0, 0, 0, 0, 0, 0, 0, 0, 0\n0, 0, 0, 0]\nclass = Fire", fillcolor="#64e539"] ;
603 -> 604 ;
605 [label="gini = 0.0\nsamples = 1\nvalue = [0, 0, 0, 0, 0, 0, 0, 0, 0, 1, 0, 0, 0, 0\n0, 0, 0, 0]\nclass = Water", fillcolor="#399de5"] ;
603 -> 605 ;
606 [label="Speed <= 52.5\ngini = 0.444\nsamples = 3\nvalue = [0, 0, 0, 0, 0, 0, 0, 0, 0, 0, 0, 0, 0, 0\n0, 2, 0, 1]\nclass = Bug", fillcolor="#f29cce"] ;
588 -> 606 ;
607 [label="gini = 0.0\nsamples = 2\nvalue = [0, 0, 0, 0, 0, 0, 0, 0, 0, 0, 0, 0, 0, 0\n0, 2, 0, 0]\nclass = Bug", fillcolor="#e5399d"] ;
606 -> 607 ;
608 [label="gini = 0.0\nsamples = 1\nvalue = [0, 0, 0, 0, 0, 0, 0, 0, 0, 0, 0, 0, 0, 0\n0, 0, 0, 1]\nclass = Bug", fillcolor="#e54739"] ;
606 -> 608 ;
609 [label="gini = 0.0\nsamples = 3\nvalue = [0, 0, 0, 0, 0, 0, 0, 0, 3, 0, 0, 0, 0, 0\n0, 0, 0, 0]\nclass = Fire", fillcolor="#39d7e5"] ;
587 -> 609 ;
610 [label="Sp. Def <= 59.0\ngini = 0.846\nsamples = 26\nvalue = [2, 0, 1, 1, 2, 0, 4, 0, 0, 1, 0, 1, 2, 0\n8, 2, 0, 2]\nclass = Bug", fillcolor="#fadbf8"] ;
548 -> 610 ;
611 [label="Defense <= 51.5\ngini = 0.56\nsamples = 5\nvalue = [0, 0, 0, 0, 0, 0, 3, 0, 0, 1, 0, 0, 0, 0\n1, 0, 0, 0]\nclass = Fire", fillcolor="#9cf2c0"] ;
610 -> 611 ;
612 [label="gini = 0.0\nsamples = 1\nvalue = [0, 0, 0, 0, 0, 0, 0, 0, 0, 0, 0, 0, 0, 0\n1, 0, 0, 0]\nclass = Bug", fillcolor="#e539d7"] ;
611 -> 612 ;
613 [label="Defense <= 96.5\ngini = 0.375\nsamples = 4\nvalue = [0, 0, 0, 0, 0, 0, 3, 0, 0, 1, 0, 0, 0, 0\n0, 0, 0, 0]\nclass = Fire", fillcolor="#7beeab"] ;
611 -> 613 ;
614 [label="gini = 0.0\nsamples = 3\nvalue = [0, 0, 0, 0, 0, 0, 3, 0, 0, 0, 0, 0, 0, 0\n0, 0, 0, 0]\nclass = Fire", fillcolor="#39e581"] ;
613 -> 614 ;
615 [label="gini = 0.0\nsamples = 1\nvalue = [0, 0, 0, 0, 0, 0, 0, 0, 0, 1, 0, 0, 0, 0\n0, 0, 0, 0]\nclass = Water", fillcolor="#399de5"] ;
613 -> 615 ;
616 [label="Sp. Atk <= 88.0\ngini = 0.834\nsamples = 21\nvalue = [2, 0, 1, 1, 2, 0, 1, 0, 0, 0, 0, 1, 2, 0\n7, 2, 0, 2]\nclass = Bug", fillcolor="#f8cbf4"] ;
610 -> 616 ;
617 [label="Defense <= 52.0\ngini = 0.84\nsamples = 9\nvalue = [1, 0, 0, 1, 1, 0, 0, 0, 0, 0, 0, 0, 2, 0\n1, 1, 0, 2]\nclass = Water", fillcolor="#ffffff"] ;
616 -> 617 ;
618 [label="gini = 0.0\nsamples = 2\nvalue = [0, 0, 0, 0, 0, 0, 0, 0, 0, 0, 0, 0, 2, 0\n0, 0, 0, 0]\nclass = Water", fillcolor="#8139e5"] ;
617 -> 618 ;
