digraph Tree {
node [shape=box, style="filled, rounded", color="black", fontname="helvetica"] ;
edge [fontname="helvetica"] ;
0 [label="Sp. Atk <= 60.5\ngini = 0.929\nsamples = 1071\nvalue = [79, 51, 44, 68, 24, 46, 69, 8, 44, 94, 44, 35\n119, 40, 70, 63, 39, 134]\nclass = Flying ðŸ¦…", fillcolor="#A98FF3"] ;
1 [label="Defense <= 99.5\ngini = 0.918\nsamples = 473\nvalue = [56, 24, 16, 16, 8, 28, 15, 3, 14, 38, 32, 13\n75, 19, 10, 37, 20, 49]\nclass = Fighting ðŸ¥Š", fillcolor="#C22E28"] ;
0 -> 1 [labeldistance=2.5, labelangle=45, headlabel="True"] ;
2 [label="HP <= 81.0\ngini = 0.91\nsamples = 387\nvalue = [47, 17, 15, 16, 8, 24, 14, 3, 10, 35, 21, 10\n72, 17, 9, 16, 9, 44]\nclass = Fighting ðŸ¥Š", fillcolor="#C22E28"] ;
1 -> 2 ;
3 [label="Sp. Atk <= 29.5\ngini = 0.915\nsamples = 335\nvalue = [47, 17, 13, 16, 7, 18, 13, 3, 9, 34, 18, 7, 49\n16, 6, 14, 9, 39]\nclass = Fighting ðŸ¥Š", fillcolor="#C22E28"] ;
2 -> 3 ;
4 [label="Attack <= 47.5\ngini = 0.785\nsamples = 39\nvalue = [16, 1, 0, 0, 0, 2, 1, 0, 0, 1, 1, 2, 4, 1\n1, 2, 1, 6]\nclass = Grass ðŸŒ¿", fillcolor="#7AC74C"] ;
3 -> 4 ;
5 [label="HP <= 52.5\ngini = 0.589\nsamples = 25\nvalue = [15, 0, 0, 0, 0, 0, 0, 0, 0, 0, 0, 0, 2, 1\n1, 0, 1, 5]\nclass = Grass ðŸŒ¿", fillcolor="#7AC74C"] ;
4 -> 5 ;
6 [label="gini = 0.41\nsamples = 20\nvalue = [15, 0, 0, 0, 0, 0, 0, 0, 0, 0, 0, 0, 1, 0\n1, 0, 0, 3]\nclass = Grass ðŸŒ¿", fillcolor="#7AC74C"] ;
5 -> 6 ;
7 [label="gini = 0.72\nsamples = 5\nvalue = [0, 0, 0, 0, 0, 0, 0, 0, 0, 0, 0, 0, 1, 1\n0, 0, 1, 2]\nclass = Flying ðŸ¦…", fillcolor="#A98FF3"] ;
5 -> 7 ;
8 [label="HP <= 71.0\ngini = 0.888\nsamples = 14\nvalue = [1, 1, 0, 0, 0, 2, 1, 0, 0, 1, 1, 2, 2, 0\n0, 2, 0, 1]\nclass = Dark ðŸŒ‘", fillcolor="#705746"] ;
4 -> 8 ;
9 [label="gini = 0.875\nsamples = 12\nvalue = [1, 1, 0, 0, 0, 0, 1, 0, 0, 1, 1, 2, 2, 0\n0, 2, 0, 1]\nclass = Steel ðŸ›¡ï¸", fillcolor="#B7B7CE"] ;
8 -> 9 ;
10 [label="gini = 0.0\nsamples = 2\nvalue = [0, 0, 0, 0, 0, 2, 0, 0, 0, 0, 0, 0, 0, 0\n0, 0, 0, 0]\nclass = Dark ðŸŒ‘", fillcolor="#705746"] ;
8 -> 10 ;
11 [label="Sp. Atk <= 36.5\ngini = 0.918\nsamples = 296\nvalue = [31, 16, 13, 16, 7, 16, 12, 3, 9, 33, 17, 5, 45\n15, 5, 12, 8, 33]\nclass = Fighting ðŸ¥Š", fillcolor="#C22E28"] ;
3 -> 11 ;
12 [label="Sp. Def <= 72.5\ngini = 0.871\nsamples = 63\nvalue = [4, 3, 2, 1, 2, 9, 0, 1, 2, 3, 8, 2, 17, 1\n0, 4, 2, 2]\nclass = Fighting ðŸ¥Š", fillcolor="#C22E28"] ;
11 -> 12 ;
13 [label="gini = 0.864\nsamples = 57\nvalue = [4, 3, 2, 1, 2, 4, 0, 1, 1, 3, 8, 2, 17, 1\n0, 4, 2, 2]\nclass = Fighting ðŸ¥Š", fillcolor="#C22E28"] ;
12 -> 13 ;
14 [label="gini = 0.278\nsamples = 6\nvalue = [0, 0, 0, 0, 0, 5, 0, 0, 1, 0, 0, 0, 0, 0\n0, 0, 0, 0]\nclass = Dark ðŸŒ‘", fillcolor="#705746"] ;
12 -> 14 ;
15 [label="Sp. Def <= 74.0\ngini = 0.916\nsamples = 233\nvalue = [27, 13, 11, 15, 5, 7, 12, 2, 7, 30, 9, 3, 28\n14, 5, 8, 6, 31]\nclass = Flying ðŸ¦…", fillcolor="#A98FF3"] ;
11 -> 15 ;
16 [label="gini = 0.917\nsamples = 197\nvalue = [14, 11, 9, 14, 4, 6, 11, 2, 6, 26, 8, 3, 25\n13, 4, 7, 6, 28]\nclass = Flying ðŸ¦…", fillcolor="#A98FF3"] ;
15 -> 16 ;
17 [label="gini = 0.83\nsamples = 36\nvalue = [13, 2, 2, 1, 1, 1, 1, 0, 1, 4, 1, 0, 3, 1\n1, 1, 0, 3]\nclass = Grass ðŸŒ¿", fillcolor="#7AC74C"] ;
15 -> 17 ;
18 [label="Attack <= 111.5\ngini = 0.767\nsamples = 52\nvalue = [0, 0, 2, 0, 1, 6, 1, 0, 1, 1, 3, 3, 23, 1\n3, 2, 0, 5]\nclass = Fighting ðŸ¥Š", fillcolor="#C22E28"] ;
2 -> 18 ;
19 [label="Sp. Def <= 50.5\ngini = 0.645\nsamples = 35\nvalue = [0, 0, 1, 0, 0, 2, 0, 0, 1, 0, 1, 1, 20, 1\n3, 1, 0, 4]\nclass = Fighting ðŸ¥Š", fillcolor="#C22E28"] ;
18 -> 19 ;
20 [label="Sp. Def <= 32.5\ngini = 0.815\nsamples = 9\nvalue = [0, 0, 0, 0, 0, 1, 0, 0, 1, 0, 1, 0, 2, 0\n2, 0, 0, 2]\nclass = Fighting ðŸ¥Š", fillcolor="#C22E28"] ;
19 -> 20 ;
21 [label="gini = 0.0\nsamples = 2\nvalue = [0, 0, 0, 0, 0, 0, 0, 0, 0, 0, 0, 0, 2, 0\n0, 0, 0, 0]\nclass = Fighting ðŸ¥Š", fillcolor="#C22E28"] ;
20 -> 21 ;
22 [label="gini = 0.776\nsamples = 7\nvalue = [0, 0, 0, 0, 0, 1, 0, 0, 1, 0, 1, 0, 0, 0\n2, 0, 0, 2]\nclass = Rock ðŸª¨", fillcolor="#B6A136"] ;
20 -> 22 ;
23 [label="Speed <= 96.0\ngini = 0.506\nsamples = 26\nvalue = [0, 0, 1, 0, 0, 1, 0, 0, 0, 0, 0, 1, 18, 1\n1, 1, 0, 2]\nclass = Fighting ðŸ¥Š", fillcolor="#C22E28"] ;
19 -> 23 ;
24 [label="gini = 0.47\nsamples = 25\nvalue = [0, 0, 1, 0, 0, 1, 0, 0, 0, 0, 0, 1, 18, 1\n1, 1, 0, 1]\nclass = Fighting ðŸ¥Š", fillcolor="#C22E28"] ;
23 -> 24 ;
25 [label="gini = 0.0\nsamples = 1\nvalue = [0, 0, 0, 0, 0, 0, 0, 0, 0, 0, 0, 0, 0, 0\n0, 0, 0, 1]\nclass = Flying ðŸ¦…", fillcolor="#A98FF3"] ;
23 -> 25 ;
26 [label="Sp. Def <= 57.5\ngini = 0.865\nsamples = 17\nvalue = [0, 0, 1, 0, 1, 4, 1, 0, 0, 1, 2, 2, 3, 0\n0, 1, 0, 1]\nclass = Dark ðŸŒ‘", fillcolor="#705746"] ;
18 -> 26 ;
27 [label="Speed <= 84.0\ngini = 0.444\nsamples = 3\nvalue = [0, 0, 0, 0, 0, 0, 1, 0, 0, 0, 0, 2, 0, 0\n0, 0, 0, 0]\nclass = Steel ðŸ›¡ï¸", fillcolor="#B7B7CE"] ;
26 -> 27 ;
28 [label="gini = 0.0\nsamples = 1\nvalue = [0, 0, 0, 0, 0, 0, 0, 0, 0, 0, 0, 1, 0, 0\n0, 0, 0, 0]\nclass = Steel ðŸ›¡ï¸", fillcolor="#B7B7CE"] ;
27 -> 28 ;
29 [label="gini = 0.5\nsamples = 2\nvalue = [0, 0, 0, 0, 0, 0, 1, 0, 0, 0, 0, 1, 0, 0\n0, 0, 0, 0]\nclass = Poison â˜ ï¸", fillcolor="#A33EA1"] ;
27 -> 29 ;
30 [label="Sp. Atk <= 44.0\ngini = 0.827\nsamples = 14\nvalue = [0, 0, 1, 0, 1, 4, 0, 0, 0, 1, 2, 0, 3, 0\n0, 1, 0, 1]\nclass = Dark ðŸŒ‘", fillcolor="#705746"] ;
26 -> 30 ;
31 [label="gini = 0.0\nsamples = 2\nvalue = [0, 0, 0, 0, 0, 2, 0, 0, 0, 0, 0, 0, 0, 0\n0, 0, 0, 0]\nclass = Dark ðŸŒ‘", fillcolor="#705746"] ;
30 -> 31 ;
32 [label="gini = 0.847\nsamples = 12\nvalue = [0, 0, 1, 0, 1, 2, 0, 0, 0, 1, 2, 0, 3, 0\n0, 1, 0, 1]\nclass = Fighting ðŸ¥Š", fillcolor="#C22E28"] ;
30 -> 32 ;
33 [label="Speed <= 35.5\ngini = 0.878\nsamples = 86\nvalue = [9, 7, 1, 0, 0, 4, 1, 0, 4, 3, 11, 3, 3, 2\n1, 21, 11, 5]\nclass = Ghost ðŸ‘»", fillcolor="#735797"] ;
1 -> 33 ;
34 [label="Sp. Def <= 103.0\ngini = 0.704\nsamples = 26\nvalue = [2, 0, 0, 0, 0, 0, 0, 0, 0, 1, 2, 1, 0, 1\n0, 13, 4, 2]\nclass = Ghost ðŸ‘»", fillcolor="#735797"] ;
33 -> 34 ;
35 [label="Defense <= 142.5\ngini = 0.548\nsamples = 19\nvalue = [0, 0, 0, 0, 0, 0, 0, 0, 0, 0, 1, 1, 0, 0\n0, 12, 4, 1]\nclass = Ghost ðŸ‘»", fillcolor="#735797"] ;
34 -> 35 ;
36 [label="Defense <= 104.0\ngini = 0.436\nsamples = 15\nvalue = [0, 0, 0, 0, 0, 0, 0, 0, 0, 0, 1, 0, 0, 0\n0, 11, 2, 1]\nclass = Ghost ðŸ‘»", fillcolor="#735797"] ;
35 -> 36 ;
37 [label="gini = 0.694\nsamples = 7\nvalue = [0, 0, 0, 0, 0, 0, 0, 0, 0, 0, 1, 0, 0, 0\n0, 3, 2, 1]\nclass = Ghost ðŸ‘»", fillcolor="#735797"] ;
36 -> 37 ;
38 [label="gini = 0.0\nsamples = 8\nvalue = [0, 0, 0, 0, 0, 0, 0, 0, 0, 0, 0, 0, 0, 0\n0, 8, 0, 0]\nclass = Ghost ðŸ‘»", fillcolor="#735797"] ;
36 -> 38 ;
39 [label="Attack <= 113.5\ngini = 0.625\nsamples = 4\nvalue = [0, 0, 0, 0, 0, 0, 0, 0, 0, 0, 0, 1, 0, 0\n0, 1, 2, 0]\nclass = Dragon ðŸ‰", fillcolor="#6F35FC"] ;
35 -> 39 ;
40 [label="gini = 0.0\nsamples = 2\nvalue = [0, 0, 0, 0, 0, 0, 0, 0, 0, 0, 0, 0, 0, 0\n0, 0, 2, 0]\nclass = Dragon ðŸ‰", fillcolor="#6F35FC"] ;
39 -> 40 ;
41 [label="gini = 0.5\nsamples = 2\nvalue = [0, 0, 0, 0, 0, 0, 0, 0, 0, 0, 0, 1, 0, 0\n0, 1, 0, 0]\nclass = Steel ðŸ›¡ï¸", fillcolor="#B7B7CE"] ;
39 -> 41 ;
42 [label="Speed <= 25.0\ngini = 0.816\nsamples = 7\nvalue = [2, 0, 0, 0, 0, 0, 0, 0, 0, 1, 1, 0, 0, 1\n0, 1, 0, 1]\nclass = Grass ðŸŒ¿", fillcolor="#7AC74C"] ;
34 -> 42 ;
43 [label="HP <= 72.0\ngini = 0.625\nsamples = 4\nvalue = [2, 0, 0, 0, 0, 0, 0, 0, 0, 1, 0, 0, 0, 0\n0, 0, 0, 1]\nclass = Grass ðŸŒ¿", fillcolor="#7AC74C"] ;
42 -> 43 ;
44 [label="gini = 0.444\nsamples = 3\nvalue = [2, 0, 0, 0, 0, 0, 0, 0, 0, 0, 0, 0, 0, 0\n0, 0, 0, 1]\nclass = Grass ðŸŒ¿", fillcolor="#7AC74C"] ;
43 -> 44 ;
45 [label="gini = 0.0\nsamples = 1\nvalue = [0, 0, 0, 0, 0, 0, 0, 0, 0, 1, 0, 0, 0, 0\n0, 0, 0, 0]\nclass = Ice â„ï¸", fillcolor="#96D9D6"] ;
43 -> 45 ;
46 [label="Sp. Atk <= 48.5\ngini = 0.667\nsamples = 3\nvalue = [0, 0, 0, 0, 0, 0, 0, 0, 0, 0, 1, 0, 0, 1\n0, 1, 0, 0]\nclass = Fairy ðŸ§š", fillcolor="#D685AD"] ;
42 -> 46 ;
47 [label="gini = 0.0\nsamples = 1\nvalue = [0, 0, 0, 0, 0, 0, 0, 0, 0, 0, 0, 0, 0, 0\n0, 1, 0, 0]\nclass = Ghost ðŸ‘»", fillcolor="#735797"] ;
46 -> 47 ;
48 [label="gini = 0.5\nsamples = 2\nvalue = [0, 0, 0, 0, 0, 0, 0, 0, 0, 0, 1, 0, 0, 1\n0, 0, 0, 0]\nclass = Fairy ðŸ§š", fillcolor="#D685AD"] ;
46 -> 48 ;
49 [label="Sp. Atk <= 34.5\ngini = 0.902\nsamples = 60\nvalue = [7, 7, 1, 0, 0, 4, 1, 0, 4, 2, 9, 2, 3, 1\n1, 8, 7, 3]\nclass = Fairy ðŸ§š", fillcolor="#D685AD"] ;
33 -> 49 ;
50 [label="Speed <= 85.0\ngini = 0.694\nsamples = 7\nvalue = [0, 0, 0, 0, 0, 3, 0, 0, 0, 0, 0, 2, 0, 0\n1, 1, 0, 0]\nclass = Dark ðŸŒ‘", fillcolor="#705746"] ;
49 -> 50 ;
51 [label="Sp. Atk <= 22.5\ngini = 0.625\nsamples = 4\nvalue = [0, 0, 0, 0, 0, 0, 0, 0, 0, 0, 0, 2, 0, 0\n1, 1, 0, 0]\nclass = Steel ðŸ›¡ï¸", fillcolor="#B7B7CE"] ;
50 -> 51 ;
52 [label="gini = 0.0\nsamples = 1\nvalue = [0, 0, 0, 0, 0, 0, 0, 0, 0, 0, 0, 0, 0, 0\n0, 1, 0, 0]\nclass = Ghost ðŸ‘»", fillcolor="#735797"] ;
51 -> 52 ;
53 [label="gini = 0.444\nsamples = 3\nvalue = [0, 0, 0, 0, 0, 0, 0, 0, 0, 0, 0, 2, 0, 0\n1, 0, 0, 0]\nclass = Steel ðŸ›¡ï¸", fillcolor="#B7B7CE"] ;
51 -> 53 ;
54 [label="gini = 0.0\nsamples = 3\nvalue = [0, 0, 0, 0, 0, 3, 0, 0, 0, 0, 0, 0, 0, 0\n0, 0, 0, 0]\nclass = Dark ðŸŒ‘", fillcolor="#705746"] ;
50 -> 54 ;
55 [label="HP <= 85.0\ngini = 0.886\nsamples = 53\nvalue = [7, 7, 1, 0, 0, 1, 1, 0, 4, 2, 9, 0, 3, 1\n0, 7, 7, 3]\nclass = Fairy ðŸ§š", fillcolor="#D685AD"] ;
49 -> 55 ;
56 [label="Speed <= 42.5\ngini = 0.874\nsamples = 38\nvalue = [6, 2, 1, 0, 0, 0, 1, 0, 4, 2, 4, 0, 1, 1\n0, 7, 7, 2]\nclass = Ghost ðŸ‘»", fillcolor="#735797"] ;
55 -> 56 ;
57 [label="gini = 0.375\nsamples = 4\nvalue = [3, 0, 0, 0, 0, 0, 0, 0, 0, 0, 0, 0, 0, 0\n0, 0, 0, 1]\nclass = Grass ðŸŒ¿", fillcolor="#7AC74C"] ;
56 -> 57 ;
58 [label="gini = 0.869\nsamples = 34\nvalue = [3, 2, 1, 0, 0, 0, 1, 0, 4, 2, 4, 0, 1, 1\n0, 7, 7, 1]\nclass = Ghost ðŸ‘»", fillcolor="#735797"] ;
56 -> 58 ;
59 [label="Sp. Def <= 62.5\ngini = 0.747\nsamples = 15\nvalue = [1, 5, 0, 0, 0, 1, 0, 0, 0, 0, 5, 0, 2, 0\n0, 0, 0, 1]\nclass = Fire ðŸ”¥", fillcolor="#EE8130"] ;
55 -> 59 ;
60 [label="gini = 0.32\nsamples = 5\nvalue = [1, 0, 0, 0, 0, 0, 0, 0, 0, 0, 4, 0, 0, 0\n0, 0, 0, 0]\nclass = Fairy ðŸ§š", fillcolor="#D685AD"] ;
59 -> 60 ;
61 [label="gini = 0.68\nsamples = 10\nvalue = [0, 5, 0, 0, 0, 1, 0, 0, 0, 0, 1, 0, 2, 0\n0, 0, 0, 1]\nclass = Fire ðŸ”¥", fillcolor="#EE8130"] ;
59 -> 61 ;
62 [label="Speed <= 85.5\ngini = 0.924\nsamples = 598\nvalue = [23, 27, 28, 52, 16, 18, 54, 5, 30, 56, 12, 22\n44, 21, 60, 26, 19, 85]\nclass = Flying ðŸ¦…", fillcolor="#A98FF3"] ;
0 -> 62 [labeldistance=2.5, labelangle=-45, headlabel="False"] ;
63 [label="Attack <= 56.5\ngini = 0.91\nsamples = 347\nvalue = [11, 12, 8, 15, 10, 6, 33, 1, 22, 45, 4, 15, 26\n15, 28, 19, 13, 64]\nclass = Flying ðŸ¦…", fillcolor="#A98FF3"] ;
62 -> 63 ;
64 [label="HP <= 61.0\ngini = 0.883\nsamples = 72\nvalue = [3, 0, 1, 4, 4, 0, 7, 0, 10, 9, 0, 3, 2, 1\n15, 4, 0, 9]\nclass = Rock ðŸª¨", fillcolor="#B6A136"] ;
63 -> 64 ;
65 [label="Speed <= 34.0\ngini = 0.87\nsamples = 50\nvalue = [1, 0, 0, 4, 3, 0, 3, 0, 10, 8, 0, 2, 0, 1\n8, 3, 0, 7]\nclass = Ground ðŸœï¸", fillcolor="#E2BF65"] ;
64 -> 65 ;
66 [label="Defense <= 65.0\ngini = 0.71\nsamples = 13\nvalue = [0, 0, 0, 0, 0, 0, 2, 0, 5, 4, 0, 0, 0, 0\n2, 0, 0, 0]\nclass = Ground ðŸœï¸", fillcolor="#E2BF65"] ;
65 -> 66 ;
67 [label="gini = 0.694\nsamples = 7\nvalue = [0, 0, 0, 0, 0, 0, 1, 0, 1, 3, 0, 0, 0, 0\n2, 0, 0, 0]\nclass = Ice â„ï¸", fillcolor="#96D9D6"] ;
66 -> 67 ;
68 [label="gini = 0.5\nsamples = 6\nvalue = [0, 0, 0, 0, 0, 0, 1, 0, 4, 1, 0, 0, 0, 0\n0, 0, 0, 0]\nclass = Ground ðŸœï¸", fillcolor="#E2BF65"] ;
66 -> 68 ;
69 [label="Sp. Def <= 71.5\ngini = 0.878\nsamples = 37\nvalue = [1, 0, 0, 4, 3, 0, 1, 0, 5, 4, 0, 2, 0, 1\n6, 3, 0, 7]\nclass = Flying ðŸ¦…", fillcolor="#A98FF3"] ;
65 -> 69 ;
70 [label="gini = 0.846\nsamples = 26\nvalue = [0, 0, 0, 4, 0, 0, 1, 0, 4, 3, 0, 2, 0, 1\n2, 2, 0, 7]\nclass = Flying ðŸ¦…", fillcolor="#A98FF3"] ;
69 -> 70 ;
71 [label="gini = 0.76\nsamples = 11\nvalue = [1, 0, 0, 0, 3, 0, 0, 0, 1, 1, 0, 0, 0, 0\n4, 1, 0, 0]\nclass = Rock ðŸª¨", fillcolor="#B6A136"] ;
69 -> 71 ;
72 [label="HP <= 80.5\ngini = 0.831\nsamples = 22\nvalue = [2, 0, 1, 0, 1, 0, 4, 0, 0, 1, 0, 1, 2, 0\n7, 1, 0, 2]\nclass = Rock ðŸª¨", fillcolor="#B6A136"] ;
64 -> 72 ;
73 [label="Sp. Def <= 54.5\ngini = 0.782\nsamples = 17\nvalue = [2, 0, 1, 0, 1, 0, 2, 0, 0, 1, 0, 1, 0, 0\n7, 1, 0, 1]\nclass = Rock ðŸª¨", fillcolor="#B6A136"] ;
72 -> 73 ;
74 [label="gini = 0.444\nsamples = 3\nvalue = [0, 0, 0, 0, 0, 0, 2, 0, 0, 1, 0, 0, 0, 0\n0, 0, 0, 0]\nclass = Poison â˜ ï¸", fillcolor="#A33EA1"] ;
73 -> 74 ;
75 [label="gini = 0.704\nsamples = 14\nvalue = [2, 0, 1, 0, 1, 0, 0, 0, 0, 0, 0, 1, 0, 0\n7, 1, 0, 1]\nclass = Rock ðŸª¨", fillcolor="#B6A136"] ;
73 -> 75 ;
76 [label="Defense <= 60.0\ngini = 0.64\nsamples = 5\nvalue = [0, 0, 0, 0, 0, 0, 2, 0, 0, 0, 0, 0, 2, 0\n0, 0, 0, 1]\nclass = Poison â˜ ï¸", fillcolor="#A33EA1"] ;
72 -> 76 ;
77 [label="gini = 0.0\nsamples = 2\nvalue = [0, 0, 0, 0, 0, 0, 0, 0, 0, 0, 0, 0, 2, 0\n0, 0, 0, 0]\nclass = Fighting ðŸ¥Š", fillcolor="#C22E28"] ;
76 -> 77 ;
78 [label="gini = 0.444\nsamples = 3\nvalue = [0, 0, 0, 0, 0, 0, 2, 0, 0, 0, 0, 0, 0, 0\n0, 0, 0, 1]\nclass = Poison â˜ ï¸", fillcolor="#A33EA1"] ;
76 -> 78 ;
79 [label="Defense <= 67.5\ngini = 0.906\nsamples = 275\nvalue = [8, 12, 7, 11, 6, 6, 26, 1, 12, 36, 4, 12, 24\n14, 13, 15, 13, 55]\nclass = Flying ðŸ¦…", fillcolor="#A98FF3"] ;
63 -> 79 ;
80 [label="HP <= 115.0\ngini = 0.883\nsamples = 75\nvalue = [2, 6, 2, 0, 1, 0, 15, 1, 6, 12, 0, 0, 8, 4\n4, 3, 1, 10]\nclass = Poison â˜ ï¸", fillcolor="#A33EA1"] ;
79 -> 80 ;
81 [label="Sp. Def <= 113.5\ngini = 0.875\nsamples = 63\nvalue = [2, 5, 1, 0, 1, 0, 15, 1, 5, 11, 0, 0, 6, 4\n4, 3, 1, 4]\nclass = Poison â˜ ï¸", fillcolor="#A33EA1"] ;
80 -> 81 ;
82 [label="gini = 0.857\nsamples = 57\nvalue = [2, 5, 1, 0, 0, 0, 15, 1, 3, 11, 0, 0, 6, 4\n1, 3, 1, 4]\nclass = Poison â˜ ï¸", fillcolor="#A33EA1"] ;
81 -> 82 ;
83 [label="gini = 0.611\nsamples = 6\nvalue = [0, 0, 0, 0, 1, 0, 0, 0, 2, 0, 0, 0, 0, 0\n3, 0, 0, 0]\nclass = Rock ðŸª¨", fillcolor="#B6A136"] ;
81 -> 83 ;
84 [label="Speed <= 52.5\ngini = 0.694\nsamples = 12\nvalue = [0, 1, 1, 0, 0, 0, 0, 0, 1, 1, 0, 0, 2, 0\n0, 0, 0, 6]\nclass = Flying ðŸ¦…", fillcolor="#A98FF3"] ;
80 -> 84 ;
85 [label="gini = 0.444\nsamples = 3\nvalue = [0, 1, 0, 0, 0, 0, 0, 0, 0, 0, 0, 0, 2, 0\n0, 0, 0, 0]\nclass = Fighting ðŸ¥Š", fillcolor="#C22E28"] ;
84 -> 85 ;
86 [label="gini = 0.519\nsamples = 9\nvalue = [0, 0, 1, 0, 0, 0, 0, 0, 1, 1, 0, 0, 0, 0\n0, 0, 0, 6]\nclass = Flying ðŸ¦…", fillcolor="#A98FF3"] ;
84 -> 86 ;
87 [label="Sp. Atk <= 69.5\ngini = 0.902\nsamples = 200\nvalue = [6, 6, 5, 11, 5, 6, 11, 0, 6, 24, 4, 12, 16\n10, 9, 12, 12, 45]\nclass = Flying ðŸ¦…", fillcolor="#A98FF3"] ;
79 -> 87 ;
88 [label="Attack <= 122.5\ngini = 0.905\nsamples = 31\nvalue = [3, 4, 1, 0, 0, 4, 0, 0, 2, 1, 3, 2, 2, 3\n0, 3, 0, 3]\nclass = Fire ðŸ”¥", fillcolor="#EE8130"] ;
87 -> 88 ;
89 [label="gini = 0.893\nsamples = 25\nvalue = [2, 4, 1, 0, 0, 0, 0, 0, 2, 1, 3, 1, 2, 3\n0, 3, 0, 3]\nclass = Fire ðŸ”¥", fillcolor="#EE8130"] ;
88 -> 89 ;
90 [label="gini = 0.5\nsamples = 6\nvalue = [1, 0, 0, 0, 0, 4, 0, 0, 0, 0, 0, 1, 0, 0\n0, 0, 0, 0]\nclass = Dark ðŸŒ‘", fillcolor="#705746"] ;
88 -> 90 ;
91 [label="Speed <= 77.5\ngini = 0.886\nsamples = 169\nvalue = [3, 2, 4, 11, 5, 2, 11, 0, 4, 23, 1, 10, 14\n7, 9, 9, 12, 42]\nclass = Flying ðŸ¦…", fillcolor="#A98FF3"] ;
87 -> 91 ;
92 [label="gini = 0.894\nsamples = 136\nvalue = [2, 2, 0, 10, 5, 2, 10, 0, 4, 19, 1, 6, 14, 6\n6, 9, 11, 29]\nclass = Flying ðŸ¦…", fillcolor="#A98FF3"] ;
91 -> 92 ;
93 [label="gini = 0.788\nsamples = 33\nvalue = [1, 0, 4, 1, 0, 0, 1, 0, 0, 4, 0, 4, 0, 1\n3, 0, 1, 13]\nclass = Flying ðŸ¦…", fillcolor="#A98FF3"] ;
91 -> 93 ;
94 [label="Attack <= 116.5\ngini = 0.921\nsamples = 251\nvalue = [12, 15, 20, 37, 6, 12, 21, 4, 8, 11, 8, 7, 18\n6, 32, 7, 6, 21]\nclass = Bug ðŸž", fillcolor="#A6B91A"] ;
62 -> 94 ;
95 [label="HP <= 70.5\ngini = 0.906\nsamples = 186\nvalue = [9, 11, 6, 36, 3, 3, 18, 4, 8, 11, 3, 6, 14\n6, 24, 3, 4, 17]\nclass = Bug ðŸž", fillcolor="#A6B91A"] ;
94 -> 95 ;
96 [label="Sp. Atk <= 110.5\ngini = 0.853\nsamples = 86\nvalue = [4, 7, 2, 27, 1, 2, 3, 0, 5, 5, 0, 4, 3, 2\n12, 1, 1, 7]\nclass = Bug ðŸž", fillcolor="#A6B91A"] ;
95 -> 96 ;
97 [label="Speed <= 88.0\ngini = 0.81\nsamples = 67\nvalue = [4, 4, 2, 26, 1, 1, 3, 0, 1, 4, 0, 2, 2, 1\n8, 1, 1, 6]\nclass = Bug ðŸž", fillcolor="#A6B91A"] ;
96 -> 97 ;
98 [label="gini = 0.0\nsamples = 5\nvalue = [0, 0, 0, 5, 0, 0, 0, 0, 0, 0, 0, 0, 0, 0\n0, 0, 0, 0]\nclass = Bug ðŸž", fillcolor="#A6B91A"] ;
97 -> 98 ;
99 [label="gini = 0.84\nsamples = 62\nvalue = [4, 4, 2, 21, 1, 1, 3, 0, 1, 4, 0, 2, 2, 1\n8, 1, 1, 6]\nclass = Bug ðŸž", fillcolor="#A6B91A"] ;
97 -> 99 ;
100 [label="Attack <= 67.5\ngini = 0.859\nsamples = 19\nvalue = [0, 3, 0, 1, 0, 1, 0, 0, 4, 1, 0, 2, 1, 1\n4, 0, 0, 1]\nclass = Ground ðŸœï¸", fillcolor="#E2BF65"] ;
96 -> 100 ;
101 [label="gini = 0.667\nsamples = 9\nvalue = [0, 0, 0, 0, 0, 0, 0, 0, 4, 0, 0, 1, 0, 1\n3, 0, 0, 0]\nclass = Ground ðŸœï¸", fillcolor="#E2BF65"] ;
100 -> 101 ;
102 [label="gini = 0.84\nsamples = 10\nvalue = [0, 3, 0, 1, 0, 1, 0, 0, 0, 1, 0, 1, 1, 0\n1, 0, 0, 1]\nclass = Fire ðŸ”¥", fillcolor="#EE8130"] ;
100 -> 102 ;
103 [label="Sp. Atk <= 71.0\ngini = 0.916\nsamples = 100\nvalue = [5, 4, 4, 9, 2, 1, 15, 4, 3, 6, 3, 2, 11, 4\n12, 2, 3, 10]\nclass = Poison â˜ ï¸", fillcolor="#A33EA1"] ;
95 -> 103 ;
104 [label="Speed <= 117.0\ngini = 0.663\nsamples = 13\nvalue = [1, 0, 0, 0, 1, 0, 1, 0, 0, 0, 0, 1, 7, 2\n0, 0, 0, 0]\nclass = Fighting ðŸ¥Š", fillcolor="#C22E28"] ;
103 -> 104 ;
105 [label="gini = 0.48\nsamples = 10\nvalue = [1, 0, 0, 0, 1, 0, 0, 0, 0, 0, 0, 0, 7, 1\n0, 0, 0, 0]\nclass = Fighting ðŸ¥Š", fillcolor="#C22E28"] ;
104 -> 105 ;
106 [label="gini = 0.667\nsamples = 3\nvalue = [0, 0, 0, 0, 0, 0, 1, 0, 0, 0, 0, 1, 0, 1\n0, 0, 0, 0]\nclass = Poison â˜ ï¸", fillcolor="#A33EA1"] ;
104 -> 106 ;
107 [label="Attack <= 62.5\ngini = 0.911\nsamples = 87\nvalue = [4, 4, 4, 9, 1, 1, 14, 4, 3, 6, 3, 1, 4, 2\n12, 2, 3, 10]\nclass = Poison â˜ ï¸", fillcolor="#A33EA1"] ;
103 -> 107 ;
108 [label="gini = 0.719\nsamples = 8\nvalue = [2, 0, 0, 0, 0, 0, 0, 0, 0, 0, 0, 1, 0, 0\n3, 2, 0, 0]\nclass = Rock ðŸª¨", fillcolor="#B6A136"] ;
107 -> 108 ;
109 [label="gini = 0.905\nsamples = 79\nvalue = [2, 4, 4, 9, 1, 1, 14, 4, 3, 6, 3, 0, 4, 2\n9, 0, 3, 10]\nclass = Poison â˜ ï¸", fillcolor="#A33EA1"] ;
107 -> 109 ;
110 [label="Speed <= 96.0\ngini = 0.89\nsamples = 65\nvalue = [3, 4, 14, 1, 3, 9, 3, 0, 0, 0, 5, 1, 4, 0\n8, 4, 2, 4]\nclass = Water ðŸ’§", fillcolor="#6390F0"] ;
94 -> 110 ;
111 [label="HP <= 102.5\ngini = 0.672\nsamples = 16\nvalue = [0, 0, 8, 1, 0, 0, 1, 0, 0, 0, 4, 0, 0, 0\n0, 0, 1, 1]\nclass = Water ðŸ’§", fillcolor="#6390F0"] ;
110 -> 111 ;
112 [label="Sp. Def <= 95.0\ngini = 0.716\nsamples = 9\nvalue = [0, 0, 2, 1, 0, 0, 0, 0, 0, 0, 4, 0, 0, 0\n0, 0, 1, 1]\nclass = Fairy ðŸ§š", fillcolor="#D685AD"] ;
111 -> 112 ;
113 [label="gini = 0.32\nsamples = 5\nvalue = [0, 0, 0, 1, 0, 0, 0, 0, 0, 0, 4, 0, 0, 0\n0, 0, 0, 0]\nclass = Fairy ðŸ§š", fillcolor="#D685AD"] ;
112 -> 113 ;
114 [label="gini = 0.625\nsamples = 4\nvalue = [0, 0, 2, 0, 0, 0, 0, 0, 0, 0, 0, 0, 0, 0\n0, 0, 1, 1]\nclass = Water ðŸ’§", fillcolor="#6390F0"] ;
112 -> 114 ;
115 [label="Sp. Def <= 127.0\ngini = 0.245\nsamples = 7\nvalue = [0, 0, 6, 0, 0, 0, 1, 0, 0, 0, 0, 0, 0, 0\n0, 0, 0, 0]\nclass = Water ðŸ’§", fillcolor="#6390F0"] ;
111 -> 115 ;
116 [label="gini = 0.0\nsamples = 6\nvalue = [0, 0, 6, 0, 0, 0, 0, 0, 0, 0, 0, 0, 0, 0\n0, 0, 0, 0]\nclass = Water ðŸ’§", fillcolor="#6390F0"] ;
115 -> 116 ;
117 [label="gini = 0.0\nsamples = 1\nvalue = [0, 0, 0, 0, 0, 0, 1, 0, 0, 0, 0, 0, 0, 0\n0, 0, 0, 0]\nclass = Poison â˜ ï¸", fillcolor="#A33EA1"] ;
115 -> 117 ;
118 [label="Attack <= 162.5\ngini = 0.89\nsamples = 49\nvalue = [3, 4, 6, 0, 3, 9, 2, 0, 0, 0, 1, 1, 4, 0\n8, 4, 1, 3]\nclass = Dark ðŸŒ‘", fillcolor="#705746"] ;
110 -> 118 ;
119 [label="Sp. Atk <= 97.5\ngini = 0.895\nsamples = 44\nvalue = [3, 4, 5, 0, 3, 9, 2, 0, 0, 0, 1, 1, 4, 0\n4, 4, 1, 3]\nclass = Dark ðŸŒ‘", fillcolor="#705746"] ;
118 -> 119 ;
120 [label="gini = 0.759\nsamples = 19\nvalue = [1, 2, 1, 0, 2, 8, 0, 0, 0, 0, 0, 0, 3, 0\n0, 2, 0, 0]\nclass = Dark ðŸŒ‘", fillcolor="#705746"] ;
119 -> 120 ;
121 [label="gini = 0.899\nsamples = 25\nvalue = [2, 2, 4, 0, 1, 1, 2, 0, 0, 0, 1, 1, 1, 0\n4, 2, 1, 3]\nclass = Water ðŸ’§", fillcolor="#6390F0"] ;
119 -> 121 ;
122 [label="Speed <= 122.0\ngini = 0.32\nsamples = 5\nvalue = [0, 0, 1, 0, 0, 0, 0, 0, 0, 0, 0, 0, 0, 0\n4, 0, 0, 0]\nclass = Rock ðŸª¨", fillcolor="#B6A136"] ;
118 -> 122 ;
123 [label="gini = 0.5\nsamples = 2\nvalue = [0, 0, 1, 0, 0, 0, 0, 0, 0, 0, 0, 0, 0, 0\n1, 0, 0, 0]\nclass = Water ðŸ’§", fillcolor="#6390F0"] ;
122 -> 123 ;
124 [label="gini = 0.0\nsamples = 3\nvalue = [0, 0, 0, 0, 0, 0, 0, 0, 0, 0, 0, 0, 0, 0\n3, 0, 0, 0]\nclass = Rock ðŸª¨", fillcolor="#B6A136"] ;
122 -> 124 ;
}